tree
version=v3
num_class=1
num_tree_per_iteration=1
label_index=0
max_feature_idx=39
objective=regression
feature_names=t x2 x3 left_out_mean left_in_mean right_out_mean right_in_mean left_mean right_mean left_out_median left_in_median right_out_median right_in_median left_median right_median reverse cluster age_u sex_u age_v sex_v university_is_equal school_is_equal city_is_equal sex_is_equal age_diff age_diff_1 age_diff_2 age_diff_3 age_diff_4 age_diff_5 age_diff_10 age_diff_15 age_diff_20 age_diff_25 age_diff_30 flg_classmates flg_univermates from_ego to_ego
feature_infos=[-1:594.5] [0:9.3805893475358673] [0:1] [0:22.36082171245614] [0:18.181324962515195] [0:19.759621123724131] [0:18.586331568962343] [0:16.816510144133186] [0:18.586331568962343] [0:22.36082171245614] [0:18.181324962515195] [0:19.759621123724131] [0:18.586331568962343] [0:16.816510144133186] [0:19.759621123724131] [0:24.80773111248223] none [-1:58] [-1:2] [-1:58] [-1:2] [-1:1] [-1:1] [-1:1] [-1:1] [-59:59] [0:1] [0:1] [0:1] [0:1] [0:1] [0:1] [0:1] [0:1] [0:1] [0:1] [0:1] [0:1] none none
tree_sizes=4100 4202 4154 4197 4155 4200 4225 4160 4193 4253 4207 4271 4207 4232 4238 4203 4248 4237 4193 4264 4259 4229 4199 4222 4200 4243 4224 4337 4268 4219 4285 4265 4283 4196 4314 4012 3870 4325 3696 4170 4191 4254 3968 4175 3522 4289 4255 4329 4315 4165 3523 4275 4273 2983 4291 4308 3223 4213 4246 4334 2881 4293 4289 4261 4225 2715 4337 4328 4338 4314 4291 4261 4284 4203 4332 4284 2976 4185 4287 4260 4348 4315 4340 4346 4268 4344 4247 3313 4382 4294 4304 4294 3387 4284 4301 4322 4231 4331 4343 4252 2324 4055 4293 3435 3156 4090 2060 4298 3582 4191 4256 4310 4284 2845 4296 4295 4332 4284 4304 2638 4146 4243 4222 4271 4317 4308 4236 2992 3126 3102 4314 2772 3830 4175 3205 4290 4265 4264 2269 4321 4266 4276 4189 2987 4260 4280 2693 4291 4261 861 4185 4210 4302 4262 2997 3460 4341 3682 4297 4289

Tree=0
num_leaves=45
num_cat=0
split_feature=1 1 1 12 3 1 1 0 15 0 0 0 0 9 0 0 0 0 1 7 1 15 15 15 15 6 3 15 15 15 6 12 3 15 12 1 17 17 24 15 19 19 0 1
split_gain=413265 97806.2 91332.9 60543.9 19717.8 17626.8 14896.7 13700.8 11556.4 9500.66 15015.2 8581.1 7469.19 7440.84 6596.17 6149.84 5609.58 4494.31 4155.17 4043.23 3734.96 3042.08 2939.37 2652.51 2510.58 2431.52 2235.17 2166.61 2136.47 2055.95 1928.32 1861.26 1445.79 1360.46 1327.07 1281.91 1122.34 1110.34 928.922 884.817 705.893 701.315 687.481 645.82
threshold=2.740319461670996 1.0000000180025095e-35 5.3156629864430025 0.61823605844636409 1.0286452781397601 6.4321355873363304 4.0342014792848504 -1.0000000180025095e-35 1.0740574089313377 8.5500000000000025 -1.0000000180025095e-35 6.1500000000000012 -1.0000000180025095e-35 0.27283613225834324 0.8500000000000002 1.0000000180025095e-35 -1.0000000180025095e-35 7.7500000000000009 1.4978661367769959 0.2349208062138938 7.2236602439240736 4.1077464482169459 6.1806149114853719 1.1567322516477077 1.5448565939915815 0.32584764284400408 1.7348810831286374 2.633221149679652 3.5714180370710076 10.02180312424098 0.32584764284400408 1.371580043611661 2.9287869418929744 3.0722188246486097 1.1021750348749813 4.8081027000528378 26.500000000000004 26.500000000000004 -1.0000000180025095e-35 0.20089514527270788 21.500000000000004 23.500000000000004 2.2500000000000004 5.7698810594618948
decision_type=2 2 2 2 2 2 2 2 2 2 2 2 2 2 2 2 2 2 2 2 2 2 2 2 2 2 2 2 2 2 2 2 2 2 2 2 2 2 2 2 2 2 2 2
left_child=1 3 6 8 19 15 12 23 13 10 -6 32 27 30 -7 40 28 26 34 38 -16 39 35 37 -21 -15 -10 36 41 43 -1 -11 42 -20 -13 -18 -2 -3 -5 -14 -4 -8 -9 -17
right_child=2 7 5 4 9 14 16 11 17 31 -12 18 21 25 20 29 22 -19 33 24 -22 -23 -24 -25 -26 -27 -28 -29 -30 -31 -32 -33 -34 -35 -36 -37 -38 -39 -40 -41 -42 -43 -44 -45
leaf_value=0.65519910319516594 0.6949880464774455 0.66617000888809397 0.83020894711843907 0.6477274486658926 0.73399632929095826 1.3746981574464003 0.72051473039799774 1.0572228153596228 0.79363475221498592 0.748311946022993 0.93303412593607926 0.81522846987113562 1.0319587847615606 0.6767039259213995 1.8862879348845984 1.4205275695839561 1.1584293623837234 0.71815522766446893 0.89546970607336396 0.73036005949311411 2.3066632369225428 1.1559187023077022 1.3895279605783055 0.86890686586906229 0.80877794750175858 0.70721312680394477 0.95020443703427782 1.087134297988122 1.3144462473044054 1.7820387383432768 0.67259527753271997 0.80050488178400592 1.1786009791789394 1.0011610189272364 0.87644460511891886 1.2826630009433981 0.89454750688803797 0.75298122182981142 0.69728474652522776 0.96069420921601201 1.1762711017280161 0.97372222201975722 0.957382233315899 1.5571163762097511
leaf_weight=198731 986 3640 131 4698 5805 173 309 1229 4239 17208 10920 13240 4913 52562 582 905 3079 12443 10450 55124 392 1661 954 1114 4407 51934 1161 222 100 292 93844 11335 545 1386 4847 1201 392 2472 19387 2791 108 167 1667 783
leaf_count=198731 986 3640 131 4698 5805 173 309 1229 4239 17208 10920 13240 4913 52562 582 905 3079 12443 10450 55124 392 1661 954 1114 4407 51934 1161 222 100 292 93844 11335 545 1386 4847 1201 392 2472 19387 2791 108 167 1667 783
internal_value=0.717622 0.702271 1.16296 0.691094 0.750962 1.63823 1.06748 0.852008 0.672497 0.804119 0.863963 0.879044 0.998769 0.66896 1.9573 1.47215 1.19698 0.751223 0.861825 0.722182 2.05893 1.03288 1.22959 0.727164 0.736169 0.691866 0.827385 0.798947 0.899817 1.53001 0.660779 0.769044 1.02858 0.907901 0.831652 1.19358 0.751963 0.701281 0.687612 1.00622 0.989562 0.81018 0.999996 1.48498
internal_weight=0 584388 20141 543798 128884 3366 16775 40590 414914 45268 16725 33364 10965 397071 1147 2219 5810 17843 29923 83616 974 9365 5234 7226 59531 104496 5400 1600 576 1980 292575 28543 3441 11836 18087 4280 1378 6112 24085 7704 239 476 2896 1688
internal_count=604529 584388 20141 543798 128884 3366 16775 40590 414914 45268 16725 33364 10965 397071 1147 2219 5810 17843 29923 83616 974 9365 5234 7226 59531 104496 5400 1600 576 1980 292575 28543 3441 11836 18087 4280 1378 6112 24085 7704 239 476 2896 1688
is_linear=0
shrinkage=1


Tree=1
num_leaves=45
num_cat=0
split_feature=1 1 12 1 15 1 3 0 1 9 0 0 12 0 0 1 0 15 15 15 1 0 0 15 1 15 15 12 7 19 3 0 1 0 0 1 3 6 1 19 0 15 17 1
split_gain=335639 85719.1 65897.1 31934.5 21200.8 18223.1 13767.2 13399.9 11317.9 9962.27 5398.04 5338.52 5228.93 4594.48 11275.8 4009.87 3960.44 3937.19 3864.86 3554.22 3033.53 2965.86 2890.01 2865.75 2691.44 2688.5 2328.09 2320.25 2240.93 1551.32 1382.94 1362.06 1172.51 1130.71 1129.85 1096.11 1051.52 1048.09 1046.03 795.927 717.518 715.887 620.596 590.252
threshold=2.3502401828962087 5.0720390087270308 0.67211270281526414 1.0000000180025095e-35 1.9659688460287132 6.4321355873363304 0.85904984312924826 -1.0000000180025095e-35 3.7494348669884654 0.57726610478637863 1.0000000180025095e-35 0.8500000000000002 1.7073551944370278 13.950000000000001 -1.0000000180025095e-35 1.0000000180025095e-35 -1.0000000180025095e-35 0.57937404647308011 3.0722188246486097 3.9092151826887398 7.2236602439240736 -1.0000000180025095e-35 6.5500000000000007 6.1806149114853719 1.0000000180025095e-35 3.7260596440780716 10.02180312424098 0.098196700641476134 0.16040123985958812 23.500000000000004 2.2813228000156243 8.9500000000000011 1.2424533248940004 6.9500000000000011 -1.0000000180025095e-35 5.7429980513596943 1.641087230035686 0.36729328740686873 4.4942230200312032 23.500000000000004 3.9500000000000006 1.1567322516477077 28.500000000000004 0.89587973461402759
decision_type=2 2 2 2 2 2 2 2 2 2 2 2 2 2 2 2 2 2 2 2 2 2 2 2 2 2 2 2 2 2 2 2 2 2 2 2 2 2 2 2 2 2 2 2
left_child=2 7 3 9 6 10 15 18 25 17 39 -7 24 14 -11 28 41 27 29 36 -13 -14 -18 38 -8 33 35 -1 -4 -2 -21 -19 -24 -9 -17 -12 43 -15 -10 -3 -38 -5 -31 -6
right_child=1 5 4 16 19 11 12 8 23 13 26 20 21 37 -16 34 22 31 -20 30 -22 -23 32 -25 -26 -27 -28 -29 -30 42 -32 -33 -34 -35 -36 -37 40 -39 -40 -41 -42 -43 -44 -45
leaf_value=-0.054947024671744497 -0.026997084580517489 0.13514383228859303 -0.03350967463669946 -0.019916459116549171 0.10187565959543193 0.59225839715705197 0.040176504441824051 0.32587441777476611 0.36004394036846504 -0.038913424102649988 0.6031888079192953 1.0522744940895943 0.01735704523590316 -0.039305078170585678 0.095223834845616431 -0.0089812883372537896 0.25737653885517742 0.041174151326333897 0.38791430456957343 0.22721260335138227 1.4310939798956936 0.13603872922094862 0.07582065718524289 0.59085243802419052 0.11734138042553682 0.35771929148053133 0.95116528228013264 -0.035900622995655815 0.0087522478876886651 0.041285379301782693 0.38563752116850797 -0.019307877797799588 0.1331764720293965 0.2164300703251433 0.12174140402309895 0.75274497003228513 0.27208917336281729 -0.0099205594498053464 0.45562603568356297 0.46817697766038685 0.16342547012506381 0.103038683041746 0.20929763768811155 0.1766301696824224
leaf_weight=238574 1593 207 16742 3245 4389 173 33176 1074 3621 12518 1521 582 2481 24070 12545 813 1252 4673 346 1674 392 13943 8764 844 5232 1964 317 87416 50046 387 835 18286 6024 8417 3531 824 825 24489 1758 110 2394 552 511 1399
leaf_count=238574 1593 207 16742 3245 4389 173 33176 1074 3621 12518 1521 582 2481 24070 12545 813 1252 4673 346 1674 392 13943 8764 844 5232 1964 317 87416 50046 387 835 18286 6024 8417 3531 824 825 24489 1758 110 2394 552 511 1399
internal_value=0 0.361456 -0.0153553 -0.0341471 0.045116 0.777253 0.0332405 0.27775 0.310124 -0.0399684 0.645882 1.11641 0.0708938 -0.00654045 0.0282301 0.00421417 0.0898484 -0.047021 0.0759295 0.174978 1.20784 0.118116 0.111585 0.418726 0.0506946 0.25105 0.692361 -0.0498399 -0.00184252 0.0322667 0.280251 -0.00699458 0.0992026 0.228893 0.0972845 0.656449 0.145587 -0.0244873 0.39147 0.253329 0.191455 -0.00198828 0.137191 0.120009
internal_weight=0 24641 579888 442408 137480 4126 125964 20515 17678 422571 2979 1147 54832 73622 25063 71132 19837 348949 2837 11516 974 16424 16040 6223 38408 11455 2662 325990 66788 2491 2509 22959 14788 9491 4344 2345 9007 48559 5379 317 3219 3797 898 5788
internal_count=604529 24641 579888 442408 137480 4126 125964 20515 17678 422571 2979 1147 54832 73622 25063 71132 19837 348949 2837 11516 974 16424 16040 6223 38408 11455 2662 325990 66788 2491 2509 22959 14788 9491 4344 2345 9007 48559 5379 317 3219 3797 898 5788
is_linear=0
shrinkage=0.1


Tree=2
num_leaves=45
num_cat=0
split_feature=1 1 1 12 9 1 0 15 1 9 0 0 3 0 0 0 0 0 1 15 15 0 9 15 15 15 12 3 17 15 3 1 15 18 6 17 1 1 24 0 15 12 15 17
split_gain=272920 68253.1 57295.5 39916.8 12985.2 12221.2 9988.56 9594.13 8278.08 6638.18 6258.85 5035.97 4930.1 4822.53 4880.02 4223.45 4096.39 3365.76 3245.76 2974.79 2682.66 2671.38 2485.4 2339.62 1925.47 1911.84 1824.77 1642.28 1537.11 1525.93 1324.8 1160.1 1125.29 1070.82 991.637 986.407 878.927 860.254 852.811 705.571 696.296 584.988 495.615 461.955
threshold=2.8617925509761908 1.0000000180025095e-35 5.6646935841241897 0.78393990332590879 1.5347830902169248 4.2696729980286863 -1.0000000180025095e-35 1.5143738910269233 6.9127408403402502 0.24348256417956518 5.2500000000000009 -1.0000000180025095e-35 0.45189206335583609 6.9500000000000011 -1.0000000180025095e-35 1.0000000180025095e-35 -1.0000000180025095e-35 1.7500000000000002 1.4978661367769959 1.8525983269108321 4.8658053932221117 6.1500000000000012 1.658875966380007 7.9928097926588775 5.2371547616085943 1.7387519113511156 0.12811184240260329 2.0072395798814631 26.500000000000004 10.02180312424098 2.1603719847986764 4.9870196042435371 3.4279997400695681 -1.0000000180025095e-35 1.2322958726605704 26.500000000000004 3.5694334999727619 7.8162154114254152 1.0000000180025095e-35 2.2500000000000004 3.0722188246486097 1.9632626309062402 1.5741707010840733 27.500000000000004
decision_type=2 2 2 2 2 2 2 2 2 2 2 2 2 2 2 2 2 2 2 2 2 2 2 2 2 2 2 2 2 2 2 2 2 2 2 2 2 2 2 2 2 2 2 2
left_child=1 3 5 7 12 11 25 9 15 26 30 28 33 14 -6 38 24 -10 34 -14 36 27 -11 31 43 35 -1 -9 42 40 -8 -18 -20 -5 -12 -3 -13 -19 -4 -32 -17 -15 -2 -7
right_child=2 6 8 4 13 16 10 21 17 22 18 20 19 41 -16 29 23 37 32 -21 -22 -23 -24 -25 -26 -27 -28 -29 -30 -31 39 -33 -34 -35 -36 -37 -38 -39 -40 -41 -42 -43 -44 -45
leaf_value=-0.049667143856092277 -0.017643286385759835 -0.045509488538232654 0.054829531314100545 -0.06015007328873722 0.045004948933187676 0.026968600689354468 0.22582739176452368 0.091026480699862383 0.6765627577953558 -0.022700468798883003 0.076382724176779715 0.22681761628919231 0.031404359192062831 0.055917591569689701 0.23869229486977914 0.75912463318699053 0.39864382011374527 1.138924313159037 0.14919395559528933 0.11979807697106633 0.41450184789230282 0.02028811346204408 0.022893352814347599 0.67819347351854153 0.62700029884139763 0.14148128726277029 -0.031612633046657235 0.2538115553109806 0.21691578464337813 0.93826847320289675 0.46014872241898108 0.50943071377263804 0.25204118270589837 -0.0037001839793801223 0.12551069799877163 0.033307795286714577 0.2935854052560975 1.4725031956946879 0.49090831002506352 0.28216534380896863 0.58841142833420568 0.11490818886998277 0.22662512876781646 0.25747241619247913
leaf_weight=228281 911 3834 103 3748 1809 338 2202 3203 144 110812 12087 5066 50476 6661 4640 812 2841 375 11768 4116 1184 7121 13400 452 75 912 74192 768 515 390 448 1498 1174 32319 6241 2707 3317 153 78 480 422 2252 89 115
leaf_count=228281 911 3834 103 3748 1809 338 2202 3203 144 110812 12087 5066 50476 6661 4640 812 2841 375 11768 4116 1184 7121 13400 452 75 912 74192 768 515 390 448 1498 1174 32319 6241 2707 3317 153 78 480 422 2252 89 115
internal_value=0 -0.0120551 0.374225 -0.021526 0.0335275 0.306436 0.110996 -0.034859 0.822355 -0.0372459 0.133733 0.246535 0.0191199 0.118538 0.184398 0.708931 0.431072 1.12344 0.120221 0.0380738 0.273359 0.0569499 -0.0177815 0.460215 0.165758 0.00603842 -0.0452389 0.122642 0.0769878 0.760016 0.268536 0.43715 0.158568 -0.0095699 0.0931257 -0.0128906 0.253312 1.24174 0.246676 0.369043 0.701987 0.0708491 0.00458186 0.0865223
internal_weight=0 585651 18878 543798 106021 16401 41853 437777 2477 426685 34400 11082 90659 15362 6449 1805 5319 672 31270 54592 9567 11092 124212 4791 528 7453 302473 3971 1515 1624 3130 4339 12942 36067 18328 6541 8383 528 181 928 1234 8913 1000 453
internal_count=604529 585651 18878 543798 106021 16401 41853 437777 2477 426685 34400 11082 90659 15362 6449 1805 5319 672 31270 54592 9567 11092 124212 4791 528 7453 302473 3971 1515 1624 3130 4339 12942 36067 18328 6541 8383 528 181 928 1234 8913 1000 453
is_linear=0
shrinkage=0.1


Tree=3
num_leaves=45
num_cat=0
split_feature=1 1 12 3 1 1 15 0 15 1 15 1 0 9 3 0 3 0 12 0 1 0 0 8 15 15 0 0 15 19 0 0 0 15 24 24 17 3 1 15 0 1 0 17
split_gain=221432 60501.8 43028.9 16113.2 15928.6 12262.9 10357.2 8881.91 7385.57 6514.37 6016.69 4910.41 3662.56 3566.92 3528.68 3470.43 3447.12 2423.47 2139.69 2094.77 2050.32 1998.78 1911.8 1797.55 1638.11 1531.25 1528.75 1483.82 1360.11 1353.09 1246.29 1238.6 1054.57 1038.34 894.847 893.959 800.169 798.649 701.511 675.315 967.82 635.19 510.092 437.994
threshold=2.1383330595080285 5.0720390087270308 0.50713885553742288 1.2956782875562651 1.0000000180025095e-35 6.4321355873363304 4.569447801720055 -1.0000000180025095e-35 2.5586828708401481 1.0000000180025095e-35 1.0554196672158949 3.6242520361853052 2.2500000000000004 2.5083989655261609 0.51344516333136203 1.0000000180025095e-35 0.38784072334739689 8.9500000000000011 1.4860811468788973 -1.0000000180025095e-35 7.370225684895531 -1.0000000180025095e-35 7.7500000000000009 0.29498368144590514 0.69387685241507591 10.02180312424098 2.7500000000000004 -1.0000000180025095e-35 6.9209416357015323 24.500000000000004 3.1500000000000008 -1.0000000180025095e-35 4.4500000000000011 0.98749347998412518 -1.0000000180025095e-35 1.0000000180025095e-35 21.500000000000004 2.9287869418929744 5.7429980513596943 6.1806149114853719 -1.0000000180025095e-35 0.89587973461402759 1.7500000000000002 22.500000000000004
decision_type=2 2 2 2 2 2 2 2 2 2 2 2 2 2 2 2 2 2 2 2 2 2 2 2 2 2 2 2 2 2 2 2 2 2 2 2 2 2 2 2 2 2 2 2
left_child=2 6 4 9 10 15 7 29 13 16 14 32 39 19 34 35 33 27 -18 -5 -14 -6 -15 -16 -13 38 -23 -12 -8 -2 37 -11 -9 -4 -1 -3 -37 -10 -17 40 -7 -28 -33 -31
right_child=1 5 3 8 21 12 28 11 30 31 17 24 20 22 23 25 18 -19 -20 -21 -22 26 -24 -25 -26 -27 41 -29 -30 43 -32 42 -34 -35 -36 36 -38 -39 -40 -41 -42 -43 -44 -45
leaf_value=-0.05448579779645845 -0.017112908655229752 0.037597598407521922 -0.020165491029860358 -0.0057911470638438893 -0.0048326159255833272 0.16154729148059169 0.34440748065938953 0.28194119118923427 0.23246026325394487 0.007117902517815031 -0.0097043880686624052 0.33516435023242008 0.88752176602091781 0.19137233281350452 -0.0365235513596254 0.48865201568757288 0.0086609747403617442 -0.0013481369999635067 0.050823510287342347 0.065697736359423414 1.2240142181046987 0.25121760901592916 0.083055777746077364 -0.012681311103634277 0.20509775993006035 0.77030389912028252 0.051357648340936229 0.11195405641798795 0.49732850319187938 0.0055687619324232811 0.16573805079161033 0.24718592739334164 0.17322426251255985 0.037505066052443713 -0.040443505870728071 0.15335829230407089 0.60352927350392305 0.38907039803766286 0.60841703058982688 0.80796241755289167 0.64764876454820364 0.096389006128764596 0.10281612825568137 0.15391649848887701
leaf_weight=59339 1969 157 44044 4764 3193 76 2401 977 1101 1458 1349 3656 603 3212 57255 1521 45915 11480 16311 29337 301 519 3318 70637 1338 317 5643 3897 791 258 2446 252 10938 3358 193313 84 76 475 824 75 92 7069 7519 871
leaf_count=59339 1969 157 44044 4764 3193 76 2401 977 1101 1458 1349 3656 603 3212 57255 1521 45915 11480 16311 29337 301 519 3318 70637 1338 317 5643 3897 791 258 2446 252 10938 3358 193313 84 76 475 824 75 92 7069 7519 871
internal_value=0 0.278162 -0.0131557 0.0302733 -0.0303209 0.630914 0.215366 0.188635 0.0814876 0.0110315 -0.0343107 0.217151 0.909116 0.0686836 -0.0368908 0.52316 0.00423794 0.0243871 0.0197144 0.0557108 1.00247 0.0661785 0.136385 -0.0233555 0.300431 0.56043 0.0833132 0.0806796 0.382644 0.0329446 0.210719 0.091708 0.182193 -0.0160784 -0.043742 0.208343 0.372887 0.280176 0.531309 0.555469 0.433061 0.0764124 0.107572 0.120099
internal_weight=0 27325 577204 163510 413694 4126 23199 20007 44653 118857 397270 16909 1147 40631 380544 2979 109628 16726 62226 34101 904 16424 6530 127892 4994 2662 13231 5246 3192 3098 4022 9229 11915 47402 252652 317 160 1576 2345 243 168 12712 7771 1129
internal_count=604529 27325 577204 163510 413694 4126 23199 20007 44653 118857 397270 16909 1147 40631 380544 2979 109628 16726 62226 34101 904 16424 6530 127892 4994 2662 13231 5246 3192 3098 4022 9229 11915 47402 252652 317 160 1576 2345 243 168 12712 7771 1129
is_linear=0
shrinkage=0.1


Tree=4
num_leaves=45
num_cat=0
split_feature=1 1 1 12 9 1 3 0 1 0 6 0 0 0 0 0 0 0 15 1 15 0 0 15 15 15 15 15 15 15 3 15 19 6 12 0 15 0 0 19 1 24 0 1
split_gain=180443 47449.7 36186.6 27054.6 8457.42 7768.53 7523.75 7111.86 5351.56 4613.42 4211.16 4185.44 9891.36 4009.15 5244.48 3224.95 2828.49 2657.72 2451.23 2346.29 2257.65 1959.75 1945.36 1841.3 1520.23 1495.89 1287.79 1138.23 1035.82 1017.37 1001.35 948.29 802.645 779.173 756.992 664.017 651.905 625.191 606.837 591.72 521.936 498.14 411.49 408.847
threshold=2.9700856263602158 1.0000000180025095e-35 5.7153802534577958 1.0446707735754481 0.89986705883973461 4.4127799275304271 1.6704514321497601 -1.0000000180025095e-35 7.0492544644954718 6.1500000000000012 0.38618488987692273 10.65 -1.0000000180025095e-35 6.1500000000000012 -1.0000000180025095e-35 -1.0000000180025095e-35 0.45000000000000007 -1.0000000180025095e-35 1.0554196672158949 1.4978661367769959 1.244480221168023 -1.0000000180025095e-35 3.1500000000000008 4.8658053932221117 0.55050696974269631 7.9928097926588775 3.5714180370710076 3.0722188246486097 0.19203749515523233 10.02180312424098 2.697695932432151 3.0722188246486097 27.500000000000004 0.51445987979514185 1.371580043611661 7.3500000000000005 3.0722188246486097 1.7500000000000002 3.5500000000000003 26.500000000000004 4.9870196042435371 1.0000000180025095e-35 2.2500000000000004 7.7670511910116753
decision_type=2 2 2 2 2 2 2 2 2 2 2 2 2 2 2 2 2 2 2 2 2 2 2 2 2 2 2 2 2 2 2 2 2 2 2 2 2 2 2 2 2 2 2 2
left_child=1 3 5 4 10 15 20 24 16 30 28 12 -6 14 -8 27 41 26 -12 34 21 -5 -10 35 32 40 -7 39 -1 36 42 -21 -3 -13 -11 -17 -18 -32 -22 -2 -19 -4 -9 -24
right_child=2 7 8 6 11 17 13 9 22 19 18 33 -14 -15 -16 23 29 25 -20 31 38 -23 43 -25 -26 -27 -28 -29 -30 -31 37 -33 -34 -35 -36 -37 -38 -39 -40 -41 -42 -43 -44 -45
leaf_value=-0.041133969056286523 -0.0082547752145938538 -0.044365848875025066 0.11786243689028719 -0.029054225429795813 -0.025120444504971348 0.056605999955819754 0.026486616740950666 0.23368381077055256 0.62510213019877003 0.064848178469788187 -0.02172441714647342 -0.024485366326918806 0.11987072906040097 0.061351043769402459 0.23263344319311147 0.28849094352764781 0.64064377152676943 0.33642821137444662 0.028041140039721163 0.11945781832582852 0.12538200529499982 0.02362849626567436 0.95652239744079981 0.3418194574065011 0.10257390485181024 0.56341349455052603 0.4959534698460778 0.29414236223176266 -0.018886752806077448 0.77791473905591768 0.45620814383653863 0.19796557545593441 0.028810104626900403 0.0049182940965287868 0.11719982463744086 0.2029061497775031 0.4722489950795577 0.25501240795264835 0.058179614605618282 0.14464245309709634 0.41454612767934651 0.42138128961052268 0.157533320174191 1.21811181694367
leaf_weight=234969 885 3884 126 8386 9242 375 1808 1277 157 14680 145294 17663 9581 9596 3890 1059 784 2160 10619 11774 1856 44626 271 1325 1298 455 79 195 22981 408 238 1776 2438 18397 3407 6985 383 481 4890 352 1564 96 1668 151
leaf_count=234969 885 3884 126 8386 9242 375 1808 1277 157 14680 145294 17663 9581 9596 3890 1059 784 2160 10619 11774 1856 44626 271 1325 1298 455 79 195 22981 408 238 1776 2438 18397 3407 6985 383 481 4890 352 1564 96 1668 151
internal_value=0 -0.00950357 0.313572 -0.0174932 -0.0264183 0.257568 0.0382489 0.091718 0.676739 0.110629 -0.0313098 0.0104672 0.0486866 0.100829 0.16726 0.211016 0.589982 0.365931 -0.0183346 0.0983123 0.0222292 0.0152937 0.942492 0.232378 0.00410234 0.390902 0.135239 0.0711032 -0.0391521 0.637144 0.216845 0.129781 -0.0161462 -0.00948494 0.0747236 0.214255 0.586449 0.322893 0.0767063 0.0354473 0.369479 0.252184 0.190715 1.05642
internal_weight=0 586719 17810 543798 468746 15434 75052 42921 2376 35301 413863 54883 18823 15294 5698 10801 1797 4633 155913 31637 59758 53012 579 9369 7620 4179 454 1432 257950 1575 3664 13550 6322 36060 18087 8044 1167 719 6746 1237 3724 222 2945 422
internal_count=604529 586719 17810 543798 468746 15434 75052 42921 2376 35301 413863 54883 18823 15294 5698 10801 1797 4633 155913 31637 59758 53012 579 9369 7620 4179 454 1432 257950 1575 3664 13550 6322 36060 18087 8044 1167 719 6746 1237 3724 222 2945 422
is_linear=0
shrinkage=0.1


Tree=5
num_leaves=45
num_cat=0
split_feature=1 1 6 15 1 9 1 1 15 1 0 0 9 13 0 0 15 15 0 0 12 0 0 15 0 8 15 0 0 15 15 3 1 1 15 24 24 3 15 17 17 1 7 0
split_gain=146487 35202.4 30914.3 13045.4 12784.9 8029.41 6717.7 6657.73 4397.11 3201.5 2941.26 2746.16 2679.01 2556.2 2350.14 2321.07 2127.55 2086.84 2115.58 2072.61 1544.65 1414.57 1396.12 1373.55 1329.35 1302.68 1157.86 1136.32 1127.86 1003.11 984.438 802.585 713.71 707.346 696.302 624.547 601.702 566.14 503.026 501.844 475.488 372.54 307.778 304.976
threshold=2.524928003624769 5.3156629864430025 0.93475502785436937 2.1025864454397216 1.0000000180025095e-35 0.89986705883973461 6.7458242390288694 3.9415346756528771 0.57937404647308011 1.0000000180025095e-35 -1.0000000180025095e-35 1.0000000180025095e-35 3.0986981351614404 0.078018001673993462 0.8500000000000002 7.7500000000000009 4.1077464482169459 6.1806149114853719 -1.0000000180025095e-35 -1.0000000180025095e-35 2.2534723019399183 -1.0000000180025095e-35 -1.0000000180025095e-35 3.5714180370710076 -1.0000000180025095e-35 0.35761445801382774 10.02180312424098 -1.0000000180025095e-35 2.2500000000000004 0.20089514527270788 2.1539040118147565 2.2813228000156243 7.7670511910116753 0.89587973461402759 0.69387685241507591 1.0000000180025095e-35 -1.0000000180025095e-35 2.2813228000156243 0.23751778706078078 28.500000000000004 32.500000000000007 0.89587973461402759 2.3414548557042258 4.4500000000000011
decision_type=2 2 2 2 2 2 2 2 2 2 2 2 2 2 2 2 2 2 2 2 2 2 2 2 2 2 2 2 2 2 2 2 2 2 2 2 2 2 2 2 2 2 2 2
left_child=2 7 4 5 8 9 11 10 13 19 30 35 20 36 -8 21 37 18 39 -4 -7 -10 -6 29 -11 -15 38 -14 42 -12 40 -18 -16 -30 -20 -3 -1 41 -13 -9 -2 -5 -24 -39
right_child=1 6 3 16 22 12 14 17 15 24 23 26 27 25 32 -17 31 -19 34 -21 -22 -23 28 -25 -26 -27 -28 -29 33 -31 -32 -33 -34 -35 -36 -37 -38 43 -40 -41 -42 -43 -44 -45
leaf_value=-0.04543031440808986 -0.010771834247930935 0.018117882158435229 -0.033924346519288238 0.0816093714290404 6.961198583850883e-05 0.041968757956586882 0.41322921130745627 0.020715116532085215 -0.0063974386098200366 -0.01517806089636433 0.18181692479489042 0.51052929562764404 0.023008264103067347 -0.029028314232635785 0.80610789582452169 -0.0066606342459429747 0.17373241979084009 0.41058563530120157 0.30732731432098764 0.0067745036487432729 0.10020766629073606 0.085569562124749671 0.17773899462488976 0.24375255109586413 0.084581329510149378 -0.010159563534411421 0.6597779884231556 0.16867492097177805 0.038879615733701717 0.10901915636789811 0.21100274798669663 0.2962620170867411 1.0686785026294969 0.083516604717613643 0.22716899149121048 0.3277739237312709 -0.033697360670611749 0.21683570559218712 0.39920140103458102 0.23028302091806255 0.13840018342759233 0.13195423924957672 0.37734935647341139 0.12976153646766389
leaf_weight=58519 1392 144 14948 5084 3454 31457 138 434 2464 1667 5664 1171 659 74661 499 25741 1645 1045 2986 76740 5325 5202 394 2363 6707 71759 402 2875 5964 2865 291 805 173 8795 1769 117 173041 605 722 153 250 2082 98 1260
leaf_count=58519 1392 144 14948 5084 3454 31457 138 434 2464 1667 5664 1171 659 74661 499 25741 1645 1045 2986 76740 5325 5202 394 2363 6707 71759 402 2875 5964 2865 291 805 173 8795 1769 117 173041 605 722 153 250 2082 98 1260
internal_value=0 0.249919 -0.00967809 0.0291095 -0.0233735 0.0207263 0.548151 0.197607 -0.02705 0.00554503 0.156012 0.467793 0.058403 -0.0301235 0.799615 0.00772509 0.131585 0.28104 0.255527 0.000138617 0.050406 0.0560168 0.0574781 0.176183 0.0647237 -0.0197812 0.502752 0.141546 0.0704778 0.1574 0.0422716 0.21424 0.877228 0.0654883 0.277634 0.158633 -0.0366629 0.109112 0.468621 0.076046 0.0121071 0.0962754 0.21912 0.158248
internal_weight=0 22578 581951 151859 430092 140378 3366 19212 411387 100062 12825 2556 40316 377980 810 33407 11481 6387 5342 91688 36782 7666 18705 10892 8374 146420 2295 3534 15251 8529 1933 2450 672 14759 4755 261 231560 9031 1893 587 1642 7166 492 1865
internal_count=604529 22578 581951 151859 430092 140378 3366 19212 411387 100062 12825 2556 40316 377980 810 33407 11481 6387 5342 91688 36782 7666 18705 10892 8374 146420 2295 3534 15251 8529 1933 2450 672 14759 4755 261 231560 9031 1893 587 1642 7166 492 1865
is_linear=0
shrinkage=0.1


Tree=6
num_leaves=45
num_cat=0
split_feature=1 1 12 15 1 3 15 0 3 0 0 0 6 3 1 15 0 0 15 15 1 0 1 1 0 17 15 15 17 1 15 1 24 18 3 3 15 0 3 19 1 19 12 17
split_gain=119458 36864.8 22623.1 8989.12 8774.27 6423.73 6156.87 5226.48 5015.66 2748.81 5957.55 2749.45 2584.67 2473.61 2367.51 2322.49 2439.6 2161.08 1600.81 1477.24 1306.77 1267.64 1258.4 1225.48 1099.5 1073.96 1001 997.393 922.936 884.153 868.156 849.778 787.053 757.386 721.65 684.07 503.108 729.963 497.638 418.781 410.907 379.544 356.123 318.237
threshold=1.700598690831078 4.8081027000528378 0.94144240094372422 1.5741707010840733 6.3270431284421482 1.641087230035686 4.1077464482169459 -1.0000000180025095e-35 0.49379828886776372 6.5500000000000007 -1.0000000180025095e-35 2.2500000000000004 0.41872592008261333 0.39860763947660333 3.5408542930527878 7.9928097926588775 -1.0000000180025095e-35 3.1500000000000008 3.0722188246486097 1.8525983269108321 1.0000000180025095e-35 -1.0000000180025095e-35 7.4232644980295701 1.0000000180025095e-35 6.5500000000000007 26.500000000000004 0.69387685241507591 0.23751778706078078 27.500000000000004 1.0000000180025095e-35 5.6615816168467985 1.0000000180025095e-35 -1.0000000180025095e-35 1.0000000180025095e-35 2.5038496825870502 1.0000000180025095e-35 7.9928097926588775 -1.0000000180025095e-35 1.7702991535510753 26.500000000000004 1.0000000180025095e-35 23.500000000000004 2.3493912689442578 26.500000000000004
decision_type=2 2 2 2 2 2 2 2 2 2 2 2 2 2 2 2 2 2 2 2 2 2 2 2 2 2 2 2 2 2 2 2 2 2 2 2 2 2 2 2 2 2 2 2
left_child=2 6 3 8 15 13 7 25 20 10 28 -12 31 33 24 16 41 36 38 21 32 -15 -19 -14 -9 -2 -16 -18 -7 42 -8 -10 -1 -4 43 -35 37 -6 40 -27 -5 -3 -11 -20
right_child=1 4 5 18 17 9 30 14 12 29 11 -13 23 19 26 -17 27 22 34 -21 -22 -23 -24 -25 -26 39 -28 -29 -30 -31 -32 -33 -34 35 -36 -37 -38 -39 -40 -41 -42 -43 -44 -45
leaf_value=-0.041294881841470919 -0.02013944478292579 0.0032085765712664312 -0.052712888725742701 0.019439434296697339 0.10937873241353423 -0.041640725431576084 0.21757607407265422 0.19897340622791715 -0.022521444458588863 0.035063703283236068 0.29465529057530759 0.13969567596860094 0.0001617118466126522 -0.013825803071202888 0.23077444967560889 0.50990314223868249 0.39141241064835897 0.65620475139514067 0.14389209116288482 0.088556836075549469 0.023796737562859511 0.034857380142975146 0.92468661511586925 0.046505792805016266 0.11318368394723673 0.0038429310906727973 0.12104613213056126 0.26381896364448271 0.076355586371207318 0.11373301258738958 0.31538922088408994 0.027899931093226867 -0.028492622466930535 0.050657516293395814 0.24170135358499306 -0.0043206238521248897 0.64752763533421909 0.47702281592923423 0.083637676637847741 0.12268572693059883 0.065429769261498058 0.22158661843858662 0.083654160787216214 0.070406139257957398
leaf_weight=61790 2683 252 2887 7776 87 1513 2390 1676 89013 9031 1771 3259 79268 6231 3460 773 1813 701 1026 4426 4364 37716 262 6146 14001 422 1106 963 1176 2125 1502 3471 215754 2528 433 21431 76 148 2166 996 2589 114 1811 1403
leaf_count=61790 2683 252 2887 7776 87 1513 2390 1676 89013 9031 1771 3259 79268 6231 3460 773 1813 701 1026 4426 4364 37716 262 6146 14001 422 1106 963 1176 2125 1502 3471 215754 2528 433 21431 76 148 2166 996 2589 114 1811 1403
internal_value=0 0.18376 -0.0107347 -0.0196761 0.42869 0.033568 0.138716 0.120023 -0.0221926 0.0829162 0.130159 0.194368 -0.00904492 0.0199945 0.140876 0.354118 0.315435 0.656765 0.0554888 0.0335035 -0.0304894 0.0279545 0.731344 0.00349762 0.122384 0.0170677 0.204272 0.347413 0.0099853 0.0547746 0.255493 -0.0206284 -0.0313431 -0.00434776 0.122942 0.00148476 0.422042 0.343371 0.0400625 0.0873834 0.0309394 0.0722177 0.0431966 0.101557
internal_weight=0 33425 571104 475199 5189 95905 28236 24344 459806 20686 7719 5030 177898 75219 20243 3915 3142 1274 15393 48373 281908 43947 963 85414 15677 4101 4566 2776 2689 12967 3892 92484 277544 26846 2862 23959 311 235 12531 1418 10365 366 10842 2429
internal_count=604529 33425 571104 475199 5189 95905 28236 24344 459806 20686 7719 5030 177898 75219 20243 3915 3142 1274 15393 48373 281908 43947 963 85414 15677 4101 4566 2776 2689 12967 3892 92484 277544 26846 2862 23959 311 235 12531 1418 10365 366 10842 2429
is_linear=0
shrinkage=0.1


Tree=7
num_leaves=45
num_cat=0
split_feature=1 1 1 12 3 15 0 0 0 3 0 0 1 9 1 12 0 0 15 0 15 0 15 24 17 0 7 15 12 0 17 3 1 0 15 0 12 19 18 3 15 1 2 2
split_gain=97158.2 25705.7 19715.9 15171.2 6529.42 4613.27 4324.03 3797.02 4833.5 3354.92 3165.83 3055.27 2760.12 2721.26 2399.58 2171.76 1741.46 4472.48 1653.63 1592.25 1385.9 1112.43 1011.83 995.455 989.966 897.738 866.984 839.94 831.845 756.086 697.074 581.066 457.061 456.684 448.939 462.776 438.032 367.71 366.584 352.148 275.186 224.951 224.672 192.972
threshold=2.9700856263602158 1.0000000180025095e-35 5.7698810594618948 0.3951118604215465 2.2813228000156243 5.6615816168467985 -1.0000000180025095e-35 5.6500000000000012 -1.0000000180025095e-35 0.53275489440587043 -1.0000000180025095e-35 8.1500000000000004 7.0492544644954718 1.4961844087572247 4.4942230200312032 1.7521182537944202 10.15 -1.0000000180025095e-35 0.37675444914709566 3.1500000000000008 2.633221149679652 4.4500000000000011 0.23751778706078078 -1.0000000180025095e-35 26.500000000000004 10.65 0.24825848542724216 7.9928097926588775 1.3452318017491407 1.7500000000000002 23.500000000000004 2.5911066163695211 6.1257762875041957 5.2500000000000009 5.6615816168467985 -1.0000000180025095e-35 1.6634762715120266 25.500000000000004 1.5000000000000002 1.3349125797635868 0.93029342126333869 7.9765944658909804 1.0000000180025095e-35 1.0000000180025095e-35
decision_type=2 2 2 2 2 2 2 2 2 2 2 2 2 2 2 2 2 2 2 2 2 2 2 2 2 2 2 2 2 2 2 2 2 2 2 2 2 2 2 2 2 2 2 2
left_child=1 3 5 13 9 10 24 8 -6 23 30 29 19 18 33 -11 17 -15 26 34 28 -14 -16 -5 40 -20 -1 -7 -13 31 43 -8 -21 -12 35 -4 -9 -26 -32 -31 -3 -23 -39 -2
right_child=2 6 12 4 7 27 11 36 -10 15 14 20 21 16 22 -17 -18 -19 25 32 -22 41 -24 -25 37 -27 -28 -29 -30 39 38 -33 -34 -35 -36 -37 -38 42 -40 -41 -42 -43 -44 -45
leaf_value=-0.033038114152307577 -0.029970674835134284 -0.04097032013320142 0.055880336622074214 -0.045618543284520807 0.018556084203622543 0.28202468098364597 0.18965761773807757 0.02587277931848931 0.2313394752447171 0.012502581722225415 0.22854273777149073 0.054239135392842412 0.48822273485326051 -0.025086573870766089 0.30383346462790362 0.054344012713650164 -0.0097859374014557451 0.15279941300789865 0.027207141983022022 0.4160231906770851 0.12785991540579242 0.73289074075023297 0.15661217099168828 -0.005589518959843446 -0.01983090146632965 -0.012905305296848153 -0.022794883051317761 0.4175505573035343 0.098334745120138289 0.098341338383240509 0.19568198201632314 0.36055170873063602 0.54361382947108428 0.15400672451380493 0.4356197385564417 0.31991937538455256 0.076034536863866173 0.041363449385599271 0.045280884642820894 0.16359352872090549 0.057851130961333902 0.95540317711777534 0.11217527017451337 0.063813554844711504
leaf_weight=158764 819 3846 140 6882 1686 1552 961 6010 2910 67609 928 21628 192 2879 2054 15191 8274 2773 7168 533 3751 287 615 63676 821 25145 172380 673 5338 1540 344 255 769 7976 97 126 2451 2080 308 1828 302 100 571 297
leaf_count=158764 819 3846 140 6882 1686 1552 961 6010 2910 67609 928 21628 192 2879 2054 15191 8274 2773 7168 533 3751 287 615 63676 821 25145 172380 673 5338 1540 344 255 769 7976 97 126 2451 2080 308 1828 302 100 571 297
internal_value=0 -0.00696464 0.230104 -0.0128453 0.0123075 0.190099 0.0675378 0.0801857 0.153332 0.0065271 0.16781 0.0822836 0.50711 -0.0239369 0.186848 0.0201804 0.0194423 0.0622159 -0.0255991 0.440436 0.0709085 0.696257 0.27008 -0.00949522 -0.000778815 -0.00400581 -0.0277061 0.323419 0.0629759 0.158431 0.0431096 0.226128 0.492234 0.161834 0.252658 0.182675 0.040421 0.0386039 0.125056 0.133848 -0.0337465 0.795862 0.0567024 -0.00492949
internal_weight=0 586719 17810 543798 166415 15566 42921 13057 4596 153358 13341 35301 2244 377383 11573 82800 13926 5652 363457 1665 30717 579 2669 70558 7620 32313 331144 2225 26966 4584 1768 1216 1302 8904 363 266 8461 3472 652 3368 4148 387 2651 1116
internal_count=604529 586719 17810 543798 166415 15566 42921 13057 4596 153358 13341 35301 2244 377383 11573 82800 13926 5652 363457 1665 30717 579 2669 70558 7620 32313 331144 2225 26966 4584 1768 1216 1302 8904 363 266 8461 3472 652 3368 4148 387 2651 1116
is_linear=0
shrinkage=0.1


Tree=8
num_leaves=45
num_cat=0
split_feature=1 1 12 15 1 15 3 3 0 15 0 0 0 0 15 15 15 0 1 0 0 0 12 15 19 9 1 17 7 17 15 15 3 3 0 1 19 15 0 19 24 1 15 0
split_gain=79370.2 24274.1 15611.7 7277.51 5638.05 4383.92 3959.47 3688.82 3415.42 2135.45 1893.86 14447 1778.23 5403.42 1616.18 1548.74 1511.15 1575.74 1445.16 1437.71 1307.08 2520.46 1110.7 1008.43 989.576 973.969 894.535 873.603 765.261 737.033 719.406 660.53 527.04 449.212 445.073 435.955 432.749 375.759 426.636 300.898 291.199 268.422 260.223 260.129
threshold=1.700598690831078 4.8481086751891054 1.1810000072005253 1.4109000976415083 6.3270431284421482 3.9092151826887398 0.66336660073730769 2.5038496825870502 -1.0000000180025095e-35 2.3693994944828103 -1.0000000180025095e-35 5.2500000000000009 -1.0000000180025095e-35 3.5500000000000003 0.18415348416746982 3.0722188246486097 7.9928097926588775 -1.0000000180025095e-35 3.5972184255501674 2.2500000000000004 4.8500000000000005 -1.0000000180025095e-35 0.051468570166528185 2.3113250839203179 26.500000000000004 4.9737777292142464 7.7275187116736666 27.500000000000004 0.11950125395326648 23.500000000000004 0.23751778706078078 5.2371547616085943 2.5038496825870502 0.99157957107969585 5.2500000000000009 1.0000000180025095e-35 24.500000000000004 6.9209416357015323 -1.0000000180025095e-35 22.500000000000004 1.0000000180025095e-35 6.8254506048844457 3.9092151826887398 2.2500000000000004
decision_type=2 2 2 2 2 2 2 2 2 2 2 2 2 2 2 2 2 2 2 2 2 2 2 2 2 2 2 2 2 2 2 2 2 2 2 2 2 2 2 2 2 2 2 2
left_child=2 5 3 6 16 8 22 9 29 12 27 -12 24 -14 18 33 17 40 -10 37 21 36 35 -16 -4 -23 41 -8 -24 -2 -19 -7 -17 -5 -35 -1 -9 38 -6 -31 -3 -21 -11 -34
right_child=1 4 7 15 19 31 10 20 14 42 11 -13 13 -15 23 32 -18 30 -20 26 -22 25 28 -25 -26 -27 -28 -29 -30 39 -32 -33 43 34 -36 -37 -38 -39 -40 -41 -42 -43 -44 -45
leaf_value=-0.028620649141014084 -0.021221750964156627 -0.025750833897490385 -0.050958385464222482 0.016908609580726881 0.075876998443726584 0.16897134529261348 -0.043626020516637311 -0.038410776063996149 0.11550610756910494 0.082855560472140544 0.15993687454326 -0.005989405805864826 0.14794564290693279 0.021418841035528713 0.029765859781753612 0.086713277301387559 0.41647802689417013 0.32203318690290511 0.19254033247096447 0.48185931753622163 0.071028661066619467 0.20033738992874192 -0.028144209266865502 0.10608331895870989 0.0158525162289147 0.41036884401467577 0.80547060722335928 -0.0062599615325796268 -0.011439404809658403 -0.010458643724160159 0.21078568133387152 0.24696127838999762 0.26882221381133314 0.091229114523562471 0.035039643719744454 0.012701107805984817 0.098674950788991883 0.50657217749534023 0.37829782497211106 0.089259129319406216 0.15635069407042868 0.60884160291350697 0.13962077511570373 0.12736846013882783
leaf_weight=199764 2436 190 4486 10509 87 2370 15159 476 9246 2697 5499 113672 3638 46366 2818 2865 761 1741 3317 441 4235 1423 38737 4498 4379 263 169 10655 93910 398 905 2057 252 1865 5779 2585 442 79 102 1254 160 396 1165 283
leaf_count=199764 2436 190 4486 10509 87 2370 15159 476 9246 2697 5499 113672 3638 46366 2818 2865 761 1741 3317 441 4235 1423 38737 4498 4379 263 169 10655 93910 398 905 2057 252 1865 5779 2585 442 79 102 1254 160 396 1165 283
internal_value=0 0.149792 -0.00874482 -0.0149027 0.352202 0.113901 -0.0174554 0.0356467 0.0969959 0.0280412 -0.00364938 0.00167009 0.023313 0.0306308 0.114113 0.0419402 0.290221 0.257846 0.135878 0.534103 0.105374 0.161117 -0.0234305 0.0767063 -0.0179607 0.233631 0.589293 -0.0282048 -0.0163181 0.0137418 0.284207 0.205322 0.103859 0.0303309 0.0487729 -0.0280926 0.0276777 0.32358 0.241756 0.0652546 0.0579881 0.543489 0.100054 0.19489
internal_weight=0 33425 571104 501534 5031 28394 479981 69570 23967 62731 144985 119171 58869 50004 19879 21553 3757 2996 12563 1274 6839 2604 334996 7316 8865 1686 1006 25814 132647 4088 2646 4427 3400 18153 7644 202349 918 268 189 1652 350 837 3862 535
internal_count=604529 33425 571104 501534 5031 28394 479981 69570 23967 62731 144985 119171 58869 50004 19879 21553 3757 2996 12563 1274 6839 2604 334996 7316 8865 1686 1006 25814 132647 4088 2646 4427 3400 18153 7644 202349 918 268 189 1652 350 837 3862 535
is_linear=0
shrinkage=0.1


Tree=9
num_leaves=45
num_cat=0
split_feature=1 1 12 3 1 15 0 0 0 0 15 1 9 15 0 17 7 15 0 1 0 1 0 0 15 0 1 24 19 3 15 18 15 24 0 15 17 17 0 19 24 1 1 15
split_gain=64790.5 21950.8 11898.3 5140.51 4756.88 4246.99 3488.49 6524.46 4484.94 3435.03 2522.25 1602.42 1571.54 1419.35 1345.5 1344.02 1110.89 1099.38 1210.66 971.187 958.791 921.069 893.812 3153.24 860.517 836.405 829.172 763.416 715.254 656.262 552.395 538.098 505.778 385.291 1004.08 324.015 321.024 319.591 274.895 229.265 223.291 216.872 212.747 209.684
threshold=1.2424533248940004 4.8081027000528378 0.40644131656403831 0.99157957107969585 6.2116030863880871 3.9092151826887398 8.9500000000000011 -1.0000000180025095e-35 2.2500000000000004 -1.0000000180025095e-35 1.8525983269108321 3.2384861814448418 1.1064437546938539 0.93029342126333869 3.1500000000000008 25.500000000000004 0.14323362234169798 7.9928097926588775 -1.0000000180025095e-35 1.0000000180025095e-35 -1.0000000180025095e-35 1.0000000180025095e-35 12.850000000000003 -1.0000000180025095e-35 0.69387685241507591 4.8500000000000005 7.1463783235835132 -1.0000000180025095e-35 26.500000000000004 2.5038496825870502 5.6615816168467985 1.5000000000000002 0.23751778706078078 1.0000000180025095e-35 -1.0000000180025095e-35 2.7956336052178936 24.500000000000004 26.500000000000004 2.7500000000000004 23.500000000000004 -1.0000000180025095e-35 8.172137494801829 1.0000000180025095e-35 0.51706300959755103
decision_type=2 2 2 2 2 2 2 2 2 2 2 2 2 2 2 2 2 2 2 2 2 2 2 2 2 2 2 2 2 2 2 2 2 2 2 2 2 2 2 2 2 2 2 2
left_child=2 5 10 13 17 9 7 15 -9 28 12 25 21 16 33 -5 40 18 39 31 -18 27 23 -14 -13 -11 -16 -1 43 36 -7 -8 -20 34 -6 -15 -12 -30 -31 -3 -4 -28 -24 -2
right_child=1 4 3 6 14 30 19 8 -10 11 29 24 22 35 26 -17 20 -19 32 -21 -22 -23 42 -25 -26 -27 41 -29 37 38 -32 -33 -34 -35 -36 -37 -38 -39 -40 -41 -42 -43 -44 -45
leaf_value=-0.031451684746603238 -0.02599991511636994 -0.0027202034519901359 -0.039486521877881861 -0.042327332524362028 -0.066494743862655734 0.15788910087910568 0.022649038608612438 0.2099640126702052 0.077388489595806201 0.15272044956335989 0.067348926287811486 0.16203302988617052 -0.023752541649499141 0.024649080860999401 0.45684405659824068 0.038208671286400785 -0.025050850776239156 0.36759270998884275 0.2829310287660684 0.065913973903676384 0.0064291801914300763 0.015870097063333363 -0.013126183081828542 0.090351144472555669 0.076018572162090459 0.075415987613983992 0.59546813523140507 -0.019678132892182485 -0.0049572022492642229 0.23372981503659107 0.23115374351190382 -0.0024163848376046598 0.19125543126181993 0.44165585623991677 0.36751600191243344 0.07006043173910291 0.017371125184370648 0.081934387898802724 0.088867244291000083 0.17193675391988947 -0.017307637856010225 0.81643729260650444 0.033970283603699837 0.078721761518385058
leaf_weight=68485 3216 240 6274 4208 81 3084 22892 3360 10609 1520 1938 4586 5332 11301 704 4078 11362 704 1750 3874 65084 6547 15309 4434 1567 17769 298 281414 608 223 1575 13683 956 119 150 1824 3814 1389 325 107 16434 80 1021 201
leaf_count=68485 3216 240 6274 4208 81 3084 22892 3360 10609 1520 1938 4586 5332 11301 704 4078 11362 704 1750 3874 65084 6547 15309 4434 1567 17769 298 281414 608 223 1575 13683 956 119 150 1824 3814 1389 325 107 16434 80 1021 201
internal_value=0 0.121861 -0.00877453 0.0128804 0.31394 0.0937778 0.0358152 0.0676121 0.109307 0.080329 -0.0185195 0.0957191 -0.0195531 7.15358e-05 0.469111 -0.00269151 -0.00401933 0.254537 0.228202 0.0183176 0.00174974 -0.0212874 0.00413478 0.0280627 0.140165 0.0815257 0.52456 -0.0219827 0.00799578 0.0442288 0.182762 0.0132723 0.250739 0.295316 0.216202 0.0309715 0.0342308 0.0555052 0.148571 0.0519389 -0.0234389 0.647038 -0.0101771 -0.0197894
internal_weight=0 40704 563825 174983 5189 35515 62704 22255 13969 30856 388842 25442 382542 112279 1432 8286 99154 3757 3053 40449 76446 356446 26096 9766 6153 19289 1082 349899 5414 6300 4659 36575 2706 350 231 13125 5752 1997 548 347 22708 378 16330 3417
internal_count=604529 40704 563825 174983 5189 35515 62704 22255 13969 30856 388842 25442 382542 112279 1432 8286 99154 3757 3053 40449 76446 356446 26096 9766 6153 19289 1082 349899 5414 6300 4659 36575 2706 350 231 13125 5752 1997 548 347 22708 378 16330 3417
is_linear=0
shrinkage=0.1


Tree=10
num_leaves=45
num_cat=0
split_feature=1 1 12 1 15 15 3 12 0 3 3 0 0 15 15 0 0 1 9 3 1 0 0 0 0 18 9 15 15 19 8 15 3 0 0 0 15 0 1 24 6 2 1 17
split_gain=52503.9 17900.7 10083.3 4613.14 4546.67 3145.3 2601.16 2595.86 2576.74 1471.68 1468.24 1357.12 1343.1 1317.46 1165.69 1143.8 1037.4 908.103 891.485 849.128 801.369 800.436 2109.05 771.61 1366.12 684.783 623.994 616.724 607.9 560.623 520.453 501.162 476.738 455.401 1400.09 444.453 403.332 355.998 306.518 288.229 284.379 279.726 244.021 222.91
threshold=1.2424533248940004 4.5798392285869785 1.2700889424145221 6.1257762875041957 1.1790721121310093 3.4279997400695681 3.0837267126285095 0.14313250851990761 -1.0000000180025095e-35 0.33420328461530074 0.6176391722047615 4.4500000000000011 -1.0000000180025095e-35 5.7685759534783415e-09 6.9209416357015323 3.1500000000000008 -1.0000000180025095e-35 3.1984648276080736 2.3816059027540413 3.2585257789809536 6.8747120864182083 9.3500000000000032 -1.0000000180025095e-35 3.9500000000000006 -1.0000000180025095e-35 1.5000000000000002 2.3816059027540413 0.23751778706078078 2.1539040118147565 31.500000000000004 0.15586466657457057 5.2371547616085943 5.1031042951921624 -1.0000000180025095e-35 3.5500000000000003 10.15 7.9928097926588775 -1.0000000180025095e-35 1.0000000180025095e-35 -1.0000000180025095e-35 0.50725165749283596 1.0000000180025095e-35 8.172137494801829 25.500000000000004
decision_type=2 2 2 2 2 2 2 2 2 2 2 2 2 2 2 2 2 2 2 2 2 2 2 2 2 2 2 2 2 2 2 2 2 2 2 2 2 2 2 2 2 2 2 2
left_child=2 5 4 14 7 8 10 26 29 39 33 12 -6 17 16 36 43 -10 -11 -14 -17 22 -12 24 41 -23 30 -18 -15 -2 -1 -7 -26 -4 -35 -28 37 -5 40 -9 -13 -8 -22 -3
right_child=1 3 6 15 11 31 23 9 13 18 21 38 19 28 -16 20 27 -19 -20 -21 42 25 -24 -25 32 -27 35 -29 -30 -31 -32 -33 -34 34 -36 -37 -38 -39 -40 -41 -42 -43 -44 -45
leaf_value=-0.024885599277661822 -0.013093610921573266 -0.0081900620414806311 -0.02596699520434409 0.064571357232447543 0.0050837765138998722 0.1294317252243653 0.092480658816184974 -0.033801039978259811 0.084779676581109159 0.000411569249060854 0.0013285035522535649 -0.0070909477915519882 0.087505035508824061 0.021468178687924215 0.30810116465274789 0.38904094981048315 0.23762383808188262 0.13927297459904817 0.047555557634077844 0.25413030597432673 0.5226254737092807 0.04026979858802919 0.08561145149454559 0.077946829193828032 0.20764196014893882 0.002216168177519779 0.066915269623470719 0.1419482905136418 0.075123272675604424 0.063505563962206885 -0.016612785975816679 0.19380810324028314 0.38682503973499804 0.10381872302021644 0.0041664930373998691 -0.011147441916927146 0.44890397907910329 0.29041766238316796 0.039817207020922785 -0.014319814701124615 0.019252785140485271 -0.072962108369702308 0.73714662234959438 0.1551845231199819
leaf_weight=150501 4018 295 3713 117 2256 3726 274 8860 10896 103145 4420 6717 3832 3842 1057 684 2160 4264 4171 331 427 13122 9042 2016 679 7393 1379 1000 4693 1251 153772 1816 195 1534 17127 1544 87 177 3963 53177 10502 160 80 114
leaf_count=150501 4018 295 3713 117 2256 3726 274 8860 10896 103145 4420 6717 3832 3842 1057 684 2160 4264 4171 331 427 13122 9042 2016 679 7393 1379 1000 4693 1251 153772 1816 195 1534 17127 1544 87 177 3963 53177 10502 160 80 114
internal_value=0 0.109702 -0.00789672 0.266147 -0.0124977 0.0815847 0.0309723 -0.0147832 0.0683679 -0.00484282 0.0258987 0.0269608 0.0672331 0.0824317 0.215656 0.414179 0.18809 0.100126 0.0022449 0.100891 0.462681 0.0389967 0.0579438 0.116905 0.1767 0.0265582 -0.0202631 0.207476 0.0509833 0.00511347 -0.0207049 0.150601 0.248559 0.00600619 0.0123704 0.0257051 0.260638 0.201777 0.0147506 -0.0171033 0.00897674 0.0314228 0.559753 0.0379799
internal_weight=0 40704 563825 6198 504150 34506 59675 476549 28964 169353 56351 27601 6419 23695 4626 1572 3569 15160 107316 4163 1191 33977 13462 3324 1308 20515 307196 3160 8535 5269 304273 5542 874 22374 18661 2923 381 294 21182 62037 17219 434 507 409
internal_count=604529 40704 563825 6198 504150 34506 59675 476549 28964 169353 56351 27601 6419 23695 4626 1572 3569 15160 107316 4163 1191 33977 13462 3324 1308 20515 307196 3160 8535 5269 304273 5542 874 22374 18661 2923 381 294 21182 62037 17219 434 507 409
is_linear=0
shrinkage=0.1


Tree=11
num_leaves=45
num_cat=0
split_feature=1 1 12 1 3 15 0 0 0 0 3 12 0 7 15 0 0 2 0 0 15 1 3 0 0 18 17 15 3 15 15 0 15 3 17 0 3 1 2 0 2 13 24 18
split_gain=42932.5 15697 7739.81 3959.3 3579.42 2770.31 2437.01 2084.61 7479.51 5089.85 2018.18 1289.28 1116.02 1029.13 1026.25 924.623 905.809 884.116 847.17 2541.72 686.393 654.328 642.281 624.783 796.148 622.887 533.606 498.33 489.887 452.631 434.66 403.525 395.513 389.632 362.649 515.199 329.573 316.898 298.645 258.697 235.009 223.969 216.704 207.397
threshold=0.89587973461402759 4.4942230200312032 1.371580043611661 6.1257762875041957 0.99157957107969585 3.4279997400695681 -1.0000000180025095e-35 12.450000000000001 -1.0000000180025095e-35 3.1500000000000008 3.2585257789809536 0.17505135991505918 8.1500000000000004 0.34780336776350018 6.9209416357015323 3.1500000000000008 -1.0000000180025095e-35 1.0000000180025095e-35 7.3500000000000005 -1.0000000180025095e-35 6.0762139965417408e-08 7.0492544644954718 0.19604601228126159 3.9500000000000006 -1.0000000180025095e-35 1.5000000000000002 23.500000000000004 0.23751778706078078 2.5038496825870502 1.0740574089313377 0.22812468169247854 -1.0000000180025095e-35 5.2371547616085943 1.0000000180025095e-35 23.500000000000004 -1.0000000180025095e-35 5.1031042951921624 1.0000000180025095e-35 1.0000000180025095e-35 14.850000000000003 1.0000000180025095e-35 0.014808689519892502 1.0000000180025095e-35 -1.0000000180025095e-35
decision_type=2 2 2 2 2 2 2 2 2 2 2 2 2 2 2 2 2 2 2 2 2 2 2 2 2 2 2 2 2 2 2 2 2 2 2 2 2 2 2 2 2 2 2 2
left_child=2 5 4 14 11 6 26 8 17 -10 13 30 28 43 16 34 42 -6 19 -15 -14 -17 33 24 40 -20 -2 -18 -8 37 41 -24 -7 -13 35 -5 -26 -9 -28 -32 -12 -1 -3 -4
right_child=1 3 10 15 7 32 12 29 9 -11 23 22 20 18 -16 21 27 -19 25 -21 -22 -23 31 -25 36 -27 38 -29 -30 -31 39 -33 -34 -35 -36 -37 -38 -39 -40 -41 -42 -43 -44 -45
leaf_value=-0.023087463394079404 -0.02312349936933867 -0.037859981307987844 -0.040464353375464751 -0.019833810391005027 0.0034654918381393195 0.11479261007303175 0.10225473993262682 -0.0090514928838360941 0.17611940561421963 0.043730252079238571 0.11241579436649328 0.0077963304286036324 0.07626277834072033 -0.0024069285050938656 0.2770444828093655 0.3593462417488657 0.21037414216108941 -0.04226494835003599 0.033802661130800486 0.087545320903858762 0.042406655764492374 0.51873377732434522 -0.020182945607829125 0.075940348831959534 0.19478957259255497 0.00088519732740403509 0.018489128039708664 0.12897991904454367 0.19068046677661682 0.019343845840547255 0.01142128040746938 0.00056648613505912724 0.17161773098466718 -0.020676257008696262 0.40463118888411431 0.26705399450969985 0.35299026476369305 0.032342950054922215 0.099816422914762407 -0.012406983744606366 -0.067090174923680801 -0.017100106412661371 0.10151158179314906 0.0020248720994237731
leaf_weight=148413 3634 221 1327 91 8095 3893 2722 55401 3781 12506 186 5502 15104 5100 1091 769 2358 8846 15595 8176 9941 422 10747 1439 515 9104 2235 1128 819 6953 5911 73175 1812 37942 94 196 184 1911 564 19854 117 107978 221 8456
leaf_count=148413 3634 221 1327 91 8095 3893 2722 55401 3781 12506 186 5502 15104 5100 1091 769 2358 8846 15595 8176 9941 422 10747 1439 515 9104 2235 1128 819 6953 5911 73175 1812 37942 94 196 184 1911 564 19854 117 107978 221 8456
internal_value=0 0.0914719 -0.00774402 0.23462 -0.0114525 0.0682917 0.0577571 0.00576796 0.0261028 0.0744854 0.0297107 -0.0155521 0.0702705 0.0251741 0.191081 0.373131 0.167052 -0.0204159 0.0326245 0.0529957 0.0628297 0.416741 -0.00720064 0.118358 0.178952 0.0216706 0.0021467 0.184142 0.122821 -0.00474666 -0.0193219 -0.00209117 0.132905 -0.0170701 0.235072 0.176673 0.237487 -0.00766996 0.0349473 -0.00693976 0.0431189 -0.0205661 0.0319958 -0.00374693
internal_weight=0 47315 557214 6591 507015 40724 35019 97493 33228 16287 50199 409522 28586 47758 5019 1572 3928 16941 37975 13276 25045 1191 127366 2441 1002 24699 6433 3486 3541 64265 282156 83922 5705 43444 381 287 699 57312 2799 25765 303 256391 442 9783
internal_count=604529 47315 557214 6591 507015 40724 35019 97493 33228 16287 50199 409522 28586 47758 5019 1572 3928 16941 37975 13276 25045 1191 127366 2441 1002 24699 6433 3486 3541 64265 282156 83922 5705 43444 381 287 699 57312 2799 25765 303 256391 442 9783
is_linear=0
shrinkage=0.1


Tree=12
num_leaves=45
num_cat=0
split_feature=1 15 1 6 3 12 15 15 1 15 0 15 0 0 0 0 9 1 1 17 3 0 23 15 2 3 0 24 1 12 0 15 15 0 0 0 0 1 19 13 17 0 19 15
split_gain=35241.4 9367.81 7726.25 5964.14 2759.83 1690.35 1635.23 1505.84 1465.04 1458.93 1152.49 990.307 957.085 929.882 803.59 4495.67 754.391 750.884 666.085 622.134 550.193 521.615 499.498 483.216 431.217 403.96 369.694 359.551 328.238 317.274 310.374 301.404 271.79 266.711 227.273 227.199 225.901 224.116 207.508 202.773 155.368 149.372 144.207 131.194
threshold=2.8029010331479989 1.8525983269108321 5.4868673298236716 0.75580852879504301 0.64042914306076759 1.9632626309062402 5.2371547616085943 10.02180312424098 1.0000000180025095e-35 4.3245142630630689 0.45000000000000007 0.27925744438724021 -1.0000000180025095e-35 -1.0000000180025095e-35 19.350000000000005 -1.0000000180025095e-35 3.9871006030957123 6.7458242390288694 4.0163424379838117 31.500000000000004 2.2178715971363001 -1.0000000180025095e-35 1.0000000180025095e-35 0.23751778706078078 1.0000000180025095e-35 4.2474499451221552 -1.0000000180025095e-35 1.0000000180025095e-35 1.0000000180025095e-35 2.0277932728330321 2.2500000000000004 6.1806149114853719 7.9928097926588775 3.5500000000000003 3.1500000000000008 -1.0000000180025095e-35 2.2500000000000004 6.6902207732987664 26.500000000000004 0.015691599329581651 25.500000000000004 1.2500000000000002 16.500000000000004 5.6615816168467985
decision_type=2 2 2 2 2 2 2 2 2 2 2 2 2 2 2 2 2 2 2 2 2 2 2 2 2 2 2 2 2 2 2 2 2 2 2 2 2 2 2 2 2 2 2 2
left_child=1 3 6 8 19 12 13 10 14 20 27 17 -6 22 15 -1 -7 -12 30 21 28 -5 39 -20 -16 40 -10 -4 33 -21 -15 -13 -8 -3 35 -22 -28 -9 -24 -2 41 -11 -39 -27
right_child=2 9 7 4 5 16 32 37 26 25 11 31 -14 18 24 -17 -18 -19 23 29 34 -23 38 -25 -26 43 36 -29 -30 -31 -32 -33 -34 -35 -36 -37 -38 42 -40 -41 -42 -43 -44 -45
leaf_value=-0.023389882469021885 -0.063641277567852192 0.053232097361220081 -0.01262732207234866 -0.033016528271825246 -0.012057269169354869 0.047031489950586647 0.1628966116410199 0.35415614236992909 -0.013590377224419317 0.17294141567057145 0.27147558620860862 0.0074112483057319949 0.019042749710821941 0.17522700912672595 -0.019154585621744789 0.022340371179529282 0.160548184928195 0.44128023680855116 0.15678723808082951 0.0031981657933541963 0.046294393721172215 -0.0069635982784395497 0.043557252958124376 0.079295591100450522 -0.0060363343897987254 0.17409534814631045 0.11807661468113105 0.19984799170757131 0.056113450319378456 0.039469316328122679 0.0818289580037629 0.19623827873898381 0.24440825687351811 0.018838480289821727 0.067767157994423177 0.15796985580725981 0.024925084503766164 0.33446223247570855 0.19370234403621547 0.022788287510139928 0.083906308915337402 0.10742181014268459 0.51901487104315835 0.33377356057038821
leaf_weight=60518 346 3160 204 9380 11628 13566 1975 366 2800 560 927 103 66350 373 250912 33338 610 376 2990 27625 258 42488 160 1112 27841 124 265 128 7239 2640 7652 474 532 7873 2682 639 10195 74 220 1227 1276 979 242 102
leaf_count=60518 346 3160 204 9380 11628 13566 1975 366 2800 560 927 103 66350 373 250912 33338 610 376 2990 27625 258 42488 160 1112 27841 124 265 128 7239 2640 7652 474 532 7873 2682 639 10195 74 220 1227 1276 979 242 102
internal_value=0 -0.00438501 0.132327 -0.00705257 0.00830084 0.0201805 0.105993 0.283052 -0.0139873 0.0556392 0.242499 0.272812 0.0144049 0.092715 -0.0151497 -0.00714617 0.0519422 0.321189 0.103027 -0.0050284 0.0465979 -0.0116764 0.0286346 0.135838 -0.0178444 0.120518 0.0186736 0.0701282 0.0395657 0.00636493 0.0862206 0.162699 0.180409 0.0286986 0.0824499 0.126056 0.0273113 0.413283 0.131146 0.00370982 0.110011 0.131492 0.478613 0.248883
internal_weight=0 585048 19481 560156 174287 92154 16587 2894 385869 24892 2212 1880 77978 14080 372609 93856 14176 1303 12127 82133 21851 51868 1953 4102 278753 3041 13260 332 18272 30265 8025 577 2507 11033 3579 897 10460 682 380 1573 2815 1539 316 226
internal_count=604529 585048 19481 560156 174287 92154 16587 2894 385869 24892 2212 1880 77978 14080 372609 93856 14176 1303 12127 82133 21851 51868 1953 4102 278753 3041 13260 332 18272 30265 8025 577 2507 11033 3579 897 10460 682 380 1573 2815 1539 316 226
is_linear=0
shrinkage=0.1


Tree=13
num_leaves=45
num_cat=0
split_feature=1 1 12 1 15 15 0 13 3 0 0 0 0 1 0 0 3 12 0 0 0 15 6 0 19 15 19 0 0 15 24 3 3 0 2 9 15 19 23 6 2 2 1 15
split_gain=28969.3 10367.2 5235.43 2690.94 2509.79 1623.93 1550.36 1491.94 1425.06 1110.3 1101.89 1002.51 4057.67 961.411 883.853 877.035 748.624 727.14 709.425 2079.06 1573.26 681.8 680.786 664.292 645.52 642.834 584.034 551.688 593.941 538.221 521.495 473.061 421.849 391.553 335.557 325.172 315.195 293.11 283.548 255.843 245.224 224.587 219.773 146.081
threshold=0.89587973461402759 5.1445790166580574 1.371580043611661 3.5694334999727619 0.80638920280650705 10.02180312424098 -1.0000000180025095e-35 0.6699043296310162 2.9287869418929744 4.8500000000000005 2.2500000000000004 12.050000000000002 -1.0000000180025095e-35 8.172137494801829 -1.0000000180025095e-35 1.0000000180025095e-35 0.15031192164178844 1.520085422568993 11.15 -1.0000000180025095e-35 2.7500000000000004 4.8658053932221117 0.25858983566724675 1.7500000000000002 25.500000000000004 0.23751778706078078 28.500000000000004 5.2500000000000009 -1.0000000180025095e-35 0.43029023762921836 1.0000000180025095e-35 1.9206458629479592 0.25778750103975157 -1.0000000180025095e-35 1.0000000180025095e-35 4.9737777292142464 0.69387685241507591 31.500000000000004 1.0000000180025095e-35 0.50725165749283596 1.0000000180025095e-35 1.0000000180025095e-35 6.6902207732987664 6.9209416357015323
decision_type=2 2 2 2 2 2 2 2 2 2 2 2 2 2 2 2 2 2 2 2 2 2 2 2 2 2 2 2 2 2 2 2 2 2 2 2 2 2 2 2 2 2 2 2
left_child=2 3 4 6 7 13 29 16 18 14 31 12 -9 15 -6 30 -1 -12 19 24 -21 33 -18 -16 -4 -17 34 28 40 37 -3 -8 -28 38 -20 -30 -35 -2 -5 -11 -10 -13 -7 -23
right_child=1 5 8 21 9 42 10 11 27 39 17 41 -14 -15 23 25 22 -19 26 20 -22 43 -24 -25 -26 -27 32 -29 35 -31 -32 -33 -34 36 -36 -37 -38 -39 -40 -41 -42 -43 -44 -45
leaf_value=-0.019297552259314593 -0.022964040235827838 -0.059323121907459579 -0.041772052894721454 0.0049728769220590491 0.0041807640128875374 0.31340406593180714 0.098619094930308723 -0.019735249467708063 0.089789993542175942 -0.0046708767781727892 0.045697863786320153 -0.0094458478240102596 0.063006588205792802 0.55199922030986193 0.11734325560085582 0.24682221706958862 -0.016106859767641753 0.086128608360700853 -0.0096983213665380891 0.11763058108591498 0.037351435444907301 0.14269170484424051 -0.0054298040354196202 0.043828298820505242 0.020063608542393838 0.14527404395199747 -0.0044994527441584026 0.05053737594014978 0.14192776364144308 0.069730818044488815 0.18259086334001542 0.21689252564237377 0.0368510261117403 0.12057780754196755 0.032164485504242273 0.27591399329323119 0.068995940853293067 0.033540515614812354 0.15727461326362988 0.013102452259363817 -0.064823343579783282 0.011170581997249004 0.43138827519690343 0.20088661791349174
leaf_weight=155571 3956 207 3272 695 3066 415 904 12784 277 13559 21662 39493 11046 74 1985 1753 111572 5602 12935 3346 9025 1364 128499 3235 3483 989 3380 1865 849 1015 153 546 9128 3947 2245 234 1710 1193 146 20107 160 6098 316 668
leaf_count=155571 3956 207 3272 695 3066 415 904 12784 277 13559 21662 39493 11046 74 1985 1753 111572 5602 12935 3346 9025 1364 128499 3235 3483 989 3380 1865 849 1015 153 546 9128 3947 2245 234 1710 1193 146 20107 160 6098 316 668
internal_value=0 0.0751418 -0.00635815 0.0610907 -0.0094082 0.231122 0.0487716 -0.0115213 0.0244466 0.0140167 0.0585393 0.00200013 0.0186208 0.199912 0.0468031 0.191097 -0.0138939 0.054012 0.0199133 0.0347237 0.059083 0.111434 -0.010392 0.0718243 -0.00989262 0.210353 0.00968061 0.0870834 0.131776 0.00326538 0.044013 0.143437 0.0256783 0.0955571 -0.00350309 0.171418 0.105021 -0.00986277 0.0317812 0.00594441 0.0331366 -0.00668787 0.365638 0.162035
internal_weight=0 47315 557214 43408 507015 3907 34878 465063 50199 41952 28714 69421 23830 3176 8286 3102 395642 27264 46814 19126 12371 8530 240071 5220 6755 2742 27688 3385 1520 6164 360 1450 12508 6498 15180 1083 5657 5149 841 33666 437 45591 731 2032
internal_count=604529 47315 557214 43408 507015 3907 34878 465063 50199 41952 28714 69421 23830 3176 8286 3102 395642 27264 46814 19126 12371 8530 240071 5220 6755 2742 27688 3385 1520 6164 360 1450 12508 6498 15180 1083 5657 5149 841 33666 437 45591 731 2032
is_linear=0
shrinkage=0.1


Tree=14
num_leaves=45
num_cat=0
split_feature=1 1 3 0 0 0 12 15 3 1 1 1 17 0 0 15 7 1 15 19 2 0 1 23 1 0 15 0 0 15 15 15 15 3 12 15 18 0 6 13 15 17 19 23
split_gain=23619.1 6570.66 5430.75 2440.52 6769.2 4152.43 2210.98 1477.79 1364.97 1294.32 1187.38 1046.68 1042.91 888.169 864.581 752.824 736.531 730.11 660.505 660.05 635.227 557.192 548.804 409.817 394.263 441.806 374.014 304.069 2581.64 295.793 259.833 242.248 249.823 224.176 214.298 206.852 196.513 174.907 167.065 151.297 150.49 144.515 143.232 142.191
threshold=2.0126758453675748 5.3156629864430025 1.276616662534769 10.15 -1.0000000180025095e-35 1.7500000000000002 0.30892535872470134 4.3245142630630689 5.1031042951921624 1.0000000180025095e-35 6.8254506048844457 1.0000000180025095e-35 27.500000000000004 4.4500000000000011 -1.0000000180025095e-35 0.20089514527270788 0.24825848542724216 1.0000000180025095e-35 2.633221149679652 25.500000000000004 1.0000000180025095e-35 3.5500000000000003 3.9415346756528771 1.0000000180025095e-35 8.2770263590074311 6.1500000000000012 1.1790721121310093 17.850000000000005 -1.0000000180025095e-35 6.9209416357015323 6.1806149114853719 10.02180312424098 0.23751778706078078 0.10557439076920604 1.7073551944370278 0.4444560627043278 1.5000000000000002 -1.0000000180025095e-35 0.19018553476840416 0.0054487028775410508 4.569447801720055 20.500000000000004 26.500000000000004 -1.0000000180025095e-35
decision_type=2 2 2 2 2 2 2 2 2 2 2 2 2 2 2 2 2 2 2 2 2 2 2 2 2 2 2 2 2 2 2 2 2 2 2 2 2 2 2 2 2 2 2 2
left_child=2 7 6 4 12 8 17 14 -6 26 21 16 35 -7 23 22 33 27 -17 -18 -14 30 -16 39 25 41 36 28 -1 -9 43 32 -23 -8 -11 -4 -5 -13 -29 -2 -28 -12 -25 -3
right_child=1 10 3 9 5 13 11 29 -10 34 24 37 20 -15 15 18 19 -19 -20 -21 -22 31 -24 42 -26 -27 40 38 -30 -31 -32 -33 -34 -35 -36 -37 -38 -39 -40 -41 -42 -43 -44 -45
leaf_value=-0.02000170497547453 -0.050103592515181462 0.029613132242975484 -0.034014981021968607 0.0020966127867028919 0.16402205633519759 0.093099662383055559 -0.017963910181636178 0.11104341818940262 0.41900398138990341 0.036571336905965569 0.12278980830955891 0.0020158435408670823 0.046950256885752911 0.040848357003395293 0.071728710229075968 0.0052762982799679824 -0.0048754591956394911 0.014137762383256447 0.068732812063189916 0.011380673439349029 -0.022729734232554109 0.22430903039822503 0.12164265102270411 0.025821980201683845 0.53287196674217385 0.36541557587335316 0.022117022640333689 -0.017725536154413277 0.021567718845110828 0.17479869130015191 0.21806381493238292 0.28223924142842999 0.14274158961924502 -0.0024416297004986459 0.080591520639490807 0.036028425026216414 -0.011636642198206818 0.037735346121748968 -0.012508925279481234 0.0084643355238215433 0.14286360972209997 0.28573076866537889 0.11629398754639969 0.16822784808630534
leaf_weight=52805 552 337 8785 25835 3136 4859 25293 3024 224 5942 141 1626 3859 9858 8477 2783 46847 9561 3994 53498 1977 1043 2986 291 88 412 5287 146916 20832 972 137 404 617 14719 1360 441 17459 8744 105519 2156 103 94 443 93
leaf_count=52805 552 337 8785 25835 3136 4859 25293 3024 224 5942 141 1626 3859 9858 8477 2783 46847 9561 3994 53498 1977 1043 2986 291 88 412 5287 146916 20832 972 137 404 617 14719 1360 441 17459 8744 105519 2156 103 94 443 93
internal_value=0 0.0880022 -0.00442032 0.0182724 0.0397799 0.0810308 -0.00857881 0.070768 0.181305 0.00554058 0.219334 0.00148239 -0.00973332 0.058112 0.0604569 0.0691306 -0.000782918 -0.0130971 0.0426851 0.00379141 0.0233459 0.187622 0.0847533 0.0144766 0.331878 0.302692 -0.000348793 -0.0138958 -0.00824135 0.126646 0.0992089 0.211768 0.194239 -0.0122543 0.0447936 -0.0306585 -0.00344188 0.0321363 -0.0155451 -0.00350761 0.0244863 0.190172 0.0806245 0.0603517
internal_weight=0 29044 575485 89125 33139 18077 486360 25678 3360 55986 3366 150727 15062 14717 21682 18240 140357 335633 6777 100345 5836 2631 11463 3442 735 647 48684 326072 73637 3996 567 2064 1660 40012 7302 9226 43294 10370 252435 2708 5390 235 734 430
internal_count=604529 29044 575485 89125 33139 18077 486360 25678 3360 55986 3366 150727 15062 14717 21682 18240 140357 335633 6777 100345 5836 2631 11463 3442 735 647 48684 326072 73637 3996 567 2064 1660 40012 7302 9226 43294 10370 252435 2708 5390 235 734 430
is_linear=0
shrinkage=0.1


Tree=15
num_leaves=45
num_cat=0
split_feature=1 1 12 15 1 3 3 1 9 0 1 9 7 19 0 15 0 0 0 15 17 24 12 15 15 3 23 0 1 0 12 17 23 15 15 15 15 19 15 0 24 0 18 0
split_gain=19142.6 5344.14 4499.51 2160.27 1390.92 1362.27 1275.51 845.523 759.508 740.411 679.178 657.623 582.119 633.88 663.99 568.226 549.161 507.315 467.728 509.063 451.375 430.603 351.858 341.882 340.828 303.81 267.621 264.898 258.144 238.242 237.849 224.846 198.528 196.071 256.214 194.094 182.851 173.386 166.163 158.96 143.021 142.936 132.859 126.746
threshold=2.0126758453675748 5.4868673298236716 1.160433847024247 2.2607756708785707 3.9415346756528771 0.99157957107969585 1.6704514321497601 7.1151738059357168 2.661819677338825 8.1500000000000004 1.0000000180025095e-35 3.9871006030957123 0.28771978834336576 26.500000000000004 -1.0000000180025095e-35 3.1780422687759633 3.1500000000000008 -1.0000000180025095e-35 -1.0000000180025095e-35 0.20089514527270788 28.500000000000004 -1.0000000180025095e-35 2.0890910553281796 5.2371547616085943 2.8811207840337594 3.0837267126285095 1.0000000180025095e-35 -1.0000000180025095e-35 8.2770263590074311 6.1500000000000012 2.5864260039047617 25.500000000000004 1.0000000180025095e-35 10.02180312424098 0.27925744438724021 5.6615816168467985 4.3245142630630689 41.500000000000007 5.6615816168467985 -1.0000000180025095e-35 -1.0000000180025095e-35 -1.0000000180025095e-35 1.5000000000000002 2.7500000000000004
decision_type=2 2 2 2 2 2 2 2 2 2 2 2 2 2 2 2 2 2 2 2 2 2 2 2 2 2 2 2 2 2 2 2 2 2 2 2 2 2 2 2 2 2 2 2
left_child=2 4 3 5 15 10 12 16 17 -10 21 24 40 14 -14 18 26 -7 32 -20 23 -1 -15 27 30 31 35 -6 29 -9 -8 36 -2 34 -18 -3 -5 42 41 -12 -4 -13 -22 -27
right_child=1 7 6 25 20 8 11 28 9 -11 39 38 13 22 -16 -17 33 -19 19 -21 37 -23 -24 -25 -26 43 -28 -29 -30 -31 -32 -33 -34 -35 -36 -37 -38 -39 -40 -41 -42 -43 -44 -45
leaf_value=-0.018532514277217037 -0.0088068204742895 0.017816225237769115 -0.032438982985053294 0.0470583359250984 0.0049960773894917911 -0.015956618675754035 0.026234606773076537 0.18706237507751322 0.076641799852835521 0.0050016739571726908 -0.011918790146555516 0.02097717677122805 -0.03819641830211444 0.02250828723806433 0.012508579656878002 0.084780070188022458 0.21891994726809966 0.0039476219070581657 0.064557847496119744 0.021444245518878986 0.1784576695449531 -0.009882926591767989 0.052590955711212153 0.13409372964978813 0.083481669680523105 0.15802365610746705 0.26415951440755198 0.085821839519415841 0.48098458529467286 0.342679857181097 0.059185454119968978 0.022246961692264172 0.056186840664368222 0.26653684732681682 0.12762470120449834 0.16933073778460256 0.11406789147533725 0.27893223108718335 0.24521706194539325 0.018571756564438213 -0.0027113072053621071 0.11385000582635836 0.10882881818629914 0.067334572302835502
leaf_weight=70205 2175 319 1922 2999 455 15604 11326 165 2652 3161 2082 196 2952 15159 20524 3992 930 71340 8477 4050 602 319508 5231 1411 1453 288 72 3747 88 290 2717 4447 597 438 479 113 471 109 83 9527 10181 1115 535 342
leaf_count=70205 2175 319 1922 2999 455 15604 11326 165 2652 3161 2082 196 2952 15159 20524 3992 930 71340 8477 4050 602 319508 5231 1411 1453 288 72 3747 88 290 2717 4447 597 438 479 113 471 109 83 9527 10181 1115 535 342
internal_value=0 0.0792267 -0.00397787 -0.00734443 0.0649442 -0.00820678 0.0192463 0.208124 0.00271526 0.0377032 -0.0107312 0.0433302 0.0119768 0.0173335 0.00612944 0.051181 0.181796 0.000375033 0.0424022 0.0506259 0.103622 -0.0114412 0.0302311 0.091461 0.0374 0.0424938 0.0886867 0.0770776 0.320823 0.287511 0.0326188 0.0371521 0.00522683 0.207057 0.18815 0.0581574 0.0562256 0.158128 0.109075 0.0131022 -0.00743761 0.100028 0.14599 0.10923
internal_weight=0 29044 575485 502626 26150 494079 72859 2894 92757 5813 401322 16890 55969 43866 23476 19291 2351 86944 15299 12527 6859 389713 20390 5613 15496 8547 504 4202 543 455 14043 7917 2772 1847 1409 432 3470 1246 1394 11609 12103 1311 1137 630
internal_count=604529 29044 575485 502626 26150 494079 72859 2894 92757 5813 401322 16890 55969 43866 23476 19291 2351 86944 15299 12527 6859 389713 20390 5613 15496 8547 504 4202 543 455 14043 7917 2772 1847 1409 432 3470 1246 1394 11609 12103 1311 1137 630
is_linear=0
shrinkage=0.1


Tree=16
num_leaves=45
num_cat=0
split_feature=1 1 12 0 0 0 15 3 0 2 15 0 2 3 15 12 1 0 17 15 0 0 0 2 19 15 24 6 1 17 3 0 0 15 2 10 3 3 12 1 2 19 12 3
split_gain=15813.5 5552.3 3048.85 1637.09 7201.89 6612.01 1510.76 1478.35 1157.06 939.365 918.033 849.966 825.055 805.069 699.038 581.132 533.709 520.233 516.133 504.839 458.025 1225.32 1136.8 525.354 444.416 403.402 388.321 377.84 366.341 360.129 283.157 272.932 335.164 243.195 241.128 236.359 225.52 150.749 145.517 142.694 137.737 125.091 119.785 111.662
threshold=0.89587973461402759 5.173316863805991 1.520085422568993 15.850000000000003 -1.0000000180025095e-35 3.9500000000000006 3.9092151826887398 3.4981591369637228 -1.0000000180025095e-35 1.0000000180025095e-35 10.02180312424098 6.9500000000000011 1.0000000180025095e-35 3.2585257789809536 5.7685759534783415e-09 1.3452318017491407 8.172137494801829 1.0000000180025095e-35 31.500000000000004 2.0558002200291261 12.050000000000002 -1.0000000180025095e-35 2.2500000000000004 1.0000000180025095e-35 28.500000000000004 0.23751778706078078 1.0000000180025095e-35 0.37312279244195373 1.0000000180025095e-35 23.500000000000004 0.12269368271124025 3.1500000000000008 -1.0000000180025095e-35 6.1806149114853719 1.0000000180025095e-35 2.3139284791773186e-13 0.29264260449921115 4.2474499451221552 0.47190050622839436 6.6535061119786887 1.0000000180025095e-35 16.500000000000004 2.7427952085309455 5.1031042951921624
decision_type=2 2 2 2 2 2 2 2 2 2 2 2 2 2 2 2 2 2 2 2 2 2 2 2 2 2 2 2 2 2 2 2 2 2 2 2 2 2 2 2 2 2 2 2
left_child=2 6 3 4 12 7 8 -6 29 28 16 -7 18 20 15 -10 17 26 -1 -16 21 23 -23 -4 34 -19 -3 -11 30 -2 -5 32 40 -8 -22 -31 -26 -35 -14 -12 -15 -41 -33 -34
right_child=1 10 13 9 5 11 33 -9 14 27 39 -13 38 31 19 -17 -18 25 -20 -21 24 22 -24 -25 36 -27 -28 -29 -30 35 -32 42 43 37 -36 -37 -38 -39 -40 41 -42 -43 -44 -45
leaf_value=-0.014769986990352993 -0.019666537073510019 -0.065254406768505899 0.016813878351822409 -0.016412581878487573 0.090716058111815934 0.03909452950104287 0.081454713937376522 0.24493718281949076 0.047914974910110181 -0.0054504319905974838 0.22943874383358809 0.005683471345755902 -0.023817057839166364 0.090695624934126182 0.0035138307846335568 0.087553184655889349 0.40948081278041526 0.1846278811928399 0.0080750454558803867 0.044705343041318735 -0.010618950212653508 0.10766178583098028 0.032303374520584793 -0.045563907057559416 0.00021684330790176272 0.10257662853928831 0.1461480339067413 0.013574865839214495 0.013156390066746036 -0.059915488125252138 -0.010242380847379872 0.033819527686337253 0.14326944982389087 0.12067268955390797 0.02927216814583157 0.036188897923341838 0.033992957239228176 0.25703270002529438 -0.040211360879307101 0.20046155799707749 -0.056548313954381063 0.35871145604777566 0.098657531190212838 0.24839869809085618
leaf_weight=27163 3790 200 3431 112379 10357 9847 3968 660 13981 21008 401 33556 32901 166 5043 5036 74 1709 15549 7256 9953 2573 9006 2223 2764 940 150 20744 5736 281 220003 942 387 1416 1785 2658 6939 86 6487 76 100 250 409 146
leaf_count=27163 3790 200 3431 112379 10357 9847 3968 660 13981 21008 401 33556 32901 166 5043 5036 74 1709 15549 7256 9953 2573 9006 2223 2764 940 150 20744 5736 281 220003 942 387 1416 1785 2658 6939 86 6487 76 100 250 409 146
internal_value=0 0.055521 -0.00469351 -0.00677336 0.00261879 0.030829 0.0453922 0.100006 0.0383225 -0.0101488 0.171409 0.0132653 -0.0160807 0.0216137 0.0464058 0.0584214 0.147289 0.140501 -0.00645343 0.0278194 0.0182997 0.0304375 0.0490676 -0.00772021 0.00854168 0.15563 0.0257209 0.0040023 -0.0118962 0.000700398 -0.0123286 0.0811413 0.127435 0.0945257 -0.00454801 0.0269593 0.0243739 0.128874 -0.0265194 0.272549 0.0353302 0.323535 0.0535871 0.17304
internal_weight=0 47315 557214 516390 136520 54420 43515 11017 38045 379870 3800 43403 82100 40824 31316 19017 3073 2999 42712 12299 38674 17233 11579 5654 21441 2649 350 41752 338118 6729 332382 2150 799 5470 11738 2939 9703 1502 39388 727 266 326 1351 533
internal_count=604529 47315 557214 516390 136520 54420 43515 11017 38045 379870 3800 43403 82100 40824 31316 19017 3073 2999 42712 12299 38674 17233 11579 5654 21441 2649 350 41752 338118 6729 332382 2150 799 5470 11738 2939 9703 1502 39388 727 266 326 1351 533
is_linear=0
shrinkage=0.1


Tree=17
num_leaves=45
num_cat=0
split_feature=1 3 1 1 0 0 0 6 15 3 15 1 19 17 17 0 3 3 0 1 18 0 19 0 18 0 0 6 15 2 2 2 2 1 15 12 15 12 18 19 17 3 0 15
split_gain=12836.2 3494.21 3090.17 1949.79 1361.93 3849.17 2393.85 1252.76 931.247 814.862 709.997 700.24 637.644 623.191 517.58 553.225 450.192 440.672 438.097 344.432 302.995 262.861 233.421 262.259 213.982 211.931 1757.74 211.382 210.791 203.581 186.242 177.021 155.794 150.777 135.669 129.973 126.356 118.178 115.388 112.904 112.36 105.811 99.0498 96.1426
threshold=2.524928003624769 1.6704514321497601 5.865049616265698 1.0000000180025095e-35 9.7500000000000018 -1.0000000180025095e-35 1.7500000000000002 0.536441455630706 6.1806149114853719 5.1031042951921624 0.8228399484086959 1.0000000180025095e-35 27.500000000000004 33.500000000000007 37.500000000000007 -1.0000000180025095e-35 3.8261533907005214 2.9287869418929744 4.4500000000000011 7.4232644980295701 1.5000000000000002 3.1500000000000008 22.500000000000004 -1.0000000180025095e-35 1.5000000000000002 15.350000000000003 -1.0000000180025095e-35 0.83486746951494351 1.3114329885268707 1.0000000180025095e-35 1.0000000180025095e-35 1.0000000180025095e-35 1.0000000180025095e-35 4.2268071048866842 2.5586828708401481 1.800166992575376 7.9928097926588775 1.3202861840473614 1.5000000000000002 23.500000000000004 17.500000000000004 3.0837267126285095 -1.0000000180025095e-35 4.569447801720055
decision_type=2 2 2 2 2 2 2 2 2 2 2 2 2 2 2 2 2 2 2 2 2 2 2 2 2 2 2 2 2 2 2 2 2 2 2 2 2 2 2 2 2 2 2 2
left_child=1 3 8 7 5 13 9 25 14 -7 12 28 -9 30 15 31 -8 -17 22 40 27 -12 23 -4 -24 26 -1 -5 38 -15 -3 -2 -27 37 42 -13 -10 -16 -6 -29 -20 -25 -22 -30
right_child=2 4 18 20 11 6 16 10 36 -11 21 35 -14 29 33 17 -18 -19 19 -21 34 -23 24 41 -26 32 -28 39 43 -31 -32 -33 -34 -35 -36 -37 -38 -39 -40 -41 -42 -43 -44 -45
leaf_value=-0.015181650861439095 -0.009289827819073785 -0.0054357568345642033 -0.054309948325456929 0.017593407177765575 0.0041883191498810054 0.14396975432157974 0.045928687328260893 -0.0088818672875129179 0.10767736668678851 0.3417097517349475 0.039212921996785804 0.032189445716573423 0.003588000099829348 0.060978637680840699 0.085108957738018923 0.05247122027008097 0.10853024405032126 0.10753087702852621 0.14650126077758224 0.33030205894562636 -0.013805953898693317 0.011065357104833633 0.33189071314958873 0.090530093721621574 0.091729668615553414 -0.012949467552545902 0.022095160525193388 0.028848583895889512 0.023661886552833307 -0.0062406620628472232 -0.036842826053122675 0.053967494599281643 -0.0044086100832470311 0.21322928792013546 0.041006304703286985 0.069723420084286072 0.16137916530139035 0.16589319963318525 -0.0096668345992312384 0.052716553307735503 0.21706134322057857 0.23182692014655581 0.009842447462998602 0.13397091071988232
leaf_weight=50063 1781 3789 111 7661 14737 2370 8851 83004 1114 228 3993 4708 81042 1463 709 13566 1320 1629 334 242 2180 19586 80 234 72 219154 16924 3948 2895 650 3763 586 23667 155 1176 1149 757 248 10148 4003 891 69 9400 79
leaf_count=50063 1781 3789 111 7661 14737 2370 8851 83004 1114 228 3993 4708 81042 1463 709 13566 1320 1629 334 242 2180 19586 80 234 72 219154 16924 3948 2895 650 3763 586 23667 155 1176 1149 757 248 10148 4003 891 69 9400 79
internal_value=0 -0.00285148 0.073994 -0.00538369 0.0208599 0.0399513 0.0759834 -0.00683794 0.0623413 0.16162 -0.000389291 0.00815497 -0.00272154 -0.00765986 0.0555887 0.0513857 0.0540766 0.0583898 0.191544 0.220443 0.020115 0.0158355 0.116032 0.076345 0.22129 -0.0107433 -0.00576336 0.029456 0.00154588 0.0403169 -0.0210919 0.00640922 -0.0121171 0.121715 0.00867927 0.039578 0.129582 0.106402 -0.00146214 0.0408773 0.198144 0.124259 0.00538859 0.0266966
internal_weight=0 581951 22578 525801 56150 22434 12769 497433 20545 2598 187625 33716 164046 9665 18674 17562 10171 15195 2033 1467 28368 23579 566 414 152 309808 66987 15612 27859 2113 7552 2367 242821 1112 12756 5857 1871 957 24885 7951 1225 303 11580 2974
internal_count=604529 581951 22578 525801 56150 22434 12769 497433 20545 2598 187625 33716 164046 9665 18674 17562 10171 15195 2033 1467 28368 23579 566 414 152 309808 66987 15612 27859 2113 7552 2367 242821 1112 12756 5857 1871 957 24885 7951 1225 303 11580 2974
is_linear=0
shrinkage=0.1


Tree=18
num_leaves=45
num_cat=0
split_feature=1 15 6 1 3 12 15 18 15 19 1 1 0 17 0 0 0 0 18 17 0 0 15 2 3 18 3 13 0 0 10 3 15 10 12 12 1 0 10 9 17 0 0 1
split_gain=10577.1 3440.33 2303.6 1948.55 1323.48 820.681 557.925 521.535 425.457 390.6 386.136 371.57 364.688 358.014 349.055 2671.39 347.671 340.703 283.854 288.693 279.899 231.561 225.498 193.946 165.334 158.447 155.555 152.016 133.927 134.306 130.205 130.589 122.507 114.914 108.896 84.8132 83.2257 75.1012 87.7411 74.933 71.3454 65.9717 91.2914 64.031
threshold=3.1984648276080736 2.3693994944828103 0.6844013550792879 5.865049616265698 0.6102054722891127 2.2534723019399183 6.9209416357015323 1.5000000000000002 5.6615816168467985 32.500000000000007 7.8162154114254152 1.0000000180025095e-35 26.650000000000002 31.500000000000004 13.65 -1.0000000180025095e-35 -1.0000000180025095e-35 -1.0000000180025095e-35 1.5000000000000002 22.500000000000004 -1.0000000180025095e-35 1.2500000000000002 7.9928097926588775 1.0000000180025095e-35 3.8261533907005214 1.5000000000000002 1.0286452781397601 0.011410341614369652 -1.0000000180025095e-35 6.1500000000000012 1.4116974281344385 3.4981591369637228 3.5714180370710076 1.2135745955469872 1.0000000180025095e-35 1.3202861840473614 6.5388628896926706 1.2500000000000002 2.730935383434367 8.6219901616499724e-09 22.500000000000004 0.45000000000000007 7.3500000000000005 8.2770263590074311
decision_type=2 2 2 2 2 2 2 2 2 2 2 2 2 2 2 2 2 2 2 2 2 2 2 2 2 2 2 2 2 2 2 2 2 2 2 2 2 2 2 2 2 2 2 2
left_child=1 2 11 6 13 7 9 -6 26 16 12 14 18 20 15 -1 27 -7 19 -5 -4 -18 -20 -16 37 -15 33 -2 34 -30 32 -32 -28 -3 -13 -11 40 38 -10 -35 -14 -8 -43 -12
right_child=3 8 4 10 5 17 41 -9 24 35 43 28 36 25 23 -17 21 -19 22 -21 -22 -23 -24 -25 -26 -27 30 -29 29 -31 31 -33 -34 39 -36 -37 -38 -39 -40 -41 -42 42 -44 -45
leaf_value=-0.013580879385449281 -0.061147582547120098 0.033702923195435129 -0.023521592363143481 0.12828570825759544 0.01582011357037983 -0.0024617804435147091 0.20586859058866033 0.00090297156766020467 0.12717039659056714 0.099694303913865273 0.24374554501940615 -0.042920070689244173 0.14705244217226096 0.0097614779394538179 -0.0112237711010347 0.028811164738020208 0.14720806996583993 0.046383277856582195 0.013424662754096565 0.30950099775049722 -0.0052276545581367 0.058851771935320679 0.1615666471239513 -0.0024718530479536588 0.19356001122234578 -0.0044764421594382237 0.048000552428603037 0.023772256437581185 0.05717509122999305 0.0100482271148013 0.027979620905866916 0.073746004129104009 0.085424089456144381 0.055459453411384967 0.00063440400300500757 0.16262763677767791 0.24642181704613206 0.058176725472338264 0.016844475782955878 -0.0059505205245911699 0.2325591095686888 0.060842386190696651 0.13686105344515073 0.37326759342454918
leaf_weight=58445 263 5067 10183 432 58119 1691 112 39276 470 921 115 794 304 21218 252693 19933 305 9172 326 111 46770 9525 148 28142 157 12372 2859 1023 639 10634 3974 739 1270 230 2056 290 345 572 86 1369 164 197 930 88
leaf_count=58445 263 5067 10183 432 58119 1691 112 39276 470 921 115 794 304 21218 252693 19933 305 9172 326 111 46770 9525 148 28142 157 12372 2859 1023 639 10634 3974 739 1270 230 2056 290 345 572 86 1369 164 197 930 88
internal_value=0 -0.0021346 -0.00344411 0.0812871 0.00525135 0.0127131 0.0675825 0.00980472 0.0424744 0.0611306 0.172551 -0.00807444 0.157644 -0.00367039 -0.00869999 -0.00279924 0.0552328 0.0387809 0.117246 0.166516 -0.00849939 0.0616281 0.0602546 -0.0103468 0.0977371 0.00451737 0.0378811 0.00632462 0.00783503 0.012731 0.0465799 0.0351893 0.0595538 0.0263302 -0.0115253 0.115054 0.20769 0.0840216 0.11025 0.00295181 0.178039 0.131533 0.123729 0.303559
internal_weight=0 588930 572137 15599 198801 108258 13566 97395 16793 12327 2033 373336 1830 90543 359213 78378 11116 10863 1017 543 56953 9830 474 280835 1285 33590 15508 1286 14123 11273 8842 4713 4129 6666 2850 1211 813 1128 556 1599 468 1239 1127 203
internal_count=604529 588930 572137 15599 198801 108258 13566 97395 16793 12327 2033 373336 1830 90543 359213 78378 11116 10863 1017 543 56953 9830 474 280835 1285 33590 15508 1286 14123 11273 8842 4713 4129 6666 2850 1211 813 1128 556 1599 468 1239 1127 203
is_linear=0
shrinkage=0.1


Tree=19
num_leaves=45
num_cat=0
split_feature=1 1 3 0 0 0 12 15 18 3 2 3 6 12 1 15 19 0 0 0 19 0 19 3 3 0 0 0 6 0 12 15 21 0 0 0 17 17 0 3 20 0 7 6
split_gain=8782.73 3220.91 1856.69 1111.71 2247.38 1322.73 1040.84 1028.29 657.947 607.588 533.196 519.178 487.416 479.683 423.044 373.083 334.657 357.207 1129.51 318.224 314.363 415.958 308.297 301.58 288.923 295.519 226.087 320.538 180.958 177.895 192.677 169.214 165.888 155.594 299.233 149.822 148.039 144.489 143.02 126.474 119.334 97.0585 96.2407 93.0251
threshold=0.89587973461402759 4.1820210059610323 1.9629888389904642 8.5500000000000025 -1.0000000180025095e-35 1.7500000000000002 1.5533951983989265 10.02180312424098 1.5000000000000002 0.29782125811975452 1.0000000180025095e-35 5.1031042951921624 0.25858983566724675 1.3452318017491407 7.4232644980295701 2.9702188967802612 32.500000000000007 -1.0000000180025095e-35 3.9500000000000006 -1.0000000180025095e-35 22.500000000000004 -1.0000000180025095e-35 31.500000000000004 4.2474499451221552 1.0000000180025095e-35 12.450000000000001 -1.0000000180025095e-35 1.7500000000000002 2.3496555038057441 -1.0000000180025095e-35 3.2272412723158079 2.7956336052178936 -1.0000000180025095e-35 -1.0000000180025095e-35 1.2500000000000002 9.7500000000000018 25.500000000000004 26.500000000000004 1.7500000000000002 0.075648410371950331 -1.0000000180025095e-35 39.95000000000001 0.42934466541481103 2.4933210868992606
decision_type=2 2 2 2 2 2 2 2 2 2 2 2 2 2 2 2 2 2 2 2 2 2 2 2 2 2 2 2 2 2 2 2 2 2 2 2 2 2 2 2 2 2 2 2
left_child=2 8 6 4 10 11 9 14 13 24 22 -6 40 33 20 26 17 -8 -19 -14 21 -3 -4 -7 25 -1 -10 -28 -18 32 -31 41 -15 37 -35 -16 -22 -2 -9 -26 -11 -5 -30 -33
right_child=1 7 3 31 5 23 16 38 15 12 -12 -13 19 29 35 -17 28 18 -20 -21 36 -23 -24 -25 39 -27 27 -29 42 30 -32 43 -34 34 -36 -37 -38 -39 -40 -41 -42 -43 -44 -45
leaf_value=0.0201733554975215 -0.014477018111425969 -0.022663824377773593 0.00061538227748579241 0.009775534174624366 0.1312777594672617 0.045146406434200037 -0.025267263892575845 0.34368734436961224 -0.014184077896035567 -0.016087710437783325 -0.035887891885099263 0.30227172856044893 -0.010593480910940494 0.0054401288825531961 0.14084125405051909 0.048168154653374373 0.01766910051557366 0.074719846497755024 0.0014684114021070338 0.0023100613607316698 0.089883842021970251 0.077448337244275287 0.069478379165258064 0.11506418280443492 -0.013308246317231305 -0.0065661048380770545 0.10298020269944193 0.012805033480493064 0.02111485644045585 0.066724083118376562 0.12809128578845583 0.033578023478276174 0.13246810085463209 0.13999390306464002 0.0346758881694866 0.3103422207598372 0.14204279657100008 0.033293147371502442 0.19200356563370402 -0.0084111318203617547 -0.0067892149743852756 -0.004113638545361958 0.056792337503852569 0.12670334212688708
leaf_weight=6061 1244 455 1857 10187 1641 5331 3176 71 3160 16602 2947 199 22116 706 118 3004 6237 2418 16158 140628 1228 4613 998 697 107919 12981 405 12247 1093 4135 586 384 118 274 11839 103 1010 1285 714 103181 81838 9937 2480 148
leaf_count=6061 1244 455 1857 10187 1641 5331 3176 71 3160 16602 2947 199 22116 706 118 3004 6237 2418 16158 140628 1228 4613 998 697 107919 12981 405 12247 1093 4135 586 384 118 274 11839 103 1010 1285 714 103181 81838 9937 2480 148
internal_value=0 0.0413802 -0.00349457 0.0190342 0.0411535 0.0759638 -0.0049736 0.0978905 0.029332 -0.00610441 -0.00606409 0.150137 -0.00280338 0.0418708 0.0864792 0.015876 0.0126289 0.00571247 0.0110117 0.000556413 0.0822999 0.068454 0.024725 0.0532729 -0.00985062 0.00194642 0.0097348 0.0157104 0.0279599 0.0669195 0.0744019 0.00439271 0.0239593 0.0323754 0.0370852 0.222298 0.113549 0.00980375 0.206718 -0.0109148 -0.00835777 0.00291754 0.0458997 0.0599329
internal_weight=0 47315 557214 34326 13670 7868 522888 8312 39003 491326 5802 1840 261184 20187 7527 18816 31562 21752 18576 162744 7306 5068 2855 6028 230142 19042 15812 12652 9810 5545 4721 20656 824 14642 12113 221 2238 2529 785 211100 98440 20124 3573 532
internal_count=604529 47315 557214 34326 13670 7868 522888 8312 39003 491326 5802 1840 261184 20187 7527 18816 31562 21752 18576 162744 7306 5068 2855 6028 230142 19042 15812 12652 9810 5545 4721 20656 824 14642 12113 221 2238 2529 785 211100 98440 20124 3573 532
is_linear=0
shrinkage=0.1


Tree=20
num_leaves=45
num_cat=0
split_feature=1 1 0 0 0 15 2 0 1 2 0 0 9 15 12 3 17 6 2 3 15 12 1 17 15 20 19 18 15 18 23 17 0 3 8 3 17 15 17 20 0 1 9 6
split_gain=7119.29 2983.22 1662.05 6663.19 4712.64 1197.56 925.682 911.849 837.065 707.556 692.523 758.484 591.13 535.527 531.993 468.817 415.565 367.408 336.64 266.289 260.939 251.702 248.263 253.091 247.216 246.333 233.914 229.74 222.028 221.961 196.061 183.791 204.332 179.626 173.783 166.404 157.448 155.231 152.118 143.752 135.431 121.928 121.084 117.321
threshold=1.0000000180025095e-35 4.2121001622835372 12.050000000000002 -1.0000000180025095e-35 2.2500000000000004 0.64102695213180272 1.0000000180025095e-35 5.6500000000000012 6.0969494222992333 1.0000000180025095e-35 -1.0000000180025095e-35 1.2500000000000002 0.75882266673288434 0.31416392206409932 1.8496950282255644 3.4981591369637228 23.500000000000004 0.62427947749408885 1.0000000180025095e-35 2.697695932432151 6.9209416357015323 0.3951118604215465 8.2770263590074311 16.500000000000004 0.65876723092613487 1.5000000000000002 24.500000000000004 1.5000000000000002 1.0000000180025095e-35 1.5000000000000002 1.0000000180025095e-35 37.500000000000007 -1.0000000180025095e-35 0.13168478534673952 1.3101256992147663 1.0000000180025095e-35 31.500000000000004 0.17595490732810243 28.500000000000004 1.5000000000000002 2.2500000000000004 2.6735537653587347 1.0000000180025095e-35 0.95779721922201644
decision_type=2 2 2 2 2 2 2 2 2 2 2 2 2 2 2 2 2 2 2 2 2 2 2 2 2 2 2 2 2 2 2 2 2 2 2 2 2 2 2 2 2 2 2 2
left_child=2 10 3 6 5 15 12 13 20 24 18 19 26 -6 25 -5 -14 -11 30 42 31 -8 23 40 28 -13 -1 -25 33 -16 -2 32 -3 -4 -30 -7 -20 -23 -9 -19 -10 -32 -12 -38
right_child=1 8 9 4 7 35 21 38 22 17 11 14 16 -15 29 -17 -18 39 36 -21 -22 37 -24 27 -26 -27 -28 -29 34 -31 41 -33 -34 -35 -36 -37 43 -39 -40 -41 -42 -43 -44 -45
leaf_value=-0.016868033113642419 -0.020013182543768923 0.0026229182723159911 -0.011120825756535562 0.12463770256919869 0.0578099006847025 0.1498860657956663 -0.017605739904733318 0.016930718994665087 -0.046355252309452255 -0.0019165650609153267 0.17199438248338333 0.030196778634004301 -0.0081356454672042045 0.018230823516539891 0.071789295223883207 0.23627181006891532 0.04179918206403202 0.024746325175059328 0.01698913400031115 0.20388394098649362 0.1151351398275534 -0.039325867102864474 0.31607234747726065 0.2061533205314838 0.00064335206550964353 0.013794930200431085 -0.00029455972751843521 0.11731708586962591 -0.011461974686235117 0.032347100342188441 0.0067674436605836691 0.1630664996105641 0.066779059606594346 -0.005077097117710495 -0.026179495497726593 0.053910278208118362 0.04008714363707102 0.015731866012112069 0.0021440501002075395 0.0057468763026487808 0.10162800177433795 0.07843259504866297 0.06880490345043086 0.13242279154944261
leaf_weight=13264 5542 557 74831 4523 8318 189 31869 15805 81 27403 133 19128 2532 5808 3326 412 4870 9739 1083 235 1195 8932 88 636 28695 17577 23782 561 107455 2509 1467 177 4578 143460 8670 3532 305 542 12428 6739 244 281 775 253
leaf_count=13264 5542 557 74831 4523 8318 189 31869 15805 81 27403 133 19128 2532 5808 3326 412 4870 9739 1083 235 1195 8932 88 636 28695 17577 23782 561 107455 2509 1467 177 4578 143460 8670 3532 305 542 12428 6739 244 281 775 253
internal_value=0 0.0324895 -0.00360946 0.00592597 0.0345445 0.10177 -0.0110923 0.0208022 0.0889089 -0.00681471 0.0237818 0.0289691 -0.00107403 0.0415425 0.0268053 0.134067 0.0247209 0.0051792 -0.00159091 0.109281 0.0728872 -0.0218624 0.15346 0.14358 -0.00826417 0.0223438 -0.00622925 0.164833 -0.00902849 0.0548495 -0.0108046 0.0633358 0.0598244 -0.00714901 -0.0125613 0.0588776 0.0392964 -0.0361729 0.0104224 0.0169781 0.0646773 0.0183787 0.0843288 0.0823362
internal_weight=0 60731 543798 136806 51015 8656 85791 42359 8117 406992 52614 43683 44448 14126 42540 4935 7402 43881 8931 1143 6507 41343 1610 1522 363111 36705 37046 1197 334416 5835 7290 5312 5135 218291 116125 3721 1641 9474 28233 16478 325 1748 908 558
internal_count=604529 60731 543798 136806 51015 8656 85791 42359 8117 406992 52614 43683 44448 14126 42540 4935 7402 43881 8931 1143 6507 41343 1610 1522 363111 36705 37046 1197 334416 5835 7290 5312 5135 218291 116125 3721 1641 9474 28233 16478 325 1748 908 558
is_linear=0
shrinkage=0.1


Tree=21
num_leaves=45
num_cat=0
split_feature=1 3 1 1 0 0 0 9 12 1 17 17 0 0 2 9 15 21 0 15 19 24 1 20 2 15 0 15 7 0 15 17 6 15 19 15 7 0 18 18 12 15 25 1
split_gain=5884.11 1896.21 1199.25 919.034 746.408 2176.82 1446.13 648.839 544.265 505.099 444.646 404.322 360.023 2460.44 375.402 342.141 277.263 271.269 327.601 282.125 251.64 223.536 215.707 199.418 196.218 184.52 280.698 272.328 184.199 181.24 145.235 138.98 138.826 131.971 121.705 114.137 107.966 105.452 103.884 100.965 94.758 85.1287 83.2222 81.8526
threshold=2.9700856263602158 1.5285659639057985 5.7884287761319815 1.0000000180025095e-35 10.15 -1.0000000180025095e-35 1.7500000000000002 1.1940147659154978 1.800166992575376 1.0000000180025095e-35 29.500000000000004 29.500000000000004 13.250000000000002 -1.0000000180025095e-35 1.0000000180025095e-35 0.98940596078140264 4.569447801720055 -1.0000000180025095e-35 0.8500000000000002 6.1806149114853719 32.500000000000007 1.0000000180025095e-35 6.6535061119786887 1.5000000000000002 1.0000000180025095e-35 0.00017674644174125003 -1.0000000180025095e-35 2.7956336052178936 3.7543233660792699 -1.0000000180025095e-35 1.0554196672158949 37.500000000000007 0.75580852879504301 1.0000000180025095e-35 23.500000000000004 0.14850325758316527 0.19030902577358688 43.550000000000004 1.5000000000000002 1.5000000000000002 1.9632626309062402 2.2607756708785707 -1.0000000180025095e-35 6.5820213021979095
decision_type=2 2 2 2 2 2 2 2 2 2 2 2 2 2 2 2 2 2 2 2 2 2 2 2 2 2 2 2 2 2 2 2 2 2 2 2 2 2 2 2 2 2 2 2
left_child=1 3 11 8 5 10 7 -7 12 30 35 16 13 -1 -14 -8 25 18 19 21 29 -4 37 32 -12 26 -2 -27 31 -10 33 42 -5 -6 -34 -3 -22 -20 -24 40 -11 -25 -13 -19
right_child=2 4 17 23 9 6 15 -9 20 39 24 28 14 -15 -16 -17 -18 43 22 -21 36 -23 38 41 -26 27 -28 -29 -30 -31 -32 -33 34 -35 -36 -37 -38 -39 -40 -41 -42 -43 -44 -45
leaf_value=-0.010790912196432684 -0.0041822596845611593 -0.022719013529877014 -0.11386362807444105 0.010074076582165253 0.002471143266502461 0.25219772084823144 0.09639770036089533 0.098563285527462324 -0.024148175848462614 0.031376133131858296 0.03723649926313527 0.094613464294659277 -0.0080896955518123606 0.021388616206827013 0.0024466725194678025 0.032029134982087086 0.066966309679032332 0.17847614314089322 0.076304551745069726 0.1810598011687285 3.691510343751184e-05 0.091438827837048361 0.20922252832181853 0.0010302186373956997 -0.010082543255671117 -0.041214385656439832 0.048685160189018604 0.028800148673986316 0.22029162547445141 0.0091679743220672311 0.016683413139116903 0.11031549478216376 0.017093539734907206 -0.011738347215140367 0.039923935317458255 0.027641430026575198 0.035429729064793254 0.14116594512346012 0.12764318127277471 0.014693018504963497 0.069628866951363486 0.023853849950020524 0.049279342703968547 0.33295051780862717
leaf_weight=73772 1210 7215 141 7094 19007 306 889 2646 1927 3860 2656 558 323474 35046 37762 11361 2776 88 615 77 1049 82 403 11632 1306 770 5895 1977 89 10623 4614 823 4629 9959 4722 478 4830 437 282 3184 779 1899 1516 71
leaf_count=73772 1210 7215 141 7094 19007 306 889 2646 1927 3860 2656 558 323474 35046 37762 11361 2776 88 615 77 1049 82 403 11632 1306 770 5895 1977 89 10623 4614 823 4629 9959 4722 478 4830 437 282 3184 779 1899 1516 71
internal_value=0 -0.00170258 0.0566384 -0.00376537 0.0139647 0.0269475 0.0518725 0.114679 -0.00480836 0.00554208 -0.005567 0.046893 -0.00546931 -0.000426911 -0.00698826 0.0367182 0.0390547 0.125805 0.115725 0.019054 0.0120485 -0.0382033 0.132372 0.01323 0.021642 0.0311757 0.0396833 0.00915603 0.0799846 0.00404882 0.00021028 0.0754973 0.0206277 -0.00241488 0.0286295 -0.0195823 0.0291171 0.103505 0.176195 0.0284216 0.037832 0.00423701 0.0615705 0.251339
internal_weight=0 586719 17810 518459 68260 26857 15202 2952 488483 41403 11655 15614 470054 108818 361236 12250 12628 2196 2037 300 18429 223 1737 29976 3962 9852 7105 2747 2986 12550 33580 2897 16445 28966 9351 7693 5879 1052 685 7823 4639 13531 2074 159
internal_count=604529 586719 17810 518459 68260 26857 15202 2952 488483 41403 11655 15614 470054 108818 361236 12250 12628 2196 2037 300 18429 223 1737 29976 3962 9852 7105 2747 2986 12550 33580 2897 16445 28966 9351 7693 5879 1052 685 7823 4639 13531 2074 159
is_linear=0
shrinkage=0.1


Tree=22
num_leaves=45
num_cat=0
split_feature=1 1 0 0 0 15 15 2 0 2 0 0 9 18 9 6 1 20 15 6 17 2 20 24 6 0 0 17 15 15 19 0 1 0 20 17 6 19 15 1 3 15 1 15
split_gain=4817.19 1808.4 1142.93 4819.8 3333.05 975.347 779.045 725.82 640.178 499.516 463.865 511.367 454.324 323.323 302.021 301.691 284.314 279.316 270.817 253.465 239.422 229.411 222.646 363.307 206.817 182.011 181.588 176.608 165.341 141.053 131.36 119.143 117.032 241.029 115.421 110.167 95.5646 94.4156 90.4893 90.3061 87.16 83.1811 82.6602 80.117
threshold=3.5694334999727619 1.0000000180025095e-35 11.15 -1.0000000180025095e-35 2.2500000000000004 0.64102695213180272 10.02180312424098 1.0000000180025095e-35 4.8500000000000005 1.0000000180025095e-35 -1.0000000180025095e-35 10.15 0.60167591996661374 1.5000000000000002 4.9737777292142464 0.536441455630706 5.865049616265698 1.5000000000000002 0.039454882374711904 1.0441694177984029 25.500000000000004 1.0000000180025095e-35 1.5000000000000002 1.0000000180025095e-35 0.75580852879504301 0.45000000000000007 -1.0000000180025095e-35 17.500000000000004 2.4930213308143307 0.14229294502108764 20.500000000000004 3.5500000000000003 5.4183177007383536 52.45000000000001 1.5000000000000002 31.500000000000004 0.95779721922201644 33.500000000000007 2.7068245324896352 5.3636340903656388 4.2474499451221552 0.0042947999517034515 6.8254506048844457 0.74092432217074145
decision_type=2 2 2 2 2 2 2 2 2 2 2 2 2 2 2 2 2 2 2 2 2 2 2 2 2 2 2 2 2 2 2 2 2 2 2 2 2 2 2 2 2 2 2 2
left_child=1 2 3 7 5 -5 13 12 -6 22 21 14 -1 16 25 -11 20 19 27 -13 -2 29 23 -4 -9 -12 28 -18 39 37 -8 -16 40 -34 -17 -23 -37 -3 -19 -15 -28 -22 -32 -24
right_child=6 10 9 4 8 -7 30 24 -10 15 11 17 -14 26 31 34 18 38 -20 -21 41 35 43 -25 -26 -27 32 -29 -30 -31 42 -33 33 -35 -36 36 -38 -39 -40 -41 -42 -43 -44 -45
leaf_value=-0.0052527066706269665 0.04929857413899371 -0.024381910182908639 -0.0093894740210926503 0.11605422034747509 0.03891468640246315 0.048205811586770259 0.11911467173194411 -0.014573325965324055 0.010159170979290564 -0.0025410323747942325 0.11082847540051405 0.013820164928099385 0.01972009469177714 -0.0073759400197947831 0.23847651827390984 0.020784302568914531 0.086424387620699483 0.0039956691445085972 0.021960254737691538 0.037401683750109931 0.12353550883481122 0.011056744743649781 -0.010208875649315432 -0.0010182916548352307 -0.03123986147348369 0.039419803239516604 0.036122671554673254 0.20139610827077103 0.1150096961966377 0.021745198664954047 0.17026140224792399 0.077576246395933149 0.042728555508993932 0.14767025801723827 0.0048149456184633926 0.028683420356943563 0.11359749950420006 0.0071280246888403417 0.02765793705000438 -0.10097037880578122 0.11224208724718265 0.071265397145842513 0.28360764626856466 -0.00089756977581378124
leaf_weight=35269 3314 4636 91193 4935 10756 3721 439 31600 27624 25638 379 9476 9179 468 109 10931 212 13435 183 8788 703 969 145466 120149 9743 5795 4427 387 91 1057 264 84 687 321 7726 293 243 1195 1835 130 154 561 96 9868
leaf_count=35269 3314 4636 91193 4935 10756 3721 439 31600 27624 25638 379 9476 9179 468 109 10931 212 13435 183 8788 703 969 145466 120149 9743 5795 4427 387 91 1057 264 84 687 321 7726 293 243 1195 1835 130 154 561 96 9868
internal_value=0 -0.00127809 -0.00292506 0.00513894 0.0308644 0.0869091 0.0616019 -0.00896583 0.0182198 -0.00553139 0.0172663 0.021761 -9.47712e-05 0.0550207 0.0477377 0.00449917 0.0730641 0.0168258 0.128786 0.0251702 0.063484 -0.00410163 -0.00674311 -0.00463048 -0.0185026 0.0438442 0.039594 0.161207 -0.00881778 -0.0118312 0.157014 0.170241 0.0455633 0.0764159 0.0141727 0.0312374 0.0675111 -0.017924 0.00684303 -0.0280414 0.0387384 0.100514 0.202147 -0.00961737
internal_weight=0 592092 543798 132827 47036 8656 12437 85791 38380 410971 48294 39901 44448 11638 6367 44295 5360 33534 782 18264 4578 8393 366676 211342 41343 6174 6278 599 689 6888 799 193 5589 1008 18657 1505 536 5831 15270 598 4581 1264 360 155334
internal_count=604529 592092 543798 132827 47036 8656 12437 85791 38380 410971 48294 39901 44448 11638 6367 44295 5360 33534 782 18264 4578 8393 366676 211342 41343 6174 6278 599 689 6888 799 193 5589 1008 18657 1505 536 5831 15270 598 4581 1264 360 155334
is_linear=0
shrinkage=0.1


Tree=23
num_leaves=45
num_cat=0
split_feature=1 1 3 6 0 0 0 19 0 0 3 9 17 6 1 17 3 0 3 13 3 17 15 15 0 0 19 15 15 20 1 1 0 0 0 2 6 6 8 1 17 1 6 11
split_gain=3959.28 1177.84 1139.56 677.429 496.53 1195.86 681.618 482.133 638.794 1886.42 422.989 401.244 371.981 333.344 286.114 269.392 260.833 252.581 241.96 211.919 176.82 169.652 161.668 161.606 160.61 459.864 139.595 139.45 132.677 132.135 113.019 108.804 106.34 1253.41 694.127 100.731 97.4377 105.035 96.552 87.6725 77.0954 81.3638 74.608 73.9892
