tree
version=v3
num_class=1
num_tree_per_iteration=1
label_index=0
max_feature_idx=39
objective=regression
feature_names=t x2 x3 left_out_mean left_in_mean right_out_mean right_in_mean left_mean right_mean left_out_median left_in_median right_out_median right_in_median left_median right_median reverse cluster age_u sex_u age_v sex_v university_is_equal school_is_equal city_is_equal sex_is_equal age_diff age_diff_1 age_diff_2 age_diff_3 age_diff_4 age_diff_5 age_diff_10 age_diff_15 age_diff_20 age_diff_25 age_diff_30 flg_classmates flg_univermates from_ego to_ego
feature_infos=[-1:594.5] [0:9.2498495050708964] [0:1] [0:27.029408580704391] [0:22.721543844719267] [0:20.545951143678831] [0:21.354542362040625] [0:19.393235024030044] [0:19.531853164183939] [0:27.029408580704391] [0:22.721543844719267] [0:20.545951143678831] [0:21.354542362040625] [0:22.098509366265805] [0:21.354542362040625] [0:25.218181239713989] none [-1:58] [-1:2] [-1:58] [-1:2] [-1:1] [-1:1] [-1:1] [-1:1] [-59:59] [0:1] [0:1] [0:1] [0:1] [0:1] [0:1] [0:1] [0:1] [0:1] [0:1] [0:1] [0:1] none none
tree_sizes=6825 6916 6942 6941 6912 6981 6928 6955 6959 6943 6918 7012 7029 7011 7009 6955 6972 7012 6965 7002 7020 6929 6978 6946 6960 6991 7019 6947 7030 6918 7045 6983 6981 6919 7022 7030 7023 7021 7005 7068 6988 7071 7021 6957 5179 6962 6972 6989 6289 7024 6964 7117 6963 7052 6928 7092 7001 6913 6452 7090 7096 7044 7058 6966 6927 6992 7042 6905 6880 6997 7076 5927 6895 6993 6990 7116 6961 6961 7113 7039 7023 7085 6973 6995 7027 6946 6963 6985 7041 6895 6902 7047 4478 6713 6080 6879 3867 6941 6842 7005 6948 7117 6971 6962 7012 6921 6879 7015 6846 6972 7056 6941 7004 7015 6949 3947 6907 6988 6636 5615 6937 7130 6781 4398 6879 7073 6989 6704 7042 6974

Tree=0
num_leaves=78
num_cat=0
split_feature=1 1 15 12 0 0 13 1 1 0 1 15 1 13 9 0 3 15 0 0 0 0 6 1 0 1 0 0 15 0 0 0 3 15 0 3 3 15 15 1 3 0 1 15 9 24 1 17 1 15 15 0 0 19 0 0 0 1 12 12 0 0 1 3 3 24 0 12 7 0 0 0 2 17 1 15 7
split_gain=86991 19860.8 19362.5 12246.1 9044.91 5229.04 5098.42 5084.03 4295.74 3164.58 2748.47 2370.16 1908.74 1878.99 1429.07 1316.01 1017.86 1011.29 834.295 2162.59 809.451 1337.86 732.287 712.594 698.489 707.615 661.689 851.381 656.635 643.507 2552.77 1364.15 844.936 635.852 585.651 584.075 564.673 549.051 478.642 433.901 430.228 425.59 380.076 364.56 344.491 327.264 325.939 296.868 295.69 278.004 322.363 270.507 1525.12 269.451 262.541 373.003 256.083 255.331 248.845 232.264 228.996 228.152 227.045 224.871 201.882 194.55 190.187 187.656 183.129 178.537 165.858 160.441 157.533 156.863 152.765 147.698 147.556
threshold=2.740319461670996 5.2704288588135384 1.5528457307242127 0.47414846763573731 -1.0000000180025095e-35 1.0000000180025095e-35 1.0084666949027927 1.0000000180025095e-35 6.4967738527067214 -1.0000000180025095e-35 4.1190041246092024 3.055264625422351 1.0000000180025095e-35 0.25207529873170315 3.6312429410075335 -1.0000000180025095e-35 2.6887820250547763 2.949315432662976 -1.0000000180025095e-35 5.4500000000000011 6.4500000000000011 -1.0000000180025095e-35 1.7704601262984863 0.89587973461402759 3.9500000000000006 7.5817066510678091 -1.0000000180025095e-35 5.0500000000000007 10.632973943572063 14.250000000000002 -1.0000000180025095e-35 4.7500000000000009 1.5844706556206478 4.4937351809148298 5.0500000000000007 2.3916856675728795 0.27647797998819273 6.5155995616621984 0.30191403691413871 1.4978661367769959 1.0202181038251561 5.0500000000000007 1.0000000180025095e-35 5.0601463145955732 5.2683561139724562 -1.0000000180025095e-35 1.0000000180025095e-35 32.500000000000007 1.0000000180025095e-35 1.7177271797926654 4.7519897188863043 -1.0000000180025095e-35 7.6500000000000012 24.500000000000004 10.950000000000001 -1.0000000180025095e-35 5.7500000000000009 5.9161984299557089 0.77587057065453557 0.96987687987571036 12.250000000000002 1.2500000000000002 3.4811217321331038 2.5780228890633401 1.2873307463258625 -1.0000000180025095e-35 1.5500000000000003 0.95170144369952392 1.3953713374486241 11.850000000000003 3.1500000000000008 1.0000000180025095e-35 1.0000000180025095e-35 28.500000000000004 4.6001450180613412 5.9318113216566877 5.4474067659947361
decision_type=2 2 2 2 2 2 2 2 2 2 2 2 2 2 2 2 2 2 2 2 2 2 2 2 2 2 2 2 2 2 2 2 2 2 2 2 2 2 2 2 2 2 2 2 2 2 2 2 2 2 2 2 2 2 2 2 2 2 2 2 2 2 2 2 2 2 2 2 2 2 2 2 2 2 2 2 2
left_child=2 4 3 7 17 53 12 13 28 -9 33 23 18 38 22 -14 42 47 -5 40 21 73 48 35 -10 -26 -24 61 57 30 72 32 -32 62 63 58 65 49 45 -36 66 -37 60 -18 -23 -1 -29 -2 54 74 -51 -47 -53 -3 55 -8 -17 -7 69 -49 -13 -28 -6 -11 -33 -21 -20 -38 -42 -4 -59 -50 -15 -16 -12 -35 -46
right_child=1 5 11 6 10 8 14 9 24 34 37 16 15 29 20 56 43 -19 19 36 -22 44 26 -25 25 -27 27 46 -30 -31 31 64 -34 75 39 41 67 -39 -40 -41 68 -43 -44 -45 76 51 -48 59 71 50 -52 52 -54 -55 -56 -57 -58 70 -60 -61 -62 -63 -64 -65 -66 -67 -68 -69 -70 -71 -72 -73 -74 -75 -76 -77 -78
leaf_value=0.56842276767445299 0.61527940856496899 0.71636954442517686 0.72286117298143948 0.59176922895285888 0.91716659319787541 1.3449969386334073 0.62514471868589094 0.58887580794644334 1.6739745348861605 0.87980548275758363 1.1279154717126461 0.82677438183297225 0.59805748455857854 0.61031311032126001 0.61605691820640829 0.91753360095803371 0.95872741170535369 1.084454453222335 0.78749062341558573 0.5710999261250056 0.74297336659696012 0.99003722717094611 0.64136980755437678 0.81494549888741574 1.9662880601405424 2.4682623230971519 0.97711023295942967 0.7238064774449865 1.7465368554881548 0.60078168385874242 0.73522751335620962 0.63951850895959061 0.9295950282754748 1.0503428154784304 0.72380007835249949 0.9657201034303029 0.63281768578362751 1.3352652622717613 0.61362109194231451 0.81552971771179072 0.8151378932620339 0.7539310474345472 0.9031191054016261 1.1714713875227731 1.1338014226359983 0.57146597106335228 0.84501283013304307 0.69498707093267387 0.64658138245740249 0.95803921655383117 1.1660862040831934 0.6998874445417268 0.58366645063540346 1.0431300850620815 0.65604512698172945 0.7519871640722624 0.77774606287258596 1.3387352964208117 0.74383395765781712 0.99831751448901507 0.7047704570474207 0.84598266897034691 0.99344148951238664 1.1565896667684434 0.70175020315594816 0.61827561440197121 0.70552598492064966 0.66291268996443375 0.99851018246354939 0.66019390857257398 1.5644696192723111 0.80561665150102557 0.56906968215098419 0.83244542253557552 1.2345350160002666 1.1938850284331104 1.3679601358992322
leaf_weight=22817 676 66 764 3793 1044 303 315 1596 54 186 267 736 467 1462 81 148 261 55 391 1013 274 171 358 1109 110 38 184 1210 62 12475 674 1542 335 211 1599 156 3698 173 4080 762 209 243 605 117 85 15341 272 85 79 150 149 1164 37570 41 1558 876 1162 46 1198 36 195 481 627 35 788 6390 1031 4715 74 1125 117 326 2532 57 276 110 40
leaf_count=22817 676 66 764 3793 1044 303 315 1596 54 186 267 736 467 1462 81 148 261 55 391 1013 274 171 358 1109 110 38 184 1210 62 12475 674 1542 335 211 1599 156 3698 173 4080 762 209 243 605 117 85 15341 272 85 79 150 149 1164 37570 41 1558 876 1162 46 1198 36 195 481 627 35 788 6390 1031 4715 74 1125 117 326 2532 57 276 110 40
internal_value=0.629731 1.05313 0.615622 0.607465 0.957352 1.49472 0.664439 0.591474 1.59042 0.699566 1.03885 0.784065 0.642593 0.586993 0.743666 0.742166 0.877569 0.66972 0.63429 0.643496 0.877619 0.962594 0.726904 0.745114 1.98272 2.09527 0.767274 0.788261 1.44031 0.614601 0.638109 0.70264 0.799773 0.970583 0.767992 0.722894 0.63196 1.1728 0.580239 0.753411 0.750499 0.83677 0.841374 1.02461 1.08248 0.578468 0.746061 0.641082 0.694838 1.13941 1.06176 0.582707 0.587159 0.841705 0.683077 0.718428 0.793549 1.39954 0.708171 0.785347 0.801235 0.882285 0.945795 0.923702 0.660571 0.611818 0.728073 0.649686 0.863135 0.685547 1.50085 0.774628 0.584163 0.705337 1.18213 1.09957 1.20884
internal_weight=0 4696 140925 134416 3859 837 29458 104958 730 4178 3007 6509 23091 100780 6367 1777 1914 852 21314 17521 708 434 5659 4595 202 148 2505 2147 528 19808 7333 3339 1009 1992 2582 3486 15816 1015 80972 2361 1705 399 1536 378 296 76892 1482 797 3154 842 299 54075 38734 107 2749 1191 1310 466 3087 121 931 665 1671 221 2330 7403 1422 8413 283 1889 163 405 3994 138 543 321 125
internal_count=145621 4696 140925 134416 3859 837 29458 104958 730 4178 3007 6509 23091 100780 6367 1777 1914 852 21314 17521 708 434 5659 4595 202 148 2505 2147 528 19808 7333 3339 1009 1992 2582 3486 15816 1015 80972 2361 1705 399 1536 378 296 76892 1482 797 3154 842 299 54075 38734 107 2749 1191 1310 466 3087 121 931 665 1671 221 2330 7403 1422 8413 283 1889 163 405 3994 138 543 321 125
is_linear=0
shrinkage=1


Tree=1
num_leaves=78
num_cat=0
split_feature=1 1 15 12 0 1 0 3 1 0 1 15 13 1 0 0 9 0 15 1 0 0 0 3 0 0 0 3 15 3 0 1 1 15 0 15 3 0 15 1 15 6 17 9 23 0 12 19 3 1 15 1 0 15 1 3 1 24 13 15 3 0 2 8 17 0 0 24 0 9 9 9 6 15 2 3 12
split_gain=70464.6 16087.8 15695.6 10010.2 7326.39 4478.64 4235.29 3943.33 3479.4 2686.73 2238.04 1921.2 1799.5 1381.74 1142.16 2705.47 1055.62 987.929 820.187 718.635 715.655 1638.8 705.622 675.278 608.482 2201.88 1218.58 770.549 583.233 577.135 568.434 584.31 539.672 531.658 495.966 450.837 419.045 413.353 409.041 376.8 347.361 344.352 311.428 279.02 270.585 270.54 249.957 218.204 217.542 215.776 211.549 206.656 202.16 184.832 182.965 181.51 180.104 169.149 163.876 163.072 156.025 153.92 152.458 145.162 141.664 139.342 134.132 133.695 128.249 127.208 126.349 124.78 124.738 122.951 122.308 119.05 117.247
threshold=2.740319461670996 5.2704288588135384 1.5832034044276815 0.61053923354537987 -1.0000000180025095e-35 1.0000000180025095e-35 1.0000000180025095e-35 1.4808902504674315 6.4967738527067214 -1.0000000180025095e-35 3.9796379800581989 3.8413015407937148 0.27859157923611699 1.0000000180025095e-35 8.0500000000000025 -1.0000000180025095e-35 4.5329172104328297 -1.0000000180025095e-35 3.1525537724231225 1.0000000180025095e-35 -1.0000000180025095e-35 4.7500000000000009 6.0500000000000007 2.4782157589927709 14.250000000000002 -1.0000000180025095e-35 3.9500000000000006 1.8852312398370448 5.9318113216566877 3.270308936704756 3.1500000000000008 7.5817066510678091 1.0000000180025095e-35 10.632973943572063 4.7500000000000009 0.29125814102189385 0.32121662064169393 1.9500000000000002 4.2463387430942623 1.4978661367769959 1.0352572689301029 0.2622386862579833 30.500000000000004 1.0000000180025095e-35 1.0000000180025095e-35 1.5500000000000003 0.62631116511591034 24.500000000000004 1.1928298447820012 1.8688348091416842 4.4937351809148298 5.9161984299557089 2.2500000000000004 2.256145601486883 4.6001450180613412 2.5780228890633401 1.2424533248940004 -1.0000000180025095e-35 0.012031860394133452 0.88240875860095991 2.3916856675728795 -1.0000000180025095e-35 1.0000000180025095e-35 0.37438189850417081 23.500000000000004 8.4500000000000011 3.1500000000000008 -1.0000000180025095e-35 1.5500000000000003 6.5344363527808511 5.2683561139724562 6.5344363527808511 1.8081732670811272 2.6058342727207799 1.0000000180025095e-35 2.5780228890633401 1.1856029794384333
decision_type=2 2 2 2 2 2 2 2 2 2 2 2 2 2 2 2 2 2 2 2 2 2 2 2 2 2 2 2 2 2 2 2 2 2 2 2 2 2 2 2 2 2 2 2 2 2 2 2 2 2 2 2 2 2 2 2 2 2 2 2 2 2 2 2 2 2 2 2 2 2 2 2 2 2 2 2 2
left_child=2 4 3 5 18 12 47 13 33 -7 38 19 35 20 15 42 37 -15 44 22 74 43 23 61 25 62 27 -27 40 49 -10 -32 72 51 55 41 57 75 59 -36 54 -1 -9 45 -2 -22 -24 -3 -28 -13 -42 -8 71 -21 -12 -11 -19 -23 -46 -6 -39 -4 -14 -26 -60 -37 -53 -43 -63 -31 -25 -18 -16 -61 -5 -17 -38
right_child=1 6 11 7 10 9 8 14 30 34 28 29 24 17 32 16 52 56 -20 53 21 36 46 70 63 26 48 -29 -30 69 31 -33 -34 -35 39 65 76 60 -40 -41 50 67 -44 -45 58 -47 -48 -49 -50 -51 -52 66 -54 -55 -56 -57 -58 -59 64 73 -62 68 -64 -65 -66 -67 -68 -69 -70 -71 -72 -73 -74 -75 -76 -77 -78
leaf_value=-0.049272577694095321 -0.013259946016153969 0.077975106096388636 0.034288987651099306 -0.014764208775663352 0.30252169362909437 -0.036347348090135796 0.64373979390970082 -0.026165287034057922 0.92428578694538521 0.22775832380127273 0.4351805037970648 0.20676079249775203 -0.014066893598074691 -0.026192842832364668 0.034229409878776609 0.25676049550362079 0.48075796447531183 0.11526982895829736 0.41695047480513114 0.13302818544974479 0.2709798066569758 -0.053029705312502388 0.022597470575438663 0.27125684648666665 -0.033149739439899975 0.10885281726414034 0.011621127422447001 0.31064449213064971 0.61576628019239066 0.38745011385160238 1.2004847090951243 1.6546805028436642 0.16945031905802288 1.0051262985020493 0.085392592084958752 0.02734476193746669 0.011836794098956178 0.14346535020521997 0.40179385004647489 0.16705325812083624 0.27838978136615405 -0.054235409133644399 0.10409256472759557 0.086856104390960726 -0.03231385095145789 0.11886955686919472 0.092013505346796795 0.37205995038360384 0.069402910906976215 0.33351896254783364 0.4444395121690512 0.63810486697311242 0.35618768182652416 0.19738712234674838 0.5443240599171365 0.47854561619101271 0.19238327940656197 -0.0047500957661512329 0.050233253545027626 0.16660020459516992 0.22482914054588021 0.18924950883167468 -0.054377263754169271 -0.011445376658684968 0.32574994413862973 -0.02074245202845754 0.84126543319670288 -0.030721548423925927 0.10879175805006194 0.60320472746522813 0.46704072035643662 0.71576619941735642 0.080719572366668949 0.26685708738530867 -0.053712071827433788 0.37427122584124956 0.037737634357498377
leaf_weight=59894 683 66 194 1633 949 1655 303 529 50 196 352 696 1494 431 1440 210 66 679 53 823 193 825 1159 174 7356 651 1656 267 238 146 114 38 476 62 1761 713 3662 536 320 833 170 2821 281 1018 34 298 940 41 1075 167 141 46 91 980 276 34 549 6036 29 182 423 279 2527 5307 53 3885 117 17011 690 34 41 35 965 379 1595 148 3347
leaf_count=59894 683 66 194 1633 949 1655 303 529 50 196 352 696 1494 431 1440 210 66 679 53 823 193 825 1159 174 7356 651 1656 267 238 146 114 38 476 62 1761 713 3662 536 320 833 170 2821 281 1018 34 298 940 41 1075 167 141 46 91 980 276 34 549 6036 29 182 423 279 2527 5307 53 3885 117 17011 690 34 41 35 965 379 1595 148 3347
internal_value=0 0.381069 -0.0126978 -0.0199311 0.294863 -0.0331044 0.778508 0.0365232 0.864634 0.064817 0.368207 0.14128 -0.0372952 0.0165896 0.114208 0.16645 0.245586 0.104037 0.0359917 0.116777 0.00879208 0.0177776 0.0902017 0.145806 -0.0105909 0.0116355 0.0678813 0.167559 0.4758 0.265313 1.2177 1.31413 0.0721521 0.729533 0.124109 -0.0437343 0.00700934 0.213632 0.298999 0.111621 0.440309 -0.0454903 0.0190062 0.116746 0.0107045 0.178688 0.0536907 0.190789 0.0343707 0.231306 0.353717 0.692836 0.4647 0.168017 0.48317 0.264891 0.149756 -0.0105574 0.151922 0.277206 0.179368 0.115689 -0.0394033 -0.0240546 0.228477 -0.0132827 0.784017 -0.034067 0.131972 0.42828 0.308656 0.562333 0.0528891 0.234356 -0.0340131 0.305379 0.0242071
internal_weight=0 4696 140925 134602 3859 109136 837 25466 730 4479 3007 6323 104657 20266 5200 2319 1509 1659 852 5280 18607 15379 3477 1378 20333 7670 3649 918 1177 1043 202 152 2881 528 2824 84324 13870 1317 1830 2594 939 79726 810 1509 799 491 2099 107 2731 863 311 466 192 1803 628 230 1228 6861 116 1510 959 1163 4021 12663 82 4598 163 19832 969 180 215 101 2405 561 3228 358 7009
internal_count=145621 4696 140925 134602 3859 109136 837 25466 730 4479 3007 6323 104657 20266 5200 2319 1509 1659 852 5280 18607 15379 3477 1378 20333 7670 3649 918 1177 1043 202 152 2881 528 2824 84324 13870 1317 1830 2594 939 79726 810 1509 799 491 2099 107 2731 863 311 466 192 1803 628 230 1228 6861 116 1510 959 1163 4021 12663 82 4598 163 19832 969 180 215 101 2405 561 3228 358 7009
is_linear=0
shrinkage=0.1


Tree=2
num_leaves=78
num_cat=0
split_feature=1 1 1 12 0 0 9 15 0 0 1 9 1 0 1 15 0 0 7 15 9 15 0 0 3 8 3 15 3 0 0 15 0 1 15 1 0 0 0 0 0 3 7 23 0 15 0 1 0 2 1 17 24 7 2 24 23 0 0 0 0 0 15 15 8 1 13 1 2 15 0 0 15 3 3 17 15
split_gain=57160.8 17544.1 9520.39 8684.44 6244.76 5341.85 3834.64 2526.93 2203.02 1728.28 1659.79 1537.95 1444.59 1319.69 1273.26 1185.62 865.417 851.466 836.353 788.244 748.847 683.521 557.617 1701.31 739.626 512.659 508.732 485.938 483.327 418.085 1114.6 400.462 386.589 338.38 308.772 271.376 250.431 247.389 242.837 231.463 442.912 213.934 204.799 192.324 188.666 173.402 165.109 164.646 159.147 153.741 151.647 151.611 148.018 148.004 141.793 140.91 140.897 139.085 136.145 879.042 128.474 502.705 127.226 275.343 125.126 122.603 121.305 120.414 116.224 112.446 110.852 108.54 104.755 102.551 100.557 99.682 98.1046
threshold=3.4811217321331038 1.0000000180025095e-35 5.9532399610262798 0.75876642098421943 -1.0000000180025095e-35 -1.0000000180025095e-35 2.0415495926214109 0.99809972690998372 0.35000000000000003 5.7500000000000009 4.6774800307930642 0.63501982295290282 2.0126758453675748 5.4500000000000011 7.2345378000323413 1.2461107522739556 6.0500000000000007 -1.0000000180025095e-35 0.57954298995307363 3.507949995941217 5.2683561139724562 0.65823246301374094 11.850000000000003 -1.0000000180025095e-35 2.9530301163430019 0.25078852912496225 1.8408392542261593 5.9318113216566877 3.7365619212614463 -1.0000000180025095e-35 6.0500000000000007 8.4108768359561328 2.8500000000000001 6.4967738527067214 3.6677647713332591 0.89587973461402759 3.9500000000000006 1.9500000000000002 5.4500000000000011 -1.0000000180025095e-35 3.9500000000000006 2.9530301163430019 0.30710993713058293 1.0000000180025095e-35 2.2500000000000004 10.632973943572063 0.95000000000000007 2.0126758453675748 1.5500000000000003 1.0000000180025095e-35 5.4271478232179229 26.500000000000004 -1.0000000180025095e-35 5.4474067659947361 1.0000000180025095e-35 -1.0000000180025095e-35 1.0000000180025095e-35 -1.0000000180025095e-35 -1.0000000180025095e-35 5.7500000000000009 1.0000000180025095e-35 7.2500000000000009 0.88240875860095991 3.6677647713332591 0.36816980645660319 3.795426061844291 0.8545081949749338 7.7834237160340916 1.0000000180025095e-35 5.0601463145955732 1.2500000000000002 3.9500000000000006 3.507949995941217 3.7365619212614463 7.4226202127198526e-09 20.500000000000004 1.9761677538798594
decision_type=2 2 2 2 2 2 2 2 2 2 2 2 2 2 2 2 2 2 2 2 2 2 2 2 2 2 2 2 2 2 2 2 2 2 2 2 2 2 2 2 2 2 2 2 2 2 2 2 2 2 2 2 2 2 2 2 2 2 2 2 2 2 2 2 2 2 2 2 2 2 2 2 2 2 2 2 2
left_child=1 3 5 7 21 19 15 11 66 28 27 25 35 17 33 18 26 49 39 43 41 56 23 54 38 55 57 62 48 68 37 50 -26 45 -14 76 69 -31 -25 -5 74 -19 -27 -2 53 -10 -30 -23 75 -8 -12 -45 -42 -22 -13 -1 -3 -9 -57 -60 -44 -62 65 -64 -24 -7 -4 -16 -20 -17 -59 -35 -49 -28 -41 -6 -11
right_child=2 4 8 6 9 10 13 16 14 12 31 22 34 -15 67 36 -18 20 29 -21 44 47 64 24 32 42 73 -29 46 30 -32 -33 -34 71 -36 -37 -38 -39 -40 40 52 -43 60 51 -46 -47 -48 72 -50 -51 -52 -53 -54 -55 -56 58 -58 70 59 -61 61 -63 63 -65 -66 -67 -68 -69 -70 -71 -72 -73 -74 -75 -76 -77 -78
leaf_value=-0.050217651076831793 -0.011254425856105817 -0.037060500115722532 0.15746068752654085 -0.035301350275152056 0.37501389228654092 0.29420232859449269 0.13377266043620703 0.014941281423025888 0.71500841461118414 0.072763264109352882 0.48246637665721415 -0.00012596867411758845 0.1928136597858531 0.086670897757413698 1.1990405780053448 0.13041578063728926 0.013351590312114126 0.18929055250697549 0.016451090137405807 0.48951748609106194 0.48626268667344325 0.087882669673643291 -0.028237596747118111 0.11425470534367806 0.38117055597969129 -0.034379954239378556 0.19804052132229638 0.51604715934878387 0.67277597212141194 0.1975203170468256 0.029803985554635509 0.73493993478889641 0.14883941392153793 0.81650613849510367 0.30648100675663931 0.1296895586723017 0.072786354718899562 0.10339229990750359 0.038074730530436279 0.15508184557347193 -0.046879776509269382 0.29861199328121496 -0.03969808578966369 0.016465548629595383 0.32620317311478431 0.94915772428779166 0.39661568927217422 0.15672236482245933 0.22276243871453349 -0.032356733822557535 0.58761084775415673 0.33507815386516021 0.0022484689908073428 0.74767459700904437 -0.04891400069657189 -0.048879588680293948 0.025615936794833823 0.15991299272637344 0.074083095271319566 -0.039087240803315403 0.071288779316406495 -0.01903338514409118 0.200784149267975 0.35329143143154024 -0.0033498175034009561 0.38677728662717792 0.44047089159288655 1.4535946976085208 -0.047286663378512075 0.24443552122703682 0.07792618786673601 1.0433324350421289 0.38183981684268647 0.34309658169638518 0.060782193972897663 0.26536038594084815 0.14195857205464987
leaf_weight=20906 382 2234 31 1890 131 202 161 259 146 1788 503 1022 1897 1124 50 552 3211 348 568 38 65 173 4311 721 118 19362 183 165 30 409 5399 91 183 29 274 2579 1330 884 999 183 679 371 2242 29 45 41 80 46 677 85 191 31 6332 33 1430 12264 427 220 704 27251 658 9690 194 306 3804 504 30 31 576 103 665 85 38 67 298 231 232
leaf_count=20906 382 2234 31 1890 131 202 161 259 146 1788 503 1022 1897 1124 50 552 3211 348 568 38 65 173 4311 721 118 19362 183 165 30 409 5399 91 183 29 274 2579 1330 884 999 183 679 371 2242 29 45 41 80 46 677 85 191 31 6332 33 1430 12264 427 220 704 27251 658 9690 194 306 3804 504 30 31 576 103 665 85 38 67 298 231 232
internal_value=0 -0.00920729 0.426289 -0.0192708 0.113097 0.354194 0.0389709 -0.0305924 0.855248 0.159176 0.421364 -0.0337527 0.139926 0.163034 0.944377 0.0245502 0.0419198 0.240487 0.0161124 0.052461 0.287323 -0.0119527 -0.000945894 0.0274018 0.0953345 -0.0381894 0.107715 0.354943 0.272587 0.0402285 0.0497794 0.537352 0.239965 0.849536 0.207166 0.108183 0.0977327 0.133177 0.0700162 -0.00402829 0.00385913 0.245719 -0.0279233 0.0148549 0.496413 0.76642 0.472058 0.143775 0.251456 0.0763152 0.511424 0.181309 -0.00250756 0.57443 -0.0285846 -0.0435556 -0.026998 0.0794569 -0.0400923 -0.0362367 -0.0179927 -0.0132887 0.33289 0.294146 -0.0165728 0.360309 0.29687 1.29664 -0.0156288 0.148366 0.0983225 0.985753 0.258724 0.23697 0.0966875 0.305079 0.0807172
internal_weight=0 142542 3079 131705 10837 2636 21435 110270 443 7919 2156 105665 6770 2232 382 19203 4605 1108 17218 480 862 2918 12588 4473 2021 93077 1394 1371 1149 7836 6692 785 301 301 2171 4599 1985 1293 1720 9382 7492 719 31952 442 143 187 110 257 1039 246 694 60 7011 98 2452 61125 2661 1144 40219 27955 12590 10348 1206 500 8115 706 61 81 1144 655 885 114 84 250 481 362 2020
internal_count=145621 142542 3079 131705 10837 2636 21435 110270 443 7919 2156 105665 6770 2232 382 19203 4605 1108 17218 480 862 2918 12588 4473 2021 93077 1394 1371 1149 7836 6692 785 301 301 2171 4599 1985 1293 1720 9382 7492 719 31952 442 143 187 110 257 1039 246 694 60 7011 98 2452 61125 2661 1144 40219 27955 12590 10348 1206 500 8115 706 61 81 1144 655 885 114 84 250 481 362 2020
is_linear=0
shrinkage=0.1


Tree=3
num_leaves=78
num_cat=0
split_feature=1 1 15 12 0 0 3 1 1 0 1 3 1 3 0 0 9 0 7 15 1 0 0 1 0 15 15 0 0 0 0 1 0 15 15 0 0 9 19 3 0 24 19 21 0 1 0 0 0 0 0 15 15 13 24 1 15 9 9 15 1 3 1 12 0 9 3 3 3 9 25 0 24 3 0 0 6
split_gain=46455.4 10548.6 10511.9 6961.56 4704.78 3011.36 2972.56 2815.21 2299.87 1666.72 1379.55 1132.49 1073.51 1024.42 905.244 1845.91 848.022 665.883 526.833 522.723 514.259 472.122 459.525 452.377 430.787 405.279 396.515 348.284 347.622 2441.52 418.541 346.728 313.448 312.211 279.064 256.792 664.163 264.832 250.018 234.808 226.668 222.562 220.197 225.41 218.602 218.274 198.749 185.467 410.259 184.607 1061.47 181.004 218.621 176.346 190.907 161.032 160.457 160.06 155.107 146.978 140.142 129.61 120.411 119.99 119.684 116.826 116.648 114.203 144.305 114.179 128.877 113.114 110.705 110.581 110.423 109.148 108.052
threshold=2.740319461670996 5.2390944889447963 1.8407118627625143 0.47414846763573731 -1.0000000180025095e-35 -1.0000000180025095e-35 1.419787733016314 1.0000000180025095e-35 6.5971447712879145 -1.0000000180025095e-35 3.9219243190762363 0.78965771545226959 1.0000000180025095e-35 2.6887820250547763 9.6500000000000004 -1.0000000180025095e-35 4.5329172104328297 -1.0000000180025095e-35 0.42480138223991665 2.949315432662976 0.89587973461402759 3.9500000000000006 3.1500000000000008 1.0000000180025095e-35 2.5500000000000003 10.632973943572063 6.5155995616621984 4.7500000000000009 -1.0000000180025095e-35 7.2500000000000009 2.2500000000000004 7.5817066510678091 7.6500000000000012 0.31342492194024185 4.7519897188863043 -1.0000000180025095e-35 5.0500000000000007 5.1413658302633275e-08 26.500000000000004 4.4366811128565429 3.1500000000000008 -1.0000000180025095e-35 29.500000000000004 -1.0000000180025095e-35 -1.0000000180025095e-35 1.2424533248940004 11.450000000000001 -1.0000000180025095e-35 10.450000000000001 -1.0000000180025095e-35 9.6500000000000004 1.0352572689301029 4.4937351809148298 0.013492642111169352 1.0000000180025095e-35 5.9851941429858151 3.6677647713332591 0.80248051886524008 6.5344363527808511 3.6677647713332591 1.4978661367769959 2.5780228890633401 4.6001450180613412 1.2421549394751497 8.4500000000000011 6.5344363527808511 1.0000000180025095e-35 7.4226202127198526e-09 0.86569985298606766 0.006728973074633081 -6.4999999999999991 -1.0000000180025095e-35 -1.0000000180025095e-35 2.9530301163430019 10.950000000000001 3.1500000000000008 1.8081732670811272
decision_type=2 2 2 2 2 2 2 2 2 2 2 2 2 2 2 2 2 2 2 2 2 2 2 2 2 2 2 2 2 2 2 2 2 2 2 2 2 2 2 2 2 2 2 2 2 2 2 2 2 2 2 2 2 2 2 2 2 2 2 2 2 2 2 2 2 2 2 2 2 2 2 2 2 2 2 2 2
left_child=2 4 3 7 19 53 12 11 25 -9 34 33 18 20 15 38 24 -14 47 42 27 44 -10 76 57 55 51 59 -13 30 39 -24 61 41 64 -20 37 -37 -8 -30 65 -1 -2 69 -15 -34 -31 -5 66 -43 -51 62 -53 -3 -55 -7 -22 -17 -46 71 -19 -11 -12 -29 -6 -18 -49 -61 -69 -44 -71 -4 -50 -32 -38 -57 -16
right_child=1 5 13 6 10 8 14 9 22 32 26 28 17 21 23 16 40 60 35 -21 56 -23 31 -25 -26 -27 -28 63 29 46 73 -33 45 -35 -36 36 74 -39 -40 -41 -42 49 43 -45 58 -47 -48 48 72 50 -52 52 -54 54 -56 75 -58 -59 -60 67 -62 -63 -64 -65 -66 -67 -68 68 -70 70 -72 -73 -74 -75 -76 -77 -78
leaf_value=-0.045387698736498838 -0.024258993311924139 -0.035877258534236477 0.032447418351490724 -0.035787776356921611 0.28202276751466099 0.52899361775986498 -0.032003177306846757 -0.030380042525187296 0.73824144695733951 0.16561853742691549 0.35122499111415861 -0.033511233079663159 -0.021148913419602271 0.16373277692374966 0.022042917932191434 0.45144512792058755 0.38089357237703408 0.093528122003922187 -0.017020130944647997 0.32789942428397512 0.14842203118573796 0.16395782995897784 0.99651583674324307 0.13410275701661803 0.12661587657138523 0.8236986136196851 0.51267918199985107 0.048347293629404348 0.20284424383058952 0.039467633011205788 0.087049425634847619 1.3539043665231503 0.060549840566478955 -0.011817231313575248 0.34767096951179527 0.19876474773384178 0.044561406559107869 0.075897237337994861 0.071429748912768043 0.48054839518038439 0.23345193200499181 -0.043047777165405199 -0.027734323030200621 0.35300523228401687 0.34301936360445429 0.12086293385236946 -0.016797649410910158 0.081985836650798005 -0.043910296837145403 0.039763587384705902 -0.033923394014300362 0.22201015888405595 0.37306387028120053 0.070040131192390387 0.40627440775821344 0.51829509876215984 0.23365072086954886 0.22054856661261463 0.57839466203627932 0.26825469944998898 0.15919254207393033 0.35112502512531546 0.43908220283474542 0.10802198700890529 0.21165280093527872 0.57506829668810255 0.023371460867792005 0.077633119275563767 0.20498312694643533 0 0.22303139061322841 0.12452369370178017 -0.0083810363350907361 0.19687663665711211 0.011973872530612785 0.71168183560818665 0.063058512061225452
leaf_weight=23122 565 40 167 2261 302 361 519 1609 49 269 394 3621 470 63 1820 32 98 964 1515 55 971 341 98 572 1165 69 187 1340 299 669 790 38 1453 5200 213 221 1241 855 425 34 81 15598 91 29 236 1024 10165 533 1004 2056 39694 187 198 36 32 42 287 519 32 105 492 44 262 451 1242 46 938 158 205 46 59 672 6950 104 6431 101 994
leaf_count=23122 565 40 167 2261 302 361 519 1609 49 269 394 3621 470 63 1820 32 98 964 1515 55 971 341 98 572 1165 69 187 1340 299 669 790 38 1453 5200 213 221 1241 855 425 34 81 15598 91 29 236 1024 10165 533 1004 2056 39694 187 198 36 32 42 287 519 32 105 492 44 262 451 1242 46 938 158 205 46 59 672 6950 104 6431 101 994
internal_value=0 0.309412 -0.0103092 -0.0155627 0.238139 0.624613 0.0268283 -0.027647 0.695006 0.0506682 0.297109 -0.0310463 0.0107342 0.131679 0.0880994 0.129264 0.185048 0.0823177 0.00445226 0.0298089 0.113944 0.246618 1.00167 0.0530219 0.161099 0.595971 0.378445 0.0920393 -0.00633851 0.00181826 0.135513 1.09648 0.0974137 -0.0355689 0.240253 0.0209847 0.027568 0.101146 0.0145492 0.23124 0.367634 -0.0371036 0.00903849 0.0927123 0.331733 0.085489 -0.013322 -0.0100658 -0.00389387 -0.0337633 -0.0302943 0.354319 0.29973 0.130438 0.228469 0.564767 0.167877 0.233983 0.371175 0.131299 0.115726 0.19174 0.386335 0.0633818 0.225426 0.443017 0.0446189 0.176243 0.14959 0.0541298 0.125208 0.106212 -0.0128675 0.099841 0.0172469 0.654979 0.0365358
internal_weight=0 4696 140925 135897 3830 866 30146 105751 758 4399 2985 101352 23875 5028 6271 2885 1941 1926 21949 845 4356 672 185 3386 1716 573 1228 3098 15682 12061 1227 136 2790 85670 1757 10263 8748 1076 944 333 225 80470 790 225 331 2477 10834 11686 9425 57348 41750 1041 385 108 68 504 1258 551 268 1307 1456 313 656 1791 1544 144 1471 468 363 196 105 839 7954 894 7672 143 2814
internal_count=145621 4696 140925 135897 3830 866 30146 105751 758 4399 2985 101352 23875 5028 6271 2885 1941 1926 21949 845 4356 672 185 3386 1716 573 1228 3098 15682 12061 1227 136 2790 85670 1757 10263 8748 1076 944 333 225 80470 790 225 331 2477 10834 11686 9425 57348 41750 1041 385 108 68 504 1258 551 268 1307 1456 313 656 1791 1544 144 1471 468 363 196 105 839 7954 894 7672 143 2814
is_linear=0
shrinkage=0.1


Tree=4
num_leaves=78
num_cat=0
split_feature=1 1 1 6 0 0 13 0 15 1 1 0 0 3 13 15 1 0 15 3 0 15 3 15 0 9 9 3 0 0 15 0 0 15 1 9 0 6 0 0 0 15 15 15 0 17 18 0 12 15 14 17 0 15 2 6 0 24 0 1 15 1 15 3 1 1 6 0 0 17 19 15 7 15 15 20 0
split_gain=37735.5 9389.78 7653.72 5843.64 4050.83 3503.36 2983.38 1941.18 1384.77 1322.59 1213.35 1186.07 1091.33 884.011 825.406 716.969 649.722 543.465 530.399 463.963 440.372 431.947 372.026 369.333 349.619 330.444 309.971 302.332 293.179 613.129 259.165 252.025 566.823 235.594 234.138 233.437 200.077 197.075 189.865 571.525 238.888 185.195 172.951 214.625 171.944 170.542 209.927 165.6 154.169 152.802 147.285 145.228 144.577 144.126 133.457 132.829 131.631 122.08 119.529 114.167 112.836 112.396 105.98 103.545 100.283 100.228 99.8998 98.8739 537.492 96.3096 95.1447 93.6933 91.4159 83.9492 131.976 81.9478 81.4399
threshold=3.0201273556387074 1.0000000180025095e-35 5.688667405331941 0.89288574327002024 -1.0000000180025095e-35 -1.0000000180025095e-35 1.329520525596001 0.35000000000000003 0.90400635106138449 4.2696729980286863 6.6763818671485859 4.3500000000000005 6.0500000000000007 3.4787378507281477 0.15701017768110162 1.2461107522739556 1.4978661367769959 8.0500000000000025 3.1525537724231225 0.77934227215768015 -1.0000000180025095e-35 0.44914812435781554 2.5780228890633401 7.2568109614492595 -1.0000000180025095e-35 1.7819296886161424 6.5344363527808511 1.8408392542261593 9.6500000000000004 -1.0000000180025095e-35 4.4937351809148298 -1.0000000180025095e-35 10.450000000000001 10.632973943572063 7.7834237160340916 5.2683561139724562 1.5500000000000003 0.2622386862579833 12.250000000000002 -1.0000000180025095e-35 2.2500000000000004 3.373971426029875 1.7618923879752495 5.0601463145955732 1.5500000000000003 27.500000000000004 1.5000000000000002 0.95000000000000007 0.91265214212945289 2.6058342727207799 0.19166880709298853 21.500000000000004 1.2500000000000002 0.99809972690998372 1.0000000180025095e-35 1.4140886386884863 7.6500000000000012 -1.0000000180025095e-35 2.5500000000000003 5.0968083143154814 3.507949995941217 2.0126758453675748 3.507949995941217 0.23332312759351501 3.795426061844291 6.441743353550561 1.8081732670811272 -1.0000000180025095e-35 8.8500000000000032 34.500000000000007 30.500000000000004 2.6861630582296439 1.5452799436526818 4.034105575801826 8.4108768359561328 1.5000000000000002 -1.0000000180025095e-35
decision_type=2 2 2 2 2 2 2 2 2 2 2 2 2 2 2 2 2 2 2 2 2 2 2 2 2 2 2 2 2 2 2 2 2 2 2 2 2 2 2 2 2 2 2 2 2 2 2 2 2 2 2 2 2 2 2 2 2 2 2 2 2 2 2 2 2 2 2 2 2 2 2 2 2 2 2 2 2
left_child=1 3 4 8 18 21 15 65 14 30 33 22 13 20 37 19 55 27 45 31 69 70 -7 42 54 50 58 60 29 -27 53 -5 36 73 56 -31 -33 -1 39 -21 -41 -18 59 -44 51 -2 48 -24 -47 -17 67 -22 -28 64 -15 -13 -12 -34 -26 -11 76 -23 -29 -39 -6 -4 -14 -16 -69 -8 -3 -55 -58 -9 -75 -40 -10
right_child=2 5 7 6 9 11 12 10 17 23 34 16 66 24 25 49 41 -19 -20 38 44 61 47 -25 26 28 52 62 -30 35 -32 32 57 -35 -36 -37 -38 63 75 40 -42 -43 43 -45 -46 46 -48 -49 -50 -51 -52 -53 -54 71 -56 -57 72 -59 -60 -61 -62 -63 -64 -65 -66 -67 -68 68 -70 -71 -72 -73 -74 74 -76 -77 -78
leaf_value=-0.036516386087325929 -0.026806905935919657 -0.039082046933280289 0.096476327044253185 -0.029564743747051966 0.22663325135502965 0.19776471521645581 -0.0038916335799448081 0.60695885864214372 -0.0047108979895104444 0.3628860566582216 0.74609753679860213 0.068263352602674798 0.036659678362014884 0.18201579343430369 -0.036268646465501854 0.052068829660360819 0.13424368993211044 0.0031856599114634047 0.35161429491949758 -0.010907618768447123 0.28488305948382381 0.071239347352356638 0.51454354653449963 0.52680215690229149 0.3254982972565485 -0.010442311875800553 0.64832378176125649 0.14295025121634347 -0.0068104086898408758 0.12303169240847023 0.32912861822403561 0.12514864527735206 -0.04036464603561643 0.77825044576810054 1.1887362874342731 0.38756607474866467 0.038358879606872301 -0.029604344254096152 0.029514106436983469 0.18910370275734867 0.076401372870740558 0.21724903727102396 0.20471195648852844 0.37307542261375343 0.12206519497003675 0.10415117292205044 0.0096479691187071545 0.29976609912639518 0.38835399242067148 0.11451162843026573 -0.0030409109042263713 0.15502386449561373 0.35942480181948966 0.11441780063717991 -0.068114822251008428 0.1132718422078008 0.84317506138717513 -0.0028165596360100751 0.20868275987100518 0.45595855252986672 0.1374608905851985 0.22190897123304262 0.30305057075160202 -0.013349536568904556 0.29790954220487464 0.31878933997930115 0.078232610357178295 0.050238455830349839 -0.023800468177378079 0.10760879649993318 0.0035004174758698119 0.21135289191686102 1.0553388838588336 0.38416857277142374 0.62015459205394907 -0.0030971313848446799 0.05980434612679545
leaf_weight=58136 430 1648 47 2901 567 683 287 167 250 379 47 2779 1274 60 3541 1322 2426 3129 49 804 142 177 50 164 183 556 34 192 1512 465 306 317 961 64 31 36 1646 12943 1877 230 1038 303 130 183 758 53 154 130 30 558 5913 221 36 140 33 860 39 8763 170 205 152 69 53 5626 306 36 1061 1075 11144 106 769 353 45 54 43 1306 894
leaf_count=58136 430 1648 47 2901 567 683 287 167 250 379 47 2779 1274 60 3541 1322 2426 3129 49 804 142 177 50 164 183 556 34 192 1512 465 306 317 961 64 31 36 1646 12943 1877 230 1038 303 130 183 758 53 154 130 30 558 5913 221 36 140 33 860 39 8763 170 205 152 69 53 5626 306 36 1061 1075 11144 106 769 353 45 54 43 1306 894
internal_value=0 -0.00857787 0.302047 -0.015636 0.245813 0.0853754 0.0267463 0.640504 -0.0261048 0.301284 0.716266 0.121487 0.102187 0.155817 -0.0285677 0.0115868 0.106574 0.0271303 0.0340586 0.00599406 0.117276 -0.012675 0.231515 0.388634 0.268874 -0.012482 0.307484 0.075741 0.0214268 0.0618319 0.245847 -0.00318264 0.00336488 0.605559 0.940329 0.142068 0.0523813 -0.0336512 0.0314714 0.0550332 0.096855 0.143465 0.363358 0.303192 0.149212 0.0107094 0.0788342 0.359503 0.20704 0.0706096 -0.016502 0.20586 0.499944 0.22718 0.0931141 0.0789039 0.881439 -0.00652874 0.26928 0.395581 0.0564672 0.113556 0.17764 -0.0246802 0.251632 0.193066 0.0555558 -0.0215516 -0.0172856 0.0261479 -0.0255283 0.183853 0.957 0.563642 0.488923 0.0161293 0.0456939
internal_weight=0 141599 4022 131705 3449 9894 26088 573 105617 2733 490 7231 4365 2030 100947 21723 6368 4670 716 19843 1514 2663 863 1061 516 24242 423 1541 2569 1057 1672 14588 11687 328 162 501 1963 76705 5255 2072 1268 2729 897 313 1121 667 237 180 83 1880 21673 363 70 1366 93 3639 131 9724 353 584 1296 246 245 18569 873 83 2335 15760 12219 393 2417 493 84 264 97 3183 1144
internal_count=145621 141599 4022 131705 3449 9894 26088 573 105617 2733 490 7231 4365 2030 100947 21723 6368 4670 716 19843 1514 2663 863 1061 516 24242 423 1541 2569 1057 1672 14588 11687 328 162 501 1963 76705 5255 2072 1268 2729 897 313 1121 667 237 180 83 1880 21673 363 70 1366 93 3639 131 9724 353 584 1296 246 245 18569 873 83 2335 15760 12219 393 2417 493 84 264 97 3183 1144
is_linear=0
shrinkage=0.1


Tree=5
num_leaves=78
num_cat=0
split_feature=1 1 3 0 15 0 6 1 12 1 15 9 1 0 15 1 0 0 1 15 15 3 15 0 0 0 0 1 0 0 0 7 15 15 24 19 0 0 0 0 0 9 3 1 13 17 3 9 3 1 3 3 14 17 23 0 0 9 15 15 8 15 1 0 0 15 2 1 3 18 19 0 0 0 6 19 3
split_gain=30664.5 8207.2 6390.04 3414.26 2556.89 2317.09 2242.1 1863.36 1618.09 1055.96 1042.06 686.68 613.487 534.856 522.42 475.568 464.481 2167.42 471.819 461.228 458.944 445.971 352.329 346.178 647.271 324.566 323.234 295.625 291.872 272.276 411.584 265.943 252.805 244.144 221.582 195.115 182.652 181.269 180.569 1033.4 278.389 175.727 173.513 168.287 164.837 175.208 157.543 156.457 160.156 152.992 145.979 144.615 222.848 140.484 139.386 130.982 179.816 130.655 126.188 143.888 126.042 125.968 157.296 124.633 119.068 118.335 116.852 114.888 113.855 113.554 112.461 111.925 108.805 267.508 106.313 91.4 88.6458
threshold=2.2499048351651334 5.0139575654555912 1.1698515100890565 -1.0000000180025095e-35 0.99809972690998372 -1.0000000180025095e-35 1.5476919999680374 6.4746617065281837 0.35596940123451865 3.7726948748059117 2.0267061279957539 3.6312429410075335 1.0000000180025095e-35 -1.0000000180025095e-35 2.0802897715136806 1.0000000180025095e-35 -1.0000000180025095e-35 5.4500000000000011 1.0000000180025095e-35 2.6058342727207799 2.6861630582296439 5.1075930844088093 8.4108768359561328 -1.0000000180025095e-35 5.4500000000000011 3.1500000000000008 -1.0000000180025095e-35 7.4477485632545939 11.450000000000001 4.7500000000000009 -1.0000000180025095e-35 0.3900539953996463 5.9318113216566877 4.7519897188863043 -1.0000000180025095e-35 24.500000000000004 2.5500000000000003 1.9500000000000002 -1.0000000180025095e-35 5.0500000000000007 14.750000000000002 6.5344363527808511 1.0000000180025095e-35 1.0000000180025095e-35 0.028588796232218879 23.500000000000004 4.0257991482450821 0.83777332770219892 2.1073909578547076 1.0000000180025095e-35 3.7227117943805047e-06 1.0000000180025095e-35 2.2018289969339357 30.500000000000004 -1.0000000180025095e-35 -1.0000000180025095e-35 7.6500000000000012 1.1224704224087068 1.0352572689301029 3.6677647713332591 0.61474054094274388 2.2023713166725165 5.6039604435878507 5.7500000000000009 6.4500000000000011 5.4525376903593967 1.0000000180025095e-35 1.0000000180025095e-35 2.5780228890633401 1.0000000180025095e-35 25.500000000000004 2.2500000000000004 -1.0000000180025095e-35 5.4500000000000011 2.6894315268165712 27.500000000000004 0.40365088162029961
decision_type=2 2 2 2 2 2 2 2 2 2 2 2 2 2 2 2 2 2 2 2 2 2 2 2 2 2 2 2 2 2 2 2 2 2 2 2 2 2 2 2 2 2 2 2 2 2 2 2 2 2 2 2 2 2 2 2 2 2 2 2 2 2 2 2 2 2 2 2 2 2 2 2 2 2 2 2 2
left_child=2 3 4 20 8 35 10 22 12 33 16 19 34 -14 67 31 53 21 28 23 44 37 61 70 47 -9 -17 -27 -19 30 75 69 58 64 -1 -3 46 57 -36 50 -41 -32 71 76 -2 -46 -12 -25 -49 -26 -40 52 -33 -4 -47 -53 -57 -18 -11 -60 -30 62 -7 -54 68 -63 -55 -6 -5 -10 -8 -16 -71 -74 -43 -13 -44
right_child=1 5 6 9 14 7 11 25 15 32 36 29 13 -15 42 26 17 18 -20 -21 -22 -23 -24 24 49 27 -28 -29 60 -31 41 51 -34 -35 38 -37 -38 -39 39 40 -42 74 43 -45 45 54 -48 48 -50 -51 -52 55 63 66 -56 56 -58 -59 59 -61 -62 65 -64 -65 -66 -67 -68 -69 -70 72 -72 -73 73 -75 -76 -77 -78
leaf_value=-0.03735141213937869 -0.039459735567371618 0.0061207703207104445 -0.034015483872774289 0.19137875093816392 0.014556580947050852 0.39396991508709134 -0.035164510016448706 0.58255896981500155 -0.038001531973054524 0.29450839792259803 0.159336892762307 -0.0093534658747105991 -0.030017681255845766 0.066413818568736419 0.19629539616871605 -0.016707287074836586 0.34639460550357626 0.050362732555008685 0.079697728115188632 0.18482558956868755 0.25047913839224506 0.38579100120454268 0.59457451854730026 0.30617557742599305 0.051136143275284811 0.77972836458973083 0.090595001263511776 1.0864839255270924 -0.01476616878271772 0.1151667850540018 0.26768185620209917 0.02984837627926705 0.3879268953597701 0.27471481494651884 -0.035059572896816049 0.26431676886171634 0.09770901961459294 0.10980382785370646 0.13110664047865028 0.0030160705514834371 -0.027409732844706367 0.32495629937684062 0.012725904318004928 0.11374831654933154 -0.014435526686781306 0.042581405590912877 0.35090374126215473 0.10317120926233368 0.19486447542686083 0.11689296305762963 0.049331401802174768 -0.020102076874096264 0.25206468205828009 0.044216717782627764 0.19941392350188605 0.047782102426054851 0.0057817239542839712 0.17155968131933541 0.13550165217143237 0.2660582982411509 0.01186952678960123 0.18645204808319368 0.52136900792685903 0.0091819260905411145 0.15606276189639656 0.39030003512209738 -0.027304492506034825 0.053534550949412001 0.33294559053465239 -0.0282026589737637 0.058020748270726889 0.094999090931648655 0.055765706601697357 -0.0083395276906158017 0.59274249917313282 0.16819364234705766 0.069009794556065707
leaf_weight=23804 542 92 1950 310 3642 226 328 55 1440 665 230 55 1047 1276 189 397 50 1135 889 431 78 77 143 71 2078 113 957 44 4436 267 245 552 213 229 16457 43 600 774 289 3234 42738 30 470 543 281 151 53 368 397 427 897 1483 79 527 91 1208 6535 303 128 251 2963 37 172 29 1902 128 403 955 70 2175 214 260 707 8208 30 61 694
leaf_count=23804 542 92 1950 310 3642 226 328 55 1440 665 230 55 1047 1276 189 397 50 1135 889 431 78 77 143 71 2078 113 957 44 4436 267 245 552 213 229 16457 43 600 774 289 3234 42738 30 470 543 281 151 53 368 397 427 897 1483 79 527 91 1208 6535 303 128 251 2963 37 172 29 1902 128 403 955 70 2175 214 260 707 8208 30 61 694
internal_value=0 0.222061 -0.00948124 0.167737 -0.0180707 0.475405 0.0437881 0.532294 -0.0216272 0.21366 0.0237395 0.101462 -0.0277719 0.0229453 0.041709 0.00157095 0.0168579 0.0265121 0.0103675 0.08666 0.0163346 0.152855 0.454177 0.0757605 0.0877867 0.792373 0.0591234 0.865787 0.00314371 0.194257 0.244385 -0.0019048 0.288498 0.176191 -0.0291197 0.0884619 0.12899 0.136928 -0.0260393 -0.0228912 -0.0252691 0.305379 0.0823253 0.0677601 -0.00080138 0.0392355 0.195262 0.163988 0.150774 0.0623504 0.0692695 0.010357 0.0555801 -0.018761 0.101612 0.00712042 0.012336 0.196363 0.268199 0.222001 -0.00409782 0.418492 0.449061 0.186972 0.166298 0.344671 0.0132096 0.022657 0.217493 -0.0115803 0.0016032 0.137669 -0.00814836 -0.00325417 0.459078 0.0838952 0.0462951
internal_weight=0 5964 139657 4911 120265 1053 19392 918 113512 3768 14390 5002 89742 2323 6753 23770 13507 10627 9423 4314 1143 1204 706 3883 3341 212 1354 157 8534 688 421 22416 1257 2511 87419 135 883 1127 63615 47158 45972 305 2156 1707 1065 523 283 836 765 2505 1186 9886 660 2880 242 9226 7743 353 1044 379 7399 563 398 108 2282 165 930 4597 380 12530 542 449 11090 8915 60 116 1164
internal_count=145621 5964 139657 4911 120265 1053 19392 918 113512 3768 14390 5002 89742 2323 6753 23770 13507 10627 9423 4314 1143 1204 706 3883 3341 212 1354 157 8534 688 421 22416 1257 2511 87419 135 883 1127 63615 47158 45972 305 2156 1707 1065 523 283 836 765 2505 1186 9886 660 2880 242 9226 7743 353 1044 379 7399 563 398 108 2282 165 930 4597 380 12530 542 449 11090 8915 60 116 1164
is_linear=0
shrinkage=0.1


Tree=6
num_leaves=78
num_cat=0
split_feature=1 15 1 8 0 9 1 1 1 0 0 15 0 1 0 0 3 13 15 12 3 0 0 1 0 15 15 3 0 17 3 1 7 13 15 0 0 0 0 3 13 17 15 15 3 17 23 1 1 15 3 0 3 1 0 0 0 15 0 15 0 0 0 9 1 3 9 0 14 1 12 3 3 9 12 15 0
split_gain=24891 6441.18 4888.74 4113.16 2863.62 1978.95 1238.34 1046.73 966.278 957.666 740.805 716.547 670.745 598.563 478.52 823.981 628.72 454.23 416.283 382.015 288.61 284.002 487.479 258.285 251.879 247.975 222.328 215.583 202.708 198.701 190.415 178.263 162.506 154.283 152.7 151.544 149.692 601.631 539.125 215.587 142.219 167.451 140.237 140.115 135.188 135.18 133.827 126.613 125.873 125.33 125.23 123.401 122.936 121.311 120.434 119.663 165.407 99.6732 99.0687 93.3847 111.95 91.8297 234.178 89.7004 89.2293 87.4442 86.5758 80.2291 80.1908 79.7038 79.471 76.3115 93.4274 72.9733 70.5704 68.6168 67.9553
threshold=3.1132683346437333 1.8407118627625143 5.9532399610262798 0.66212158900478113 -1.0000000180025095e-35 1.3780596838376948 1.0000000180025095e-35 4.5798392285869785 1.0000000180025095e-35 0.65000000000000002 -1.0000000180025095e-35 3.8413015407937148 -1.0000000180025095e-35 7.081284000827794 8.8500000000000032 -1.0000000180025095e-35 3.7365619212614463 0.097812166035275067 3.507949995941217 1.3306222330085189 1.1282524311118156 -1.0000000180025095e-35 5.4500000000000011 0.89587973461402759 3.1500000000000008 5.4525376903593967 7.2568109614492595 4.0257991482450821 5.7500000000000009 25.500000000000004 0.34372122354995321 1.0000000180025095e-35 2.1042945613180066 0.75491823719802265 0.11513144111466386 6.8500000000000005 16.550000000000004 -1.0000000180025095e-35 3.1500000000000008 1.5844706556206478 0.028588796232218879 23.500000000000004 1.7618923879752495 10.632973943572063 2.1073909578547076 35.500000000000007 1.0000000180025095e-35 1.4978661367769959 1.700598690831078 6.5155995616621984 0.77934227215768015 1.9500000000000002 1.0000000180025095e-35 1.4978661367769959 1.9500000000000002 3.5500000000000003 -1.0000000180025095e-35 3.6677647713332591 5.4500000000000011 4.034105575801826 3.1500000000000008 -1.0000000180025095e-35 8.0500000000000025 4.5329172104328297 5.4271478232179229 0.43064325515975677 6.5344363527808511 11.850000000000003 1.6462578793285176 0.89587973461402759 0.049892118557695757 1.8408392542261593 8.3018955245808289e-12 0.85780213041103315 1.6865900146977784 0.90400635106138449 18.450000000000003
decision_type=2 2 2 2 2 2 2 2 2 2 2 2 2 2 2 2 2 2 2 2 2 2 2 2 2 2 2 2 2 2 2 2 2 2 2 2 2 2 2 2 2 2 2 2 2 2 2 2 2 2 2 2 2 2 2 2 2 2 2 2 2 2 2 2 2 2 2 2 2 2 2 2 2 2 2 2 2
left_child=1 3 4 6 18 8 17 25 19 33 -8 20 -10 43 15 29 44 34 40 30 31 -21 32 68 66 45 42 48 -14 -7 52 67 -23 -4 70 -12 37 -19 39 -39 -2 -42 64 59 -17 51 -43 -37 71 -29 -40 -6 76 -30 -46 56 -22 -44 -15 60 -11 -32 -63 73 -9 -24 -18 -3 -16 -57 -1 72 -13 -58 -53 -55 -5
right_child=2 11 9 5 7 14 10 26 12 13 35 27 28 58 23 16 24 36 -20 21 55 22 65 -25 -26 -27 -28 49 53 -31 61 -33 -34 -35 -36 47 -38 38 50 -41 41 46 57 -45 54 -47 -48 -49 -50 -51 -52 74 -54 75 -56 69 63 -59 -60 -61 -62 62 -64 -65 -66 -67 -68 -69 -70 -71 -72 -73 -74 -75 -76 -77 -78
leaf_value=-0.030954425908695987 -0.044418785087471747 0.059200185858859437 0.057257173696999321 0.018576884999413883 0.29570496747014652 -0.019607681342739224 -0.023133221647746977 0.32598289456387219 -0.014393002473432066 0.39660690938813609 0.14496940428451877 0.18709139579038994 0.17061643849931518 0.69582026631302873 0.022869133777173468 0.073501459286020074 0.28164931598798654 -0.025985468572267235 0.3204177357059772 -0.018837460155154955 0.05349840892422552 0.080505254019380357 0.0042348265497572082 0.11828472008649767 0.16004013882827506 0.31194408049223188 0.44810762981513119 0.23320651397988434 0.056938690384537631 0.073413362048679001 -0.019094857734464742 0.09429774889189331 0.24138923007511937 0.356724194591719 -0.010670988369912763 0.044013015076728966 -0.018405420320824119 0.068397819277189811 -0.0079282863829812211 0.18894711757193386 -0.013750756410696792 0.072741023323489779 0.084991646941659893 0.66757951813799465 0.20286128169890683 0.30001936243994659 0.28836073404846924 0.096881160723247539 0.20937405228395722 0.46035819683542956 0.028504085490736516 0.17185484084233882 -0.02090492565955647 0.11948985713427501 0.11247396062751747 0.079012202401836706 0.32142018105775477 0.28188149092947085 0.91325320410391686 0.39612965542843109 0.60159387133063702 0.055574814105866122 0.0024756380902345746 0.33894272811643306 0.4244626143160532 0.030130624388555707 0.42768774082334765 0.013172757060625848 0.063614779348614453 0.13148393978660677 -0.022017881927571689 0.18494517871938854 0.088593003568558037 0.15804269285825012 0.22777524279882472 0.03968258652699691 -0.013765346033597695
leaf_weight=52877 299 872 31 1439 106 502 1378 355 871 36 238 128 268 32 2091 662 181 5165 45 1501 109 1022 2677 401 192 226 174 87 1155 423 1403 949 67 39 4737 1436 15968 526 2056 207 182 111 30 77 196 125 39 663 310 34 1743 1092 8173 699 602 791 31 189 65 55 108 939 7198 39 126 2545 53 671 629 459 12273 205 394 245 287 128 1184
leaf_count=52877 299 872 31 1439 106 502 1378 355 871 36 238 128 268 32 2091 662 181 5165 45 1501 109 1022 2677 401 192 226 174 87 1155 423 1403 949 67 39 4737 1436 15968 526 2056 207 182 111 30 77 196 125 39 663 310 34 1743 1092 8173 699 602 791 31 189 65 55 108 939 7198 39 126 2545 53 671 629 459 12273 205 394 245 287 128 1184
internal_value=0 -0.00679203 0.251591 -0.0110019 0.210714 0.0173573 -0.0216299 0.256645 0.00731107 0.564 0.0350131 0.101116 0.0601035 0.627714 0.0703113 0.100242 0.13816 -0.0238323 0.0265614 0.00145705 0.0817675 0.0202535 0.0295531 0.0433491 0.245073 0.213746 0.346747 0.17071 0.088948 0.022916 -0.00576289 0.0601835 0.0904161 0.224298 -0.0280106 0.0693046 -0.0124538 -0.00265199 0.0239376 0.10246 0.00558326 0.050656 0.321532 0.552471 0.106956 0.199953 0.128893 0.0607187 0.155944 0.297148 0.0087835 0.191521 -0.0148594 0.0778981 0.134691 0.11389 0.159848 0.254972 0.841666 0.507862 0.550443 0.0045298 0.00860489 0.196605 0.351809 0.016858 0.314785 0.0391932 0.0322966 0.0982907 -0.0292712 0.133142 0.112772 0.176443 0.183503 0.107154 0.00397271
internal_weight=0 141792 3829 136468 3386 37201 99267 2710 31269 443 3715 5324 3121 373 5932 2811 1886 95552 676 28148 4166 7812 6311 3121 426 1836 874 1158 2250 925 20336 2492 1089 70 69887 2337 25665 9697 4532 733 631 332 700 276 1460 1610 150 2099 1037 121 3799 1485 10796 1982 798 1674 424 219 97 199 144 9540 8137 315 481 5222 234 1543 2720 1250 65150 727 522 276 1379 827 2623
internal_count=145621 141792 3829 136468 3386 37201 99267 2710 31269 443 3715 5324 3121 373 5932 2811 1886 95552 676 28148 4166 7812 6311 3121 426 1836 874 1158 2250 925 20336 2492 1089 70 69887 2337 25665 9697 4532 733 631 332 700 276 1460 1610 150 2099 1037 121 3799 1485 10796 1982 798 1674 424 219 97 199 144 9540 8137 315 481 5222 234 1543 2720 1250 65150 727 522 276 1379 827 2623
is_linear=0
shrinkage=0.1


Tree=7
num_leaves=78
num_cat=0
split_feature=1 1 1 12 0 0 3 15 0 1 0 0 0 13 1 15 0 15 1 3 15 0 7 15 3 8 15 0 0 0 15 3 0 15 9 2 23 19 0 0 9 0 0 2 0 3 3 18 23 9 19 6 3 0 0 7 15 13 3 18 6 3 0 0 17 3 0 0 1 0 0 3 17 1 2 8 15
split_gain=20269.4 6146.83 3333.18 3264.93 2248.72 2010.83 1417.47 883.335 756.435 723.1 705.915 650.007 572.895 546.719 542.034 403.088 388.068 371.134 327.624 297.362 249.613 280.275 248.892 244.06 241.974 227.949 214.877 201.11 733.388 316.454 190.782 189.162 153.531 149.992 136.771 132.495 125.47 145.534 123.494 329.207 173.52 108.292 108.007 105.094 104.032 99.9613 97.2522 93.1825 92.9187 89.2619 87.4717 86.7881 85.0664 84.9035 84.6895 82.1009 81.9645 80.802 79.4199 78.2714 80.3385 75.9352 71.0962 70.9396 69.0204 67.1007 66.249 310.365 66.016 64.3062 65.5338 64.1041 65.145 62.6814 61.9031 59.3009 55.3305
threshold=3.4811217321331038 1.0000000180025095e-35 6.1473987767932732 0.72681555901973705 -1.0000000180025095e-35 -1.0000000180025095e-35 1.8408392542261593 0.79188284699061506 6.4500000000000011 4.8081027000528378 3.1500000000000008 6.0500000000000007 -1.0000000180025095e-35 0.79436729971023967 1.700598690831078 1.2461107522739556 10.450000000000001 1.7618923879752495 7.2345378000323413 5.1075930844088093 7.2568109614492595 1.0000000180025095e-35 0.38503618636456194 0.44914812435781554 2.5780228890633401 0.36257134247678863 7.2568109614492595 10.950000000000001 -1.0000000180025095e-35 2.2500000000000004 8.4108768359561328 2.3916856675728795 1.5500000000000003 3.507949995941217 4.5329172104328297 1.0000000180025095e-35 -1.0000000180025095e-35 28.500000000000004 -1.0000000180025095e-35 1.5500000000000003 0.13780262409069796 2.2500000000000004 3.5500000000000003 1.0000000180025095e-35 12.250000000000002 0.23332312759351501 2.9530301163430019 1.5000000000000002 1.0000000180025095e-35 1.729267955405168 42.500000000000007 1.4382170521389586 0.30563607387966019 0.65000000000000002 3.5500000000000003 5.4474067659947361 3.6677647713332591 2.1356920617597668 1.0000000180025095e-35 1.5000000000000002 1.8842512631984849 0.092839343474302935 15.250000000000002 3.1500000000000008 24.500000000000004 2.9530301163430019 -1.0000000180025095e-35 5.0500000000000007 2.0126758453675748 -1.0000000180025095e-35 0.95000000000000007 7.4226202127198526e-09 21.500000000000004 0.89587973461402759 1.0000000180025095e-35 2.1357647663434043 3.507949995941217
decision_type=2 2 2 2 2 2 2 2 2 2 2 2 2 2 2 2 2 2 2 2 2 2 2 2 2 2 2 2 2 2 2 2 2 2 2 2 2 2 2 2 2 2 2 2 2 2 2 2 2 2 2 2 2 2 2 2 2 2 2 2 2 2 2 2 2 2 2 2 2 2 2 2 2 2 2 2 2
left_child=1 3 5 7 23 17 15 13 24 26 20 12 35 25 51 22 31 36 -12 42 21 -4 58 48 53 52 46 28 74 34 -11 56 -26 47 -30 57 -2 -38 43 40 -40 55 49 64 -41 -27 50 -16 -3 -14 -7 73 -1 75 -48 -21 69 -8 -5 60 -13 -60 -61 71 -24 -31 -54 -68 -25 -9 -71 72 -17 -10 -15 -6 -70
right_child=2 4 10 6 8 9 11 16 14 30 18 59 19 27 33 63 -18 -19 -20 41 -22 -23 38 68 32 45 -28 -29 29 65 -32 -33 -34 -35 -36 -37 37 -39 39 44 -42 -43 -44 -45 -46 -47 54 -49 -50 -51 -52 -53 66 -55 -56 -57 -58 -59 61 62 -62 -63 -64 -65 -66 -67 67 -69 76 70 -72 -73 -74 -75 -76 -77 -78
leaf_value=-0.027942305693439997 -0.025749420937977819 -0.025357205374145056 0.033576833877106541 0.014944532129326652 0.17287971616170297 0.19005439832587093 0.029869498608948792 -0.0029349484281874917 0.035676571544034745 0.31486829629487567 0.57088589228768505 0.036244144254506526 0.27694558088473203 0.0051097183228359794 0.12640141135342547 0.27138003269944722 0.00028105820840681453 0.30993475508443785 0.83704715085025616 0.29262791656471626 0.58982999174165218 0.39926511857569441 -0.021869984905440194 0.049381696428448238 0.35731485210990116 -0.02045947047912218 0.36849205557656051 -0.0088513963254621408 0.13847356458598287 0.040731289712115509 0.45556937635273603 0.14433701017774911 0.19567750645062554 0.17911624411921531 0.34558282263298851 -0.036569047142371802 0.01471559315139952 0.25255093780468468 0.21552381578634275 0.038259623526748804 0.067339977105155296 0.1824077076876362 0.10228808209656644 -0.035914687998156433 0.011970424834517648 -0.0075491010237157046 0.39267103622034599 0.08700403582695776 0.025645907194352724 0.15784721883088479 0.34675559491886032 0.08442926742599334 -0.029098566440536208 0.13204037892532378 0.23624845701946812 0.48771431366697027 0.1089058244470649 0.14917066399629886 -0.022394276534123861 0.056848334716619792 0.088500409017402956 -0.00015834497946624762 -0.0082975285150226862 0.044685753334233219 0.042827618579282863 0.10980239311199223 0.079290000484591741 -0.018825874655580312 0.083006810343094095 0.11075609194650773 0.039108480848510631 0.068556543559890867 0.10755696202181537 0.064528638460484691 -0.032893806327611581 0.31895738585366518 0.24669543430574295
leaf_weight=50471 331 2232 34 1529 89 1141 142 323 1589 643 170 693 71 659 1214 33 3815 44 64 61 31 55 262 177 91 12971 87 5378 287 1041 114 209 168 327 36 177 76 39 121 2095 229 52 357 698 5357 11163 44 1195 425 580 37 924 5980 844 169 34 176 95 2874 271 513 3301 438 1294 444 163 330 13909 46 143 1212 401 94 1437 1223 41 38
leaf_count=50471 331 2232 34 1529 89 1141 142 323 1589 643 170 693 71 659 1214 33 3815 44 64 61 31 55 262 177 91 12971 87 5378 287 1041 114 209 168 327 36 177 76 39 121 2095 229 52 357 698 5357 11163 44 1195 425 580 37 924 5980 844 169 34 176 95 2874 271 513 3301 438 1294 444 163 330 13909 46 143 1212 401 94 1437 1223 41 38
internal_value=0 -0.00548107 0.253851 -0.0114379 0.0669124 0.216342 0.0235151 -0.0185302 0.0945642 0.256565 0.54255 0.082086 0.129809 -0.0206696 0.0812878 0.0126207 0.0191794 0.0328484 0.643741 0.165989 0.345111 0.259717 0.0078046 -0.00812546 0.166545 -0.0228809 0.215832 0.00319161 0.0221945 0.0736888 0.336075 0.0541206 0.252522 0.115504 0.161599 0.0288406 0.00548186 0.0954913 0.0189032 0.0238169 0.118608 0.298947 0.146586 -0.0083924 0.019363 -0.0144884 0.206274 0.106864 -0.0171939 0.170857 0.194988 0.0575842 -0.025746 0.143668 0.268625 0.362593 0.0439432 0.077748 -0.00545608 0.0429781 0.0584838 -0.0105097 0.016584 0.0573113 0.0187988 0.0500936 -0.0202628 -0.016551 0.08414 0.0371214 0.0466798 0.0882279 0.150233 0.0493825 -0.0195793 0.219055 0.157219
internal_weight=0 142542 3079 131705 10837 2725 22216 109489 7919 2235 354 3484 1569 103611 6686 18732 5878 490 234 1155 120 89 16910 2918 1233 94824 1478 8787 3409 1527 757 2063 259 2736 323 414 446 115 9206 7802 350 147 1008 1404 7452 24134 1391 2409 2657 651 1178 3950 70690 974 213 95 1854 237 7704 1915 1206 6175 709 1822 706 1204 20219 14239 261 1678 1355 528 127 3026 1882 130 84
internal_count=145621 142542 3079 131705 10837 2725 22216 109489 7919 2235 354 3484 1569 103611 6686 18732 5878 490 234 1155 120 89 16910 2918 1233 94824 1478 8787 3409 1527 757 2063 259 2736 323 414 446 115 9206 7802 350 147 1008 1404 7452 24134 1391 2409 2657 651 1178 3950 70690 974 213 95 1854 237 7704 1915 1206 6175 709 1822 706 1204 20219 14239 261 1678 1355 528 127 3026 1882 130 84
is_linear=0
shrinkage=0.1


Tree=8
num_leaves=78
num_cat=0
split_feature=1 1 7 0 6 0 14 1 1 1 15 15 9 0 0 3 15 15 0 3 1 15 1 0 0 13 1 0 0 23 15 9 3 15 3 0 24 0 21 1 0 0 0 0 0 7 3 0 0 3 17 0 15 15 15 9 15 18 17 12 19 17 15 17 15 1 15 18 2 19 3 0 17 14 30 9 20
split_gain=16485.3 4528.75 3548.31 1909.58 1510.63 1251.59 1114.03 1047.17 656.139 614.083 568.252 544.799 407.893 378.837 1298.4 310.217 291.904 274.543 254.202 242.206 214.154 205.592 187.58 171.908 421.807 162.932 152.586 149.522 374.289 146.972 142.226 140.914 155.908 140.906 129.317 126.322 125.727 118.508 117.092 113.819 111.865 110.761 139.721 107.169 178.512 150.345 103.293 99.1576 98.7629 95.8745 95.645 93.9527 93.9003 103.407 91.4756 88.6342 88.5727 87.218 84.2817 83.0691 79.7874 79.4427 78.4409 78.2154 77.4257 89.471 83.1016 74.7631 73.82 72.9967 72.4804 72.4016 71.4306 71.2823 76.2759 70.4294 70.1177
threshold=2.1383330595080285 5.0139575654555912 1.3953713374486241 -1.0000000180025095e-35 0.64437496043597187 1.0000000180025095e-35 1.5059827869478968 6.4746617065281837 1.0000000180025095e-35 3.7726948748059117 2.0267061279957539 1.2461107522739556 4.5329172104328297 -1.0000000180025095e-35 6.8500000000000005 0.50195418263990299 3.507949995941217 0.50003513557399837 -1.0000000180025095e-35 2.9530301163430019 1.0000000180025095e-35 8.4108768359561328 7.7834237160340916 -1.0000000180025095e-35 2.5500000000000003 0.8545081949749338 1.0000000180025095e-35 -1.0000000180025095e-35 4.3500000000000005 -1.0000000180025095e-35 3.507949995941217 0.20592135319923441 2.5780228890633401 5.9318113216566877 3.3383146765629172e-08 3.5500000000000003 -1.0000000180025095e-35 7.2500000000000009 -1.0000000180025095e-35 1.0000000180025095e-35 6.4500000000000011 3.1500000000000008 -1.0000000180025095e-35 4.3500000000000005 -1.0000000180025095e-35 5.4474067659947361 0.40987187971311684 3.5500000000000003 5.7500000000000009 2.5780228890633401 24.500000000000004 15.250000000000002 1.0352572689301029 3.6677647713332591 2.6058342727207799 0.0078036466136403009 0.71473817600219758 1.0000000180025095e-35 23.500000000000004 1.1856029794384333 28.500000000000004 29.500000000000004 1.9761677538798594 20.500000000000004 2.2023713166725165 5.4617086595848852 5.4525376903593967 1.5000000000000002 1.0000000180025095e-35 30.500000000000004 0.95780740306721757 10.450000000000001 30.500000000000004 0.37133090557370069 1.0000000180025095e-35 2.501130447504297 1.5000000000000002
decision_type=2 2 2 2 2 2 2 2 2 2 2 2 2 2 2 2 2 2 2 2 2 2 2 2 2 2 2 2 2 2 2 2 2 2 2 2 2 2 2 2 2 2 2 2 2 2 2 2 2 2 2 2 2 2 2 2 2 2 2 2 2 2 2 2 2 2 2 2 2 2 2 2 2 2 2 2 2
left_child=2 3 4 16 8 29 10 21 17 30 13 15 23 61 19 27 38 36 -10 25 51 64 48 72 31 47 59 -6 34 -3 40 50 70 52 -29 -21 -1 -19 55 57 49 42 -12 44 -14 -46 -38 -15 -9 -5 -25 -16 -11 -54 -13 -2 60 -30 -57 -17 -42 -4 -58 -50 65 -7 -66 -60 -63 -61 -33 -26 -8 -67 -75 -34 -73
right_child=1 5 6 9 11 7 12 22 18 33 41 54 43 14 20 26 -18 37 -20 35 -22 -23 -24 24 71 -27 -28 28 39 -31 -32 32 75 -35 -36 -37 46 -39 -40 -41 56 -43 -44 -45 45 -47 -48 -49 63 -51 -52 -53 53 -55 -56 58 62 -59 67 69 -62 68 -64 -65 66 73 -68 -69 -70 -71 -72 76 -74 74 -76 -77 -78
leaf_value=-0.02808151111654468 -0.033582314366686593 0.0097048504799132091 -0.028553536405318415 0.14366797273888707 -0.023364582654975489 0.27680601854860765 -0.015157726649799672 0.43941956372227059 -0.015816569357269727 0.21938256822047397 0.029407386076756237 0.037884035234858005 0.094819637880052099 0.32804168866553524 0.0289768585141306 0.0053917056630627749 0.22171827076242234 0.02956248555011709 0.046758992000699107 0.22431358499268589 0.061708227920805742 0.43978331280850702 0.81513296981706906 0.41607815868318615 0.086855591781551014 0.075934380669827564 0.057021758080903207 0.1079592601800492 -0.029893036696230821 0.23965648153422678 0.17386046983114567 -0.055473563951510964 0.35126099400886224 0.28611946425588375 0.028824267770353906 0.10885156285473677 -0.022055914774830543 -0.006429798910046091 0.14325162764156898 0.045276698576713945 0.10558169734651955 0.072680975616632268 0.18045018833370791 0.11345771471758236 0.22685462548722626 0.44053771517849755 -0.012954900240832116 0.12085275457932594 0.51509059096141063 0.28119282228529824 0.18882257710153716 -0.0021516000780790511 0.083506769146218421 0.19418053297913684 0.078774740694616915 -0.013026630694498734 0.017352152349855498 -0.0036448462107358825 0.13199788437329016 0.012949483516597859 0.16132339195149986 0.040621969656784045 0.09694450036164852 0.67833201190285886 0.11166995713912915 0.29864149781759891 0.28448746809070818 0.020114274961080352 -0.022515563207639901 0.043205573573875757 0.11062787022449359 0.0674057518129626 0.072414251255506087 0.56240151453432385 0.37763510100542047 0.18334736093794224 0.017139746752151169
leaf_weight=23714 576 104 1750 266 3691 182 260 58 949 665 81 2033 69 42 1191 5507 63 1191 2053 239 705 142 31 33 849 1029 861 373 1429 38 532 29 29 213 464 158 44762 3944 55 437 816 628 254 120 118 46 17299 52 58 63 43 5213 128 251 750 300 163 11113 101 1928 377 388 521 62 36 82 127 147 354 1362 269 741 145 29 104 191 445
leaf_count=23714 576 104 1750 266 3691 182 260 58 949 665 81 2033 69 42 1191 5507 63 1191 2053 239 705 142 31 33 849 1029 861 373 1429 38 532 29 29 213 464 158 44762 3944 55 437 816 628 254 120 118 46 17299 52 58 63 43 5213 128 251 750 300 163 11113 101 1928 377 388 521 62 36 82 127 147 354 1362 269 741 145 29 104 191 445
internal_value=0 0.158359 -0.00714644 0.120306 -0.0127865 0.347596 0.038007 0.390642 -0.019023 0.153975 0.0237988 0.0067696 0.0886944 0.0174161 0.0273352 0.00245203 0.0119952 -0.020542 0.0269729 0.111225 0.00939647 0.332097 0.587219 0.0768498 0.0861937 0.0874674 0.01684 -0.00548456 -0.00070686 0.0713372 0.127398 0.160349 0.141641 0.211855 0.0641062 0.178396 -0.0218866 0.00191553 0.000777033 -0.00488762 0.116187 0.0974945 0.14397 0.190459 0.230058 0.286874 -0.0195193 0.213572 0.547448 0.170044 0.287679 0.00363548 0.19669 0.156838 0.0489087 -0.00618258 0.10674 -0.00663657 0.0225924 0.0129057 0.123208 -0.0169253 0.0779972 0.599547 0.304767 0.328696 0.246403 0.0657346 0.0104815 0.0254791 0.0944181 0.0645417 0.0161618 0.372557 0.418026 0.205544 0.0485568
internal_weight=0 6290 139331 5237 123860 1053 15471 911 93912 3995 12084 29948 3387 11121 8629 27165 1242 90910 3002 1520 7109 702 209 3034 2629 1123 9658 17507 13816 142 2738 594 518 1257 837 397 85775 5135 1179 12979 2206 963 335 353 233 164 62061 94 178 329 76 6404 1044 379 2783 1124 1877 12542 548 8797 1193 2492 684 120 560 397 163 248 742 3290 298 2035 405 215 133 220 1186
internal_count=145621 6290 139331 5237 123860 1053 15471 911 93912 3995 12084 29948 3387 11121 8629 27165 1242 90910 3002 1520 7109 702 209 3034 2629 1123 9658 17507 13816 142 2738 594 518 1257 837 397 85775 5135 1179 12979 2206 963 335 353 233 164 62061 94 178 329 76 6404 1044 379 2783 1124 1877 12542 548 8797 1193 2492 684 120 560 397 163 248 742 3290 298 2035 405 215 133 220 1186
is_linear=0
shrinkage=0.1


Tree=9
num_leaves=78
num_cat=0
split_feature=1 1 3 0 15 1 0 6 6 1 0 1 15 8 13 3 15 15 0 0 0 0 0 0 0 19 1 0 0 9 15 10 1 12 23 9 1 2 0 24 17 13 0 1 0 0 9 3 0 3 10 17 15 1 0 17 15 15 7 0 0 17 30 19 9 14 3 2 19 17 3 15 1 0 0 9 10
split_gain=13400 3233.01 3122.14 1476.6 1203.22 1187.52 874.101 829.2 768.055 703.579 545.33 481.964 266.839 242.792 233.87 207.435 190.417 178.752 160.898 501.835 218.517 152.624 151.347 374.347 157.583 149.42 142.686 140.157 279.608 144.713 139.498 137.338 129.741 123.798 123.623 123.476 122.829 117.178 113.576 110.365 104.14 101.677 101.472 100.412 98.5332 537.558 121.802 115.093 95.8624 94.3043 134.406 89.7637 85.2394 79.7395 78.1825 107.305 70.1165 69.6315 68.3478 67.4616 121.745 109.742 65.598 63.1528 62.5303 61.9928 61.9276 61.2234 70.3465 59.7469 59.703 89.6467 57.871 57.4852 53.585 60.584 52.8546
threshold=2.524928003624769 5.2390944889447963 1.1282524311118156 -1.0000000180025095e-35 2.2023713166725165 1.0000000180025095e-35 -1.0000000180025095e-35 0.6549550792840011 1.5476919999680374 6.5971447712879145 -1.0000000180025095e-35 4.1190041246092024 0.71473817600219758 0.4281962381194101 2.0460130932702603 4.0257991482450821 0.50003513557399837 5.9318113216566877 -1.0000000180025095e-35 1.5500000000000003 11.850000000000003 3.9500000000000006 9.6500000000000004 -1.0000000180025095e-35 2.8500000000000001 29.500000000000004 1.0000000180025095e-35 -1.0000000180025095e-35 5.0500000000000007 0.50677629264152591 10.632973943572063 2.3391937878303204 7.5194167671513794 2.5602084740991007 -1.0000000180025095e-35 3.9848685324753172 3.8176519431297078 1.0000000180025095e-35 2.2500000000000004 1.0000000180025095e-35 41.500000000000007 0.028588796232218879 1.9500000000000002 1.2424533248940004 -1.0000000180025095e-35 6.4500000000000011 0.63501982295290282 4.4366811128565429 13.850000000000003 5.1075930844088093 4.6977556106783069 30.500000000000004 3.1525537724231225 1.0000000180025095e-35 8.4500000000000011 33.500000000000007 6.5155995616621984 1.3724332162035158 3.9754311729470828 -1.0000000180025095e-35 1.9500000000000002 34.500000000000007 1.0000000180025095e-35 41.500000000000007 2.0914108044276779e-15 2.7001183238983737 1.9375695713461061 1.0000000180025095e-35 25.500000000000004 19.500000000000004 2.4223931527323301e-14 2.8532044454618823 1.0000000180025095e-35 13.450000000000001 5.4500000000000011 1.1224704224087068 0.29283889801179841
decision_type=2 2 2 2 2 2 2 2 2 2 2 2 2 2 2 2 2 2 2 2 2 2 2 2 2 2 2 2 2 2 2 2 2 2 2 2 2 2 2 2 2 2 2 2 2 2 2 2 2 2 2 2 2 2 2 2 2 2 2 2 2 2 2 2 2 2 2 2 2 2 2 2 2 2 2 2 2
left_child=2 3 5 25 8 7 39 16 13 30 -7 17 18 44 27 33 41 54 67 31 64 -11 23 51 35 57 -24 63 29 -29 74 -20 76 -6 62 -25 -36 -22 -12 -3 56 -1 69 -40 -4 46 -46 -48 70 59 -51 -15 -14 -47 -5 -56 58 -2 -13 61 -61 -16 -27 -10 -21 -52 -31 68 -9 -17 71 -18 73 -30 -8 -76 -23
right_child=1 6 4 11 15 10 9 12 14 21 38 40 52 22 49 42 48 -19 19 20 37 32 26 24 -26 34 -28 28 72 66 -32 -33 -34 -35 36 -37 -38 -39 43 -41 -42 -43 -44 -45 45 53 47 -49 -50 50 65 -53 -54 -55 55 -57 -58 -59 -60 60 -62 -63 -64 -65 -66 -67 -68 -69 -70 -71 -72 -73 -74 -75 75 -77 -78
leaf_value=-0.02221398836709975 -0.018087227392178603 -0.029685913556434247 -0.021213350694504484 0.16025066835228946 0.086002472493238724 -0.015640066378635669 0.24428075823259082 -0.025546370409655152 -0.019042183319999625 0.39731143057186691 0.11944766355563213 0.18581085129694994 0.02238283336102681 -0.020202317112522957 -0.016343041695702488 0.37044548410931433 0.040082996074665422 0.24785663246056255 0.086495222591799578 0.047382950349771288 -0.0091265726764655688 0.44238061806892226 0.0072815813557331023 0.10481055824994212 0.056790386394913489 -0.025514723791787954 0.057434763289054662 0.30259730302352167 0.057083680825713135 0.074006625584486382 0.45069907645647078 0.27414437743930081 0.75313137588771295 0.17015747743584708 0.089296351699358401 0.25097547435381551 0.31276712932872969 0.017931431444460504 0.03399627441806824 0.1724619075523528 0.39328326029501071 -0.014600380088954278 0.13644198201790692 0.066915647400271602 0.26024008580169822 -0.009844298253928057 0.071507542736855015 0.25481311516462851 -0.0091301234506550293 0.10302628098198208 0.18105847461052743 0.03688252901707173 0.073203407067271353 0.041688235274463664 0.10375819037858632 0.17471810288023937 0.26791625848603928 0.11778684601116206 0.29243089873735673 0.16590411196065213 0.0759635006277396 0.18942231860310499 0.10400849824835917 0.10196177364821252 0.014810054798974024 0.38736448397188372 0.14949956859396496 -0.032152301507078249 0.0096010333896370138 0.2158220053284699 0.011078197845098215 0.20409409069356463 0.073363726036584365 0.017252710531161879 0.28957438768795124 0.37614253857353175 0.59784306805688769
leaf_weight=58731 656 56 1893 451 1171 1656 135 1162 424 53 239 739 2949 731 136 39 275 121 429 859 12797 38 4329 337 1066 112 653 40 515 275 69 43 39 206 90 70 34 1829 2133 52 31 25029 117 1642 43 4088 474 37 3333 143 30 442 372 324 1546 248 157 40 66 181 904 32 60 48 1884 29 181 2050 1116 72 1225 38 355 1228 246 123 55
leaf_count=58731 656 56 1893 451 1171 1656 135 1162 424 53 239 739 2949 731 136 39 275 121 429 859 12797 38 4329 337 1066 112 653 40 515 275 69 43 39 206 90 70 34 1829 2133 52 31 25029 117 1642 43 4088 474 37 3333 143 30 442 372 324 1546 248 157 40 66 181 904 32 60 48 1884 29 181 2050 1116 72 1225 38 355 1228 246 123 55
internal_value=0 0.157372 -0.00584474 0.122247 0.0301034 -0.0120306 0.333834 -0.01425 0.0230819 0.371761 0.0326369 0.153906 0.0016443 0.0118513 0.0590659 0.11325 -0.0188213 0.129351 -0.00231519 0.00188013 -0.000883838 0.54142 0.0241274 0.0434578 0.0770232 0.0150339 0.013858 0.0433894 0.0525103 0.120045 0.31696 0.103619 0.599178 0.098602 0.0745518 0.129983 0.150681 -0.00574201 0.0525572 0.0675193 0.212397 -0.0199391 0.201656 0.0483187 -0.00179902 0.00559884 0.0984482 0.0848069 0.000396663 0.0920902 0.155571 0.00129637 0.0280796 -0.00605688 0.122958 0.113575 0.206554 -0.0102588 0.194569 0.0818453 0.09098 0.02277 0.0195891 -0.0067079 0.0250156 0.282695 0.104002 -0.0196124 -0.00832159 0.270272 0.021051 0.0600384 0.0365375 0.0290293 0.298623 0.318468 0.534469
internal_weight=0 5217 140404 4351 20613 119791 866 114121 19008 758 5670 3359 25490 14487 4521 1605 88631 2366 22169 17841 17369 185 7628 2646 1473 992 4982 3066 2594 496 573 472 132 1377 296 407 124 14626 4014 108 993 83760 228 3775 6859 4966 554 511 4871 1455 202 1173 3321 4412 2245 1794 962 696 805 1253 1085 168 172 472 2743 59 456 4328 2278 111 1538 313 2098 1743 504 369 93
internal_count=145621 5217 140404 4351 20613 119791 866 114121 19008 758 5670 3359 25490 14487 4521 1605 88631 2366 22169 17841 17369 185 7628 2646 1473 992 4982 3066 2594 496 573 472 132 1377 296 407 124 14626 4014 108 993 83760 228 3775 6859 4966 554 511 4871 1455 202 1173 3321 4412 2245 1794 962 696 805 1253 1085 168 172 472 2743 59 456 4328 2278 111 1538 313 2098 1743 504 369 93
is_linear=0
shrinkage=0.1


Tree=10
num_leaves=78
num_cat=0
split_feature=1 1 12 0 15 0 3 1 3 1 15 0 0 15 15 0 0 0 1 8 0 15 0 12 9 0 0 0 9 19 1 2 0 1 3 15 19 15 13 17 3 1 9 0 10 3 15 15 9 3 18 1 0 0 9 0 8 12 17 17 2 12 0 8 18 15 1 14 15 17 0 14 4 13 3 13 17
split_gain=10902.9 3084.73 2319.42 1363.34 965.652 827.889 811.617 691.002 528.937 424.149 285.495 267.845 387.155 227.208 226.894 206.637 295.618 194.38 184.844 183.706 146.049 142.58 141.732 140.017 137.215 135.289 392.373 172.886 133.314 132.31 131.172 129.295 123.887 112.289 104.977 104.289 100.07 99.547 98.4363 117.426 95.8063 88.5679 88.5266 84.5454 111.578 82.2498 75.8858 84.768 75.8467 90.0098 73.0815 68.5176 68.1389 418.621 146.535 67.792 66.8544 66.4252 66.309 63.8906 63.715 63.6229 63.1843 86.7246 63.0742 61.5717 66.1477 69.0142 66.0093 56.9839 55.8004 55.1797 54.5818 54.359 53.3379 55.3526 52.8257
threshold=2.0126758453675748 5.0139575654555912 0.91265214212945289 -1.0000000180025095e-35 1.2716987987977495 1.0000000180025095e-35 1.8852312398370448 6.4746617065281837 0.76769026778047578 3.7726948748059117 1.649587561611868 8.0500000000000025 -1.0000000180025095e-35 3.507949995941217 4.2463387430942623 -1.0000000180025095e-35 4.3500000000000005 1.9500000000000002 1.0000000180025095e-35 0.29497488654043696 -1.0000000180025095e-35 8.4108768359561328 1.9500000000000002 0.086389379979056463 1.0000000180025095e-35 10.950000000000001 -1.0000000180025095e-35 3.5500000000000003 6.5344363527808511 24.500000000000004 7.7834237160340916 1.0000000180025095e-35 11.850000000000003 0.89587973461402759 3.7365619212614463 3.8413015407937148 26.500000000000004 7.2568109614492595 0.0093086683711483022 27.500000000000004 0.2809618806443705 3.8606743063089746 3.142260156331727 1.5500000000000003 2.245104319823517 2.1073909578547076 0.71473817600219758 2.256145601486883 1.729267955405168 2.6887820250547763 1.5000000000000002 1.0000000180025095e-35 -1.0000000180025095e-35 8.0500000000000025 0.22018797120880673 5.7500000000000009 1.9711744210688493 2.6838537012392583 27.500000000000004 20.500000000000004 1.0000000180025095e-35 1.6865900146977784 0.35000000000000003 1.243314050890673 1.5000000000000002 2.2023713166725165 5.6365721362514982 0.56763913177205871 5.4525376903593967 20.500000000000004 1.9500000000000002 3.6951226271162112e-11 1.6371146352179811 2.1356920617597668 0.61389259381647487 0.41123637676082608 26.500000000000004
decision_type=2 2 2 2 2 2 2 2 2 2 2 2 2 2 2 2 2 2 2 2 2 2 2 2 2 2 2 2 2 2 2 2 2 2 2 2 2 2 2 2 2 2 2 2 2 2 2 2 2 2 2 2 2 2 2 2 2 2 2 2 2 2 2 2 2 2 2 2 2 2 2 2 2 2 2 2 2
left_child=2 3 4 13 8 29 10 21 18 22 15 12 36 38 32 -4 24 28 23 52 -20 65 45 -1 43 26 58 34 48 56 55 40 42 -27 -28 46 -8 61 -2 -40 -18 71 69 44 -17 -5 -24 -48 -14 -50 -13 76 -10 54 -54 -9 -3 -12 -21 72 -60 -11 63 -16 -42 66 -7 -68 -67 70 -6 -41 -57 -38 -26 -76 -34
right_child=1 5 6 9 14 7 11 30 19 37 57 50 17 -15 62 16 31 -19 20 25 -22 -23 35 -25 74 33 27 -29 -30 -31 -32 -33 51 -35 -36 -37 73 -39 39 41 64 -43 -44 -45 -46 -47 47 -49 49 -51 -52 -53 53 -55 -56 59 -58 -59 60 -61 -62 -63 -64 -65 -66 68 67 -69 -70 -71 -72 -73 -74 -75 75 -77 -78
leaf_value=-0.019222612308137776 -0.030113014857872711 -0.07075019288902544 -0.012569285574699824 0.13965598769324619 0.15344810527167829 0.23432570927909155 -0.023340066233177297 0.35385895179140775 -0.02163085884404423 0.15110251330801971 0.047250787692132451 0.055881947379492675 0.27918616850615752 0.18940403074553835 0.10336754161290107 0.12619980573077264 -0.0046403054811264008 0.095071185015142001 -0.019103792927598923 -0.023954288814394167 0.032419829632844545 0.35922485263630954 0.10271762658143786 -0.010017291237793626 0.010891554053969179 4.3479784867228055e-05 0.089327767577593406 0.03986599923002257 0.33868130902684884 0.19909891562714091 0.66749090306460201 0.038785609956686534 0.023077735589727724 0.058962217077051418 0.21170053622132579 0.14432785696243827 0.022276811324380516 0.27028261287202004 -0.0063083894485761937 -0.043744210163612463 0.024414609034003092 0.21212215977552795 0.13556139727150773 0.07052483365974449 0.34162013016728154 0.27027617573388718 0.022137727611128338 0.087309879676650493 0.075015645995817115 0.17741122665666553 0.012050277421406574 0.036532452706308442 0.2592702257719246 -0.0113343906605681 0.061438694145298338 0.31213099861111238 0.10209032542050543 0.099446197414201964 0.037982894839394654 0.55789041653804561 -0.021569898692983619 0.20663657688612935 0.088892933719183442 0.31936280388574195 0.0027355736214567257 0.074605048404762536 0.25015569827477208 0.38237097983329105 0.22862430709783843 0.031268437988857874 0.056888781789512836 0.080030672073487769 0.50812528253368916 0.12084224499292635 0.12118731906015129 0.044451458379201315 -0.010785430735710843
leaf_weight=69693 608 62 2769 169 74 237 259 58 2852 890 1169 1059 46 66 45 144 3787 867 919 974 1370 142 1453 21668 379 7070 431 1183 45 45 31 1555 778 339 84 392 122 96 435 46 3428 42 108 240 29 68 299 604 130 256 595 898 40 6003 598 29 35 309 474 62 289 271 239 32 2208 36 78 82 127 1218 319 164 29 104 115 523 1129
leaf_count=69693 608 62 2769 169 74 237 259 58 2852 890 1169 1059 46 66 45 144 3787 867 919 974 1370 142 1453 21668 379 7070 431 1183 45 45 31 1555 778 339 84 392 122 96 435 46 3428 42 108 240 29 68 299 604 130 256 595 898 40 6003 598 29 35 309 474 62 289 271 239 32 2208 36 78 82 127 1218 319 164 29 104 115 523 1129
internal_value=0 0.12503 -0.00598561 0.0955142 -0.0113042 0.282072 0.0253966 0.317083 -0.0131618 0.123455 0.0162149 0.0692977 0.095674 0.00841759 0.032443 0.0121281 0.0176407 0.123314 -0.0163363 0.00145545 0.0117279 0.269517 0.102924 -0.0170395 0.06041 0.0103486 0.0267531 0.0609375 0.174619 0.0573674 0.476783 0.0120683 0.0267167 0.00274115 0.109314 0.096514 0.0190522 0.172199 -0.000796022 0.02513 0.00765792 0.0794524 0.0478587 0.109039 0.16239 0.177191 0.0885527 0.0657452 0.157498 0.142961 0.0401224 0.0137554 -0.00870186 -0.00314741 0.0738633 0.443492 -0.00824516 0.0581723 -0.00665589 0.486701 0.0154084 0.164077 0.114379 0.193309 0.0159239 0.246745 0.268083 0.318002 0.194691 0.0419707 0.0751051 0.0528535 0.410365 0.0676945 0.0406487 0.0583045 0.00302264
internal_weight=0 6656 138965 5603 118827 1053 20138 911 113987 4242 16655 3483 1829 1361 4840 15177 12408 1344 93650 20337 2289 702 2985 91361 1430 10844 3435 1698 477 142 209 10978 4524 7409 515 2748 485 1257 1295 687 9423 252 1719 413 173 237 2356 903 432 386 1654 2805 9493 6641 638 178 97 1478 1737 120 763 1161 316 77 5636 560 397 160 163 1611 393 210 58 226 1017 638 1907
internal_count=145621 6656 138965 5603 118827 1053 20138 911 113987 4242 16655 3483 1829 1361 4840 15177 12408 1344 93650 20337 2289 702 2985 91361 1430 10844 3435 1698 477 142 209 10978 4524 7409 515 2748 485 1257 1295 687 9423 252 1719 413 173 237 2356 903 432 386 1654 2805 9493 6641 638 178 97 1478 1737 120 763 1161 316 77 5636 560 397 160 163 1611 393 210 58 226 1017 638 1907
is_linear=0
shrinkage=0.1


Tree=11
num_leaves=78
num_cat=0
split_feature=1 15 1 8 0 3 1 1 0 9 15 1 0 1 15 1 15 0 7 0 0 0 0 24 3 14 0 0 0 3 3 3 0 0 0 9 3 15 0 19 0 15 15 1 17 17 15 0 9 22 24 0 3 3 19 15 12 18 0 10 0 1 23 17 15 0 12 12 3 3 0 17 0 14 1 12 1
split_gain=8861.77 2415.93 1826.47 1549.06 1014.76 820.08 393.908 378.02 371.128 282.041 269.73 243.919 240.334 195.159 183.682 177.415 163.958 163.457 161.235 159.158 250.195 146.317 145.146 135.013 137.794 143.724 134.275 228.244 135.891 126.709 125.12 121.887 119.761 111.703 574.402 122.542 120.806 107.905 104.792 104.632 99.9627 99.3957 98.9328 98.229 95.7666 84.2289 82.7954 71.8519 71.7334 71.2589 73.4367 69.6991 68.4391 67.7998 67.615 61.8808 61.4766 57.6393 57.2062 57.0192 56.9105 55.9763 55.7158 55.121 54.5317 53.5583 52.1861 49.6486 48.8358 48.0962 46.429 54.4727 45.6518 44.5972 42.3036 40.4939 40.2029
threshold=3.0201273556387074 2.0267061279957539 5.8819276874444908 0.61474054094274388 -1.0000000180025095e-35 0.9868786692173469 1.0000000180025095e-35 4.3502571242716384 3.1500000000000008 2.9421022924745652 5.0601463145955732 7.081284000827794 -1.0000000180025095e-35 0.89587973461402759 5.0601463145955732 0.89587973461402759 8.4108768359561328 -1.0000000180025095e-35 0.53945554505719118 10.450000000000001 -1.0000000180025095e-35 1.0000000180025095e-35 -1.0000000180025095e-35 -1.0000000180025095e-35 1.0000000180025095e-35 2.3013658281954741 13.450000000000001 -1.0000000180025095e-35 2.2500000000000004 4.0257991482450821 0.22050715746905444 1.5117505134133837 3.1500000000000008 -1.0000000180025095e-35 5.0500000000000007 0.11830807234188606 2.9530301163430019 7.2568109614492595 17.550000000000004 37.500000000000007 0.95000000000000007 6.5155995616621984 1.7618923879752495 1.0000000180025095e-35 33.500000000000007 26.500000000000004 5.0601463145955732 1.5500000000000003 3.6312429410075335 -1.0000000180025095e-35 1.0000000180025095e-35 1.9500000000000002 4.4366811128565429 2.2400920185157651 30.500000000000004 0.11513144111466386 2.338893248674931 1.5000000000000002 -1.0000000180025095e-35 3.0879914951591756 -1.0000000180025095e-35 0.89587973461402759 -1.0000000180025095e-35 35.500000000000007 0.010917971819362051 6.0500000000000007 1.1600540835302149 2.5602084740991007 0.25483419078268255 1.0677782321748046e-07 4.3500000000000005 22.500000000000004 4.3500000000000005 3.6951226271162112e-11 1.0000000180025095e-35 0.020074617356632379 1.0000000180025095e-35
decision_type=2 2 2 2 2 2 2 2 2 2 2 2 2 2 2 2 2 2 2 2 2 2 2 2 2 2 2 2 2 2 2 2 2 2 2 2 2 2 2 2 2 2 2 2 2 2 2 2 2 2 2 2 2 2 2 2 2 2 2 2 2 2 2 2 2 2 2 2 2 2 2 2 2 2 2 2 2
left_child=1 3 4 6 14 13 18 41 16 15 31 53 73 23 39 26 21 -15 55 20 54 -4 -17 -5 25 60 27 44 -29 67 -26 43 52 -20 35 51 -37 42 -36 49 -24 48 62 45 -7 69 -44 -14 63 -2 -51 -35 -22 -10 -11 75 70 66 -32 -56 -25 -49 -9 -6 -42 -27 -28 -12 -64 -3 71 -33 -19 -8 -72 -1 -69
right_child=2 10 8 5 7 9 12 37 11 19 29 -13 47 17 -16 22 -18 72 33 -21 32 -23 40 24 30 65 57 28 -30 -31 58 56 -34 34 38 36 -38 -39 -40 -41 64 -43 46 -45 -46 -47 -48 61 -50 50 -52 -53 -54 -55 59 -57 -58 -59 -60 -61 -62 -63 68 -65 -66 -67 -68 76 -70 -71 74 -73 -74 -75 -76 -77 -78
leaf_value=-0.019239516854861308 -0.016685239878078722 0.118860935040219 0.018832386309160773 -0.026477812866992901 0.10413985444692737 -0.016486862937104788 -0.028314774635439695 0.18245082924137207 0.31002067028183689 -0.012747965384511768 0.099204064467995026 0.55147846067795281 0.14249106654609331 -0.013621726253069379 0.26339723624517947 -0.0037987722845756093 0.40812360987107532 0.11464727302450267 -0.018790636847709936 0.030662371151661722 0.12802801450399423 0.24019706039229477 0.25072467020859635 -0.0099695963692144618 -0.012514977748719992 0.11359333878713172 0.00870731977077264 0.099339073358633623 0.040500885355050184 0.27005346587041118 -0.012015752245013219 0.14923814021322407 0.085232926717363044 0.20559945430246884 0.011127070177295773 0.037084497082077457 0.15133526347446261 0.26520491416602254 -0.011373867696955392 0.14305217413456781 0.086063166721587855 0.22085734307630867 0.067916349545654564 0.070329253419969789 0.043503720170185924 0.01204544961333332 0.17747673847841444 0.016932447925156833 0.19477063094525748 -0.012680991295481609 0.17986132993535492 0.088135938697952429 0.21549168413034919 0.42776231108878621 0.03906907580816997 -0.0066628868149519668 0.12871068424733706 -0.003512537326675693 0.0063923691743967455 0.20161700017597292 0.020473469471232974 0.049205180183560009 0.34900516356166544 0.17486637948254005 0.026640598428983538 0.031215617374635587 0.035588550691504454 0.13116377561861145 0.2235771400141284 0.046509118286024415 0.032588599669561673 0.071463081592255409 0.04893672086938726 0.010204707578934154 0.081918828362512797 -0.013490123217678077 0.26290323427142931
leaf_weight=48944 571 110 49 1997 1443 961 858 377 170 213 331 75 65 485 29 267 32 119 6167 654 206 77 33 836 7800 203 2016 473 2321 63 1998 148 365 87 2454 736 106 188 13203 52 727 94 116 1080 368 944 172 924 106 39 40 122 160 70 78 5407 250 1955 10876 30 2308 1290 39 120 197 130 1127 64 163 569 336 233 977 462 363 16366 37
leaf_count=48944 571 110 49 1997 1443 961 858 377 170 213 331 75 65 485 29 267 32 119 6167 654 206 77 33 836 7800 203 2016 473 2321 63 1998 148 365 87 2454 736 106 188 13203 52 727 94 116 1080 368 944 172 924 106 39 40 122 160 70 78 5407 250 1955 10876 30 2308 1290 39 120 197 130 1127 64 163 569 336 233 977 462 363 16366 37
internal_value=0 -0.00415457 0.146375 -0.00652872 0.121767 0.0100668 -0.0133384 0.149002 0.330981 0.0317295 0.0677125 0.393763 0.0191247 0.000573636 0.016758 0.0255702 0.205729 0.0346918 -0.0145869 0.0694318 0.0935208 0.154219 0.0613476 -0.00148875 0.000576988 0.0189961 0.0208196 0.0342394 0.0504665 0.137399 -0.00252012 0.0591559 0.125841 -0.0072881 -0.00304165 0.0685217 0.0514838 0.196369 -0.00784632 0.00654971 0.0795374 0.120649 0.181427 0.0469499 0.000114335 0.0313841 0.133395 0.038793 0.114997 -0.00434971 0.0846376 0.137097 0.166301 0.344419 0.0198775 -0.0169477 0.0839522 0.00996376 0.00353444 0.0843474 0.0123742 0.0357425 0.205295 0.109579 0.0734088 0.0814746 0.0183506 0.118022 0.247861 0.0582504 0.0735789 0.101711 0.0560838 -0.0148227 0.0582259 -0.017799 0.17956
internal_weight=0 141599 4022 137071 3549 39880 97191 2818 473 12151 4528 315 3599 27729 731 10445 158 1581 93592 1706 1052 126 1224 26148 24151 3477 9221 4123 2794 495 20674 4033 731 22875 16708 1051 842 1055 15657 702 957 1763 867 2703 1329 1623 288 2279 1669 650 79 209 366 240 321 70717 1330 5098 12874 108 3144 2214 579 1563 924 333 3143 432 202 679 1080 381 1096 1320 699 65310 101
internal_count=145621 141599 4022 137071 3549 39880 97191 2818 473 12151 4528 315 3599 27729 731 10445 158 1581 93592 1706 1052 126 1224 26148 24151 3477 9221 4123 2794 495 20674 4033 731 22875 16708 1051 842 1055 15657 702 957 1763 867 2703 1329 1623 288 2279 1669 650 79 209 366 240 321 70717 1330 5098 12874 108 3144 2214 579 1563 924 333 3143 432 202 679 1080 381 1096 1320 699 65310 101
is_linear=0
shrinkage=0.1


Tree=12
num_leaves=78
num_cat=0
split_feature=1 1 12 0 1 15 3 0 3 1 15 0 15 0 0 0 0 1 15 0 7 15 2 9 0 2 3 9 0 23 9 1 24 15 0 0 0 3 17 1 18 8 13 0 0 9 0 23 19 19 0 0 0 19 20 24 17 0 12 3 2 12 19 3 0 1 0 17 12 1 9 19 17 2 2 7 13
split_gain=7218.61 2128.04 1545.08 925.343 616.464 614.95 530.082 409.044 328.417 242.53 212.475 198.799 192.727 191.218 293.12 143.488 225.202 139.65 136.202 128.002 119.008 117.545 111.864 111.832 118.911 179.031 106.649 105.642 103.779 102.358 97.7898 97.3805 93.7026 92.2016 89.9955 523.496 144.145 128.674 100.46 89.6327 86.7025 86.5015 90.8877 84.2593 373.168 155.229 84.9922 83.2404 88.1625 70.7072 69.9055 64.7925 63.6184 68.6553 62.9225 66.1303 60.9206 101.682 60.437 59.7385 58.9105 57.696 57.4544 54.6831 52.6725 51.5856 49.621 56.8767 48.8033 48.1557 45.5927 44.6585 42.4035 41.9564 41.4239 41.0011 40.488
threshold=1.8688348091416842 4.8081027000528378 0.91265214212945289 -1.0000000180025095e-35 6.441743353550561 0.96078739030226534 2.1073909578547076 1.0000000180025095e-35 0.5596870105284576 3.5114340430413211 1.3724332162035158 0.95000000000000007 2.4485950792377809 5.4500000000000011 -1.0000000180025095e-35 -1.0000000180025095e-35 6.8500000000000005 1.0000000180025095e-35 4.034105575801826 1.9500000000000002 5.4474067659947361 10.632973943572063 1.0000000180025095e-35 1.7819296886161424 9.6500000000000004 1.0000000180025095e-35 2.8121549628327105 1.0000000180025095e-35 -1.0000000180025095e-35 -1.0000000180025095e-35 6.5344363527808511 7.4477485632545939 -1.0000000180025095e-35 7.2568109614492595 -1.0000000180025095e-35 4.3500000000000005 14.250000000000002 3.7227117943805047e-06 20.500000000000004 0.89587973461402759 1.5000000000000002 3.0264534215608703 0.63567830591205166 -1.0000000180025095e-35 5.4500000000000011 0.25775648988965844 16.150000000000002 -1.0000000180025095e-35 28.500000000000004 29.500000000000004 0.95000000000000007 9.6500000000000004 1.9500000000000002 42.500000000000007 1.5000000000000002 1.0000000180025095e-35 20.500000000000004 1.5500000000000003 0.96987687987571036 2.5780228890633401 1.0000000180025095e-35 2.1681617060049976 24.500000000000004 1.3930778638804393 0.65000000000000002 1.0000000180025095e-35 0.65000000000000002 26.500000000000004 2.5602084740991007 2.2499048351651334 5.6368557364196592e-07 17.500000000000004 50.500000000000007 1.0000000180025095e-35 1.0000000180025095e-35 2.5033495977043896 4.326128482772206
decision_type=2 2 2 2 2 2 2 2 2 2 2 2 2 2 2 2 2 2 2 2 2 2 2 2 2 2 2 2 2 2 2 2 2 2 2 2 2 2 2 2 2 2 2 2 2 2 2 2 2 2 2 2 2 2 2 2 2 2 2 2 2 2 2 2 2 2 2 2 2 2 2 2 2 2 2 2 2
left_child=2 3 5 18 7 8 10 29 32 19 15 -6 63 14 49 60 27 23 47 69 66 76 54 43 25 30 56 41 -19 -3 -25 71 -1 52 74 37 70 38 -36 -38 61 64 -43 -10 45 -45 -46 73 -49 -8 -28 -30 59 75 55 -18 57 -14 -50 -11 62 -21 -4 -7 -17 72 -16 -68 -12 -5 -37 -13 -15 -2 -34 -54 -9
right_child=1 4 6 9 11 12 13 21 17 33 68 31 26 65 20 16 22 28 -20 40 -22 -23 -24 24 -26 -27 50 -29 51 -31 -32 -33 34 -35 35 36 39 -39 -40 -41 -42 42 -44 44 46 -47 -48 48 58 -51 -52 -53 53 -55 -56 -57 -58 -59 -60 -61 -62 -63 -64 -65 -66 -67 67 -69 -70 -71 -72 -73 -74 -75 -76 -77 -78
leaf_value=-0.019678638376770603 -0.02327804158100592 -0.026932802999777346 -0.018853813886605154 0.22591195577236234 0.17260249572022415 0.0065805638122388285 -0.018724874192183136 0.19170268806979351 -0.017149159480614799 0.15019525145052426 0.037110723128858845 0.25209415909029481 0.20287300615674858 0.024950083378903337 0.16816048309156853 0.15832894185403323 -0.0049226647079785926 -0.0099005455739470949 0.15313309918539089 0.083505076370956596 0.2605371181560216 0.33798156464837648 0.033905431863910734 0.054941866243188864 -0.0019998165496125236 -0.015691965760197699 0.22866197700476434 0.030872695577491206 0.10215483745499505 0.15822697472650274 0.21499754018245182 0.51279317095831567 -0.011840941227122686 0.23158075102388889 0.20651576456407153 0.022760638827112479 -0.013661234531781898 0.033909449869654905 0.079850406003658031 0.035378768051014295 0.055721924745135501 0.094742686833642537 0.2859026090120782 0.16735606767958444 0.012324498186570372 0.044609230656063537 -0.0088009978698818554 -0.0037725570279658381 0.057869825303597348 0.066427797387272405 0.083927192087287023 0.034106434272518818 0.10405221698366443 0.24648493099197474 -0.007426704063095234 0.018050157025180005 0.030655795319995072 0.054812724698611232 0.19784961943882659 0.32202274673044895 -0.026072787412945941 0.14541975645024593 0.020421786199871853 0.032380214908319695 0.04921665859567604 0.077484587294268159 0.1231373618232407 0.066892560538679091 0.076484502541571214 0.12314601717391881 -0.00094650694332944056 0.38749852277673041 0.12719925426831197 0.042802767072715034 -0.022407574604467951 0.15105539618263086 0.28532274551361297
leaf_weight=22944 932 103 669 62 47 4323 234 733 5150 69 1539 32 57 1247 126 50 1885 519 59 1197 56 65 1465 868 1946 440 51 1662 165 42 40 57 5799 84 80 1313 40671 679 292 376 1371 73 38 120 2202 734 14073 210 118 167 98 932 981 40 3089 3733 900 252 42 29 1294 173 840 1015 395 256 441 306 397 178 2120 112 42 107 10334 231 50
leaf_count=22944 932 103 669 62 47 4323 234 733 5150 69 1539 32 57 1247 126 50 1885 519 59 1197 56 65 1465 868 1946 440 51 1662 165 42 40 57 5799 84 80 1313 40671 679 292 376 1371 73 38 120 2202 734 14073 210 118 167 98 932 981 40 3089 3733 900 252 42 29 1294 173 840 1015 395 256 441 306 397 178 2120 112 42 107 10334 231 50
internal_value=0 0.0981718 -0.00504648 0.073066 0.217176 -0.00938633 0.0206598 0.181925 -0.0111495 0.0959352 0.0139897 0.358264 0.0200491 0.060395 0.0881983 0.0100128 0.0146356 -0.00158783 0.00427754 0.0796675 0.119044 0.208467 0.00833846 -0.00338989 0.0138069 0.0366358 0.0536877 0.0435088 0.026921 0.0266065 0.0620078 0.401609 -0.014222 0.129743 -0.0121914 -0.00991674 -0.0115652 0.0598376 0.107127 -0.0132117 0.0735261 0.0812561 0.160308 -0.00593307 -0.00256006 0.061873 -0.00594189 -0.00194601 0.0387734 0.0167039 0.133559 0.044354 0.123396 0.117297 0.00403512 0.0103397 0.0438329 0.0821689 0.0946996 0.201182 -0.0104164 0.0913334 0.00300036 0.0114888 0.0615071 0.036452 0.109952 0.100116 0.0451918 0.149751 0.00811668 0.357504 0.0282923 -0.0164597 -0.0186102 0.113022 0.197698
internal_weight=0 7124 138497 5883 1241 118493 20004 993 111797 4415 17129 248 6696 2875 1330 15193 12390 27189 1468 2981 929 848 10172 25573 3294 1348 1358 2218 1616 145 908 201 84608 1434 61664 45531 44480 1051 372 41047 2741 556 111 22279 17129 854 16275 1409 370 401 149 1097 1350 1252 8707 5618 1209 309 160 98 2803 1370 1509 5338 445 1545 873 747 1936 240 3433 144 1289 1039 16133 1212 783
internal_count=145621 7124 138497 5883 1241 118493 20004 993 111797 4415 17129 248 6696 2875 1330 15193 12390 27189 1468 2981 929 848 10172 25573 3294 1348 1358 2218 1616 145 908 201 84608 1434 61664 45531 44480 1051 372 41047 2741 556 111 22279 17129 854 16275 1409 370 401 149 1097 1350 1252 8707 5618 1209 309 160 98 2803 1370 1509 5338 445 1545 873 747 1936 240 3433 144 1289 1039 16133 1212 783
is_linear=0
shrinkage=0.1


Tree=13
num_leaves=78
num_cat=0
split_feature=1 1 6 0 1 3 15 0 15 0 0 0 3 0 0 0 0 0 3 0 15 23 3 1 9 9 17 1 9 20 8 23 24 0 25 18 7 20 0 0 15 15 17 19 9 13 19 24 3 3 19 3 17 3 10 3 19 25 15 15 15 17 17 15 19 3 9 20 6 0 2 0 0 11 8 9 0
split_gain=5860.34 2024.42 1140.61 877.943 566.875 487.753 352.528 300.606 261.792 232.502 219.992 246.675 189.235 159.05 149.054 297.675 144.498 143.811 131.047 130.501 126.335 125.597 119.11 115.627 111.694 121.738 111.028 103.989 103.851 95.7401 93.1679 90.0151 88.3598 88.3114 87.1121 78.1508 75.1271 74.254 74.1108 76.9992 73.0039 72.4871 72.289 68.6191 68.0191 62.0521 60.0845 58.0101 61.0504 57.2571 54.5069 53.4264 51.4802 51.1106 97.9215 62.658 49.214 49.1356 47.5653 47.486 81.6479 46.6884 46.3917 46.3304 45.7197 45.3581 84.8668 44.8755 44.8432 42.918 59.0141 42.3123 97.7631 41.7182 41.5321 41.1192 40.6742
threshold=1.2424533248940004 4.6001450180613412 1.0237841386898852 -1.0000000180025095e-35 6.1473987767932732 1.6233010451396201 0.6751311150250604 -1.0000000180025095e-35 5.0601463145955732 3.1500000000000008 7.2500000000000009 -1.0000000180025095e-35 0.5596870105284576 5.0500000000000007 -1.0000000180025095e-35 1.5500000000000003 1.9500000000000002 8.4500000000000011 7.4226202127198526e-09 12.250000000000002 7.2568109614492595 1.0000000180025095e-35 3.7365619212614463 7.5817066510678091 6.5344363527808511 1.3053724350739777 21.500000000000004 3.1132683346437333 3.9848685324753172 1.5000000000000002 0.28967728821911015 -1.0000000180025095e-35 1.0000000180025095e-35 1.0000000180025095e-35 18.500000000000004 1.5000000000000002 0.43689937533512374 1.5000000000000002 -1.0000000180025095e-35 1.5500000000000003 8.4108768359561328 1.0000000180025095e-35 33.500000000000007 28.500000000000004 2.1874154578163973 0.012031860394133452 33.500000000000007 -1.0000000180025095e-35 1.0000000180025095e-35 0.10930088236685206 28.500000000000004 2.8121549628327105 25.500000000000004 1.0000000180025095e-35 0.23233765553393451 0.66486345642644717 24.500000000000004 7.5000000000000009 0.12769566061734619 1.7618923879752495 5.4525376903593967 50.500000000000007 22.500000000000004 7.2568109614492595 30.500000000000004 0.47930331249712627 0.52118545062583699 1.0000000180025095e-35 1.7704601262984863 7.6500000000000012 1.0000000180025095e-35 -1.0000000180025095e-35 1.9500000000000002 2.8632940138323373 2.9048795475422788 2.0914108044276779e-15 1.9500000000000002
decision_type=2 2 2 2 2 2 2 2 2 2 2 2 2 2 2 2 2 2 2 2 2 2 2 2 2 2 2 2 2 2 2 2 2 2 2 2 2 2 2 2 2 2 2 2 2 2 2 2 2 2 2 2 2 2 2 2 2 2 2 2 2 2 2 2 2 2 2 2 2 2 2 2 2 2 2 2 2
left_child=2 3 6 21 7 14 12 31 17 20 11 42 47 28 56 18 24 22 26 68 33 58 74 62 25 -13 36 37 38 32 67 -3 -21 -6 43 61 -16 -19 -8 53 59 44 -7 -29 -32 -23 -28 -1 73 -50 -47 -27 -15 54 -40 -55 -4 -44 -2 -9 -61 -12 -11 -10 -34 -20 -67 -14 -17 70 -46 -51 -73 -49 -5 -70 -24
right_child=1 4 5 8 9 10 13 40 63 23 35 16 30 52 15 19 -18 27 65 29 -22 45 76 -25 -26 51 46 34 -30 -31 41 -33 64 -35 -36 -37 -38 -39 39 -41 -42 -43 57 -45 69 50 -48 48 49 71 -52 -53 -54 55 -56 -57 -58 -59 -60 60 -62 -63 -64 -65 -66 66 -68 -69 75 -71 -72 72 -74 -75 -76 -77 -78
leaf_value=-0.017631614436261166 -0.014540996785560846 -0.017583961851991334 -0.023565283793689752 0.083894335152427113 -0.0049963368713217115 -0.0056165166709306906 0.0012663174945181349 0.17959367056473954 0.13223735228636102 0.28659442683937114 0.033872559742790471 0.30013719423098922 -0.020522657729110279 0.015722493092775108 0.13849584970520915 0.014991828223373853 0.064966881428547424 0.067450676346439906 0.0087494566160643029 -0.0052897730545350061 0.35617619755079755 -0.0095985592098962458 0.30654483258402387 0.5138475835854206 0.26965840220937032 0.066358689766763887 0.045616029312583427 0.068771071306882592 0.17178636086387208 -0.0080635516586156659 0.0050112093642629835 0.14901163882780599 0.0085088152331981148 0.19963454966006899 0.23616696679988053 0.0012662900312640467 0.35450101538480788 0.036489682288700268 0.062094574700486051 0.029509043808075355 0.24339681773149061 -0.010426384698925881 0.11169273500999338 0.12417854373982068 0.0773735380994197 0.021249510934343824 0.18060742322506548 -0.004521604835404933 -0.016766056779960826 -0.016850392982409285 0.12206324807844804 0.13358345665783708 -0.0034655191117864605 0.015597418095767432 0.29576287885376418 0.10816660111315529 0.00035100002420190369 -0.0038779505676522271 0.055521036624841674 0.044561977008198708 0.16196643424342677 0.12946502597838325 0.38976598869931589 0.20751638908539605 0.028053309254328331 0.14313855952044008 0.035235025517256491 -0.0059872233848763607 0.06474678321010896 0.013794538448185909 -0.012381776077189859 0.062226671826710656 -0.0083710589600008573 0.05890550673735865 0.14144335311889114 0.028182136761393719 0.16578868590847592
leaf_weight=22558 1620 123 1698 794 34 478 474 505 313 128 1510 33 2670 2248 32 1904 1008 1638 200 2358 31 98 30 38 51 229 98 925 57 4500 7386 44 2380 55 38 996 33 1475 43 717 125 2794 106 296 328 85 50 8208 22135 6680 147 247 3697 132 31 165 1742 56 103 83 210 53 68 112 2413 106 235 10414 417 490 94 198 20545 105 150 1183 68
leaf_count=22558 1620 123 1698 794 34 478 474 505 313 128 1510 33 2670 2248 32 1904 1008 1638 200 2358 31 98 30 38 51 229 98 925 57 4500 7386 44 2380 55 38 996 33 1475 43 717 125 2794 106 296 328 85 50 8208 22135 6680 147 247 3697 132 31 165 1742 56 103 83 210 53 68 112 2413 106 235 10414 417 490 94 198 20545 105 150 1183 68
internal_value=0 0.0766498 -0.00524737 0.0567287 0.185517 0.0144825 -0.00948935 0.149785 0.0765059 0.2955 0.043135 0.0662652 -0.0109969 0.0113576 0.00742269 0.0115044 0.0876209 0.0705686 0.0728324 0.00845231 0.182097 0.000473049 0.103973 0.353598 0.128374 0.114191 0.139305 0.0626041 0.0391456 0.00336201 -0.00323838 0.0262286 0.0105538 0.121309 0.0868719 0.0231722 0.24837 0.0527851 0.0342966 0.0486741 0.172126 0.00350302 0.0139227 0.0822143 0.00819479 0.0569966 0.0913132 -0.0133289 -0.0116515 -0.0129818 0.0851857 0.101271 0.00378782 0.0856762 0.160167 0.0670705 -0.0114503 0.0716588 -0.0103448 0.160944 0.128755 0.0371227 0.322459 0.152108 0.0183512 0.0466358 0.0688168 -0.00895445 0.025374 0.0339627 0.0573485 -0.00992682 -0.00769652 -0.00371884 0.0930532 0.0377203 0.209017
internal_weight=0 9336 136285 7892 1444 24116 112169 1090 5839 354 4767 2208 104605 7564 19349 15909 1568 5414 754 15155 120 2053 1042 234 560 509 213 4372 1619 11651 24176 167 7151 89 1259 2559 65 3113 1562 1088 923 11092 640 1221 8298 330 148 80429 57871 49558 232 476 5945 371 74 297 3440 162 1723 798 293 1563 196 425 4793 541 341 13084 3504 912 422 27423 20743 8313 944 1600 98
internal_count=145621 9336 136285 7892 1444 24116 112169 1090 5839 354 4767 2208 104605 7564 19349 15909 1568 5414 754 15155 120 2053 1042 234 560 509 213 4372 1619 11651 24176 167 7151 89 1259 2559 65 3113 1562 1088 923 11092 640 1221 8298 330 148 80429 57871 49558 232 476 5945 371 74 297 3440 162 1723 798 293 1563 196 425 4793 541 341 13084 3504 912 422 27423 20743 8313 944 1600 98
is_linear=0
shrinkage=0.1


Tree=14
num_leaves=78
num_cat=0
split_feature=1 1 6 1 0 0 3 0 3 0 0 15 15 2 1 15 9 15 15 3 1 15 15 18 1 12 6 19 24 22 0 0 9 0 23 0 0 9 0 0 12 0 2 3 11 3 15 0 0 17 20 19 10 9 2 0 0 1 0 0 3 3 7 9 9 3 0 17 19 1 9 23 3 15 6 0 3
split_gain=4782.61 1607.25 814.773 791.726 650.698 420.058 370.04 261.233 237.882 188.283 185.377 177.018 158.978 157.325 126.506 119.988 115.585 111.59 102.302 96.0666 93.5642 90.0659 154.01 89.9961 84.519 83.8947 83.8928 82.3568 80.2277 77.9881 77.9231 468.632 159.218 129.501 77.6802 74.286 72.7419 70.9467 79.2556 84.7776 67.2945 64.9942 64.33 62.1023 59.7616 58.6401 58.3634 83.6877 135.162 57.6763 54.779 52.8778 52.3843 52.1697 50.897 49.5251 49.1687 49.023 46.166 101.031 43.066 42.5278 41.9097 39.7098 39.5202 55.0344 39.5096 39.2707 38.9337 38.7401 47.0043 44.4112 49.3699 37.6234 36.3164 36.3004 56.2987
